<?xml version="1.0"?>
<opencv_storage>
<cascade>
  <stageType>BOOST</stageType>
  <featureType>HAAR</featureType>
  <height>32</height>
  <width>32</width>
  <stageParams>
    <boostType>GAB</boostType>
    <minHitRate>9.9500000476837158e-01</minHitRate>
    <maxFalseAlarm>5.0000000000000000e-01</maxFalseAlarm>
    <weightTrimRate>9.4999999999999996e-01</weightTrimRate>
    <maxDepth>1</maxDepth>
    <maxWeakCount>100</maxWeakCount></stageParams>
  <featureParams>
    <maxCatCount>0</maxCatCount>
    <featSize>1</featSize>
    <mode>ALL</mode></featureParams>
  <stageNum>4</stageNum>
  <stages>
    <!-- stage 0 -->
    <_>
      <maxWeakCount>1</maxWeakCount>
      <stageThreshold>9.9700450897216797e-01</stageThreshold>
      <weakClassifiers>
        <_>
          <internalNodes>
            0 -1 0 -1.2402420863509178e-02</internalNodes>
          <leafValues>
            -1. 9.9700450897216797e-01</leafValues></_></weakClassifiers></_>
    <!-- stage 1 -->
    <_>
      <maxWeakCount>1</maxWeakCount>
      <stageThreshold>9.7039961814880371e-01</stageThreshold>
      <weakClassifiers>
        <_>
          <internalNodes>
            0 -1 3 -1.3076594099402428e-02</internalNodes>
          <leafValues>
            9.7039961814880371e-01 -9.9383348226547241e-01</leafValues></_></weakClassifiers></_>
    <!-- stage 2 -->
    <_>
      <maxWeakCount>2</maxWeakCount>
      <stageThreshold>-4.9558475613594055e-02</stageThreshold>
      <weakClassifiers>
        <_>
          <internalNodes>
            0 -1 2 -2.0979464054107666e-02</internalNodes>
          <leafValues>
            9.2300099134445190e-01 -8.9322382211685181e-01</leafValues></_>
        <_>
          <internalNodes>
            0 -1 1 2.5608219206333160e-02</internalNodes>
          <leafValues>
            -9.2783921957015991e-01 8.4366536140441895e-01</leafValues></_></weakClassifiers></_>
    <!-- stage 3 -->
    <_>
      <maxWeakCount>2</maxWeakCount>
      <stageThreshold>-2.2111810743808746e-02</stageThreshold>
      <weakClassifiers>
        <_>
          <internalNodes>
            0 -1 5 -7.8227138146758080e-05</internalNodes>
          <leafValues>
            -9.0618336200714111e-01 8.9718717336654663e-01</leafValues></_>
        <_>
          <internalNodes>
            0 -1 4 -1.9569106400012970e-02</internalNodes>
          <leafValues>
            8.8407152891159058e-01 -8.8110399246215820e-01</leafValues></_></weakClassifiers></_></stages>
  <features>
    <_>
      <rects>
        <_>
          2 29 30 3 -1.</_>
        <_>
          12 29 10 3 2.</_></rects>
      <tilted>0</tilted></_>
    <_>
      <rects>
        <_>
          4 15 13 4 -1.</_>
        <_>
          4 15 13 2 2.</_></rects>
      <tilted>1</tilted></_>
    <_>
      <rects>
        <_>
          11 1 4 11 -1.</_>
        <_>
          11 1 2 11 2.</_></rects>
      <tilted>1</tilted></_>
    <_>
      <rects>
        <_>
          16 13 3 6 -1.</_>
        <_>
          17 15 1 2 9.</_></rects>
      <tilted>0</tilted></_>
    <_>
      <rects>
        <_>
          26 12 6 14 -1.</_>
        <_>
          29 12 3 14 2.</_></rects>
      <tilted>0</tilted></_>
    <_>
      <rects>
        <_>
          31 29 1 3 -1.</_>
        <_>
          31 30 1 1 2.</_></rects>
      <tilted>0</tilted></_></features></cascade>
</opencv_storage>
