<?xml version="1.0"?>
<opencv_storage>
<cascade>
  <stageType>BOOST</stageType>
  <featureType>HAAR</featureType>
  <height>32</height>
  <width>32</width>
  <stageParams>
    <boostType>GAB</boostType>
    <minHitRate>9.9500000476837158e-01</minHitRate>
    <maxFalseAlarm>5.0000000000000000e-01</maxFalseAlarm>
    <weightTrimRate>9.4999999999999996e-01</weightTrimRate>
    <maxDepth>1</maxDepth>
    <maxWeakCount>100</maxWeakCount></stageParams>
  <featureParams>
    <maxCatCount>0</maxCatCount>
    <featSize>1</featSize>
    <mode>ALL</mode></featureParams>
  <stageNum>6</stageNum>
  <stages>
    <!-- stage 0 -->
    <_>
      <maxWeakCount>1</maxWeakCount>
      <stageThreshold>9.3113481998443604e-01</stageThreshold>
      <weakClassifiers>
        <_>
          <internalNodes>
            0 -1 1 2.3585999011993408e-01</internalNodes>
          <leafValues>
            -9.8081022500991821e-01 9.3113481998443604e-01</leafValues></_></weakClassifiers></_>
    <!-- stage 1 -->
    <_>
      <maxWeakCount>2</maxWeakCount>
      <stageThreshold>1.4945183694362640e-01</stageThreshold>
      <weakClassifiers>
        <_>
          <internalNodes>
            0 -1 0 -1.6474432777613401e-04</internalNodes>
          <leafValues>
            -8.2205748558044434e-01 9.8230087757110596e-01</leafValues></_>
        <_>
          <internalNodes>
            0 -1 7 -1.0394811397418380e-04</internalNodes>
          <leafValues>
            -8.3284902572631836e-01 9.8819506168365479e-01</leafValues></_></weakClassifiers></_>
    <!-- stage 2 -->
    <_>
      <maxWeakCount>2</maxWeakCount>
      <stageThreshold>-9.9241182208061218e-02</stageThreshold>
      <weakClassifiers>
        <_>
          <internalNodes>
            0 -1 5 -1.0308992350474000e-03</internalNodes>
          <leafValues>
            8.4593838453292847e-01 -9.4638693332672119e-01</leafValues></_>
        <_>
          <internalNodes>
            0 -1 8 -4.9160612434206996e-06</internalNodes>
          <leafValues>
            -7.9626935720443726e-01 8.4714573621749878e-01</leafValues></_></weakClassifiers></_>
    <!-- stage 3 -->
    <_>
      <maxWeakCount>2</maxWeakCount>
      <stageThreshold>-1.9348050653934479e-01</stageThreshold>
      <weakClassifiers>
        <_>
          <internalNodes>
            0 -1 3 1.4673338830471039e-01</internalNodes>
          <leafValues>
            -9.5532196760177612e-01 7.7132648229598999e-01</leafValues></_>
        <_>
          <internalNodes>
            0 -1 2 -1.4454879419645295e-05</internalNodes>
          <leafValues>
            -8.1153982877731323e-01 7.6184141635894775e-01</leafValues></_></weakClassifiers></_>
    <!-- stage 4 -->
    <_>
      <maxWeakCount>2</maxWeakCount>
      <stageThreshold>-2.7461385726928711e-01</stageThreshold>
      <weakClassifiers>
        <_>
          <internalNodes>
            0 -1 6 3.9217216544784606e-04</internalNodes>
          <leafValues>
            -9.4428968429565430e-01 7.3531991243362427e-01</leafValues></_>
        <_>
          <internalNodes>
            0 -1 9 -1.1423286196077242e-05</internalNodes>
          <leafValues>
            -8.3099031448364258e-01 6.6967582702636719e-01</leafValues></_></weakClassifiers></_>
    <!-- stage 5 -->
    <_>
      <maxWeakCount>1</maxWeakCount>
      <stageThreshold>7.3252278566360474e-01</stageThreshold>
      <weakClassifiers>
        <_>
          <internalNodes>
            0 -1 4 -9.0454006567597389e-04</internalNodes>
          <leafValues>
            7.3252278566360474e-01 -9.8565280437469482e-01</leafValues></_></weakClassifiers></_></stages>
  <features>
    <_>
      <rects>
        <_>
          0 0 3 1 -1.</_>
        <_>
          1 0 1 1 2.</_></rects>
      <tilted>0</tilted></_>
    <_>
      <rects>
        <_>
          0 8 24 24 -1.</_>
        <_>
          8 16 8 8 9.</_></rects>
      <tilted>0</tilted></_>
    <_>
      <rects>
        <_>
          0 29 1 3 -1.</_>
        <_>
          0 30 1 1 2.</_></rects>
      <tilted>0</tilted></_>
    <_>
      <rects>
        <_>
          8 0 24 24 -1.</_>
        <_>
          16 8 8 8 9.</_></rects>
      <tilted>0</tilted></_>
    <_>
      <rects>
        <_>
          15 13 2 2 -1.</_>
        <_>
          15 13 1 2 2.</_></rects>
      <tilted>1</tilted></_>
    <_>
      <rects>
        <_>
          16 14 1 6 -1.</_>
        <_>
          16 17 1 3 2.</_></rects>
      <tilted>0</tilted></_>
    <_>
      <rects>
        <_>
          18 17 6 2 -1.</_>
        <_>
          21 17 3 2 2.</_></rects>
      <tilted>0</tilted></_>
    <_>
      <rects>
        <_>
          29 0 3 1 -1.</_>
        <_>
          30 0 1 1 2.</_></rects>
      <tilted>0</tilted></_>
    <_>
      <rects>
        <_>
          29 31 3 1 -1.</_>
        <_>
          30 31 1 1 2.</_></rects>
      <tilted>0</tilted></_>
    <_>
      <rects>
        <_>
          31 0 1 3 -1.</_>
        <_>
          31 1 1 1 2.</_></rects>
      <tilted>0</tilted></_></features></cascade>
</opencv_storage>
