<?xml version="1.0"?>
<opencv_storage>
<cascade>
  <stageType>BOOST</stageType>
  <featureType>HAAR</featureType>
  <height>24</height>
  <width>24</width>
  <stageParams>
    <boostType>GAB</boostType>
    <minHitRate>9.9500000476837158e-01</minHitRate>
    <maxFalseAlarm>5.0000000000000000e-01</maxFalseAlarm>
    <weightTrimRate>9.4999999999999996e-01</weightTrimRate>
    <maxDepth>1</maxDepth>
    <maxWeakCount>100</maxWeakCount></stageParams>
  <featureParams>
    <maxCatCount>0</maxCatCount>
    <featSize>1</featSize>
    <mode>ALL</mode></featureParams>
  <stageNum>9</stageNum>
  <stages>
    <!-- stage 0 -->
    <_>
      <maxWeakCount>4</maxWeakCount>
      <stageThreshold>-2.0820131301879883e+00</stageThreshold>
      <weakClassifiers>
        <_>
          <internalNodes>
            0 -1 23 -9.3652583658695221e-02</internalNodes>
          <leafValues>
            6.7320263385772705e-01 -9.7535932064056396e-01</leafValues></_>
        <_>
          <internalNodes>
            0 -1 3 3.5111062228679657e-02</internalNodes>
          <leafValues>
            -8.7596464157104492e-01 7.2427111864089966e-01</leafValues></_>
        <_>
          <internalNodes>
            0 -1 37 -7.8901397064328194e-03</internalNodes>
          <leafValues>
            7.0704221725463867e-01 -7.6077276468276978e-01</leafValues></_>
        <_>
          <internalNodes>
            0 -1 9 -6.0695721767842770e-03</internalNodes>
          <leafValues>
            5.3631132841110229e-01 -9.3773138523101807e-01</leafValues></_></weakClassifiers></_>
    <!-- stage 1 -->
    <_>
      <maxWeakCount>4</maxWeakCount>
      <stageThreshold>-2.2980096340179443e+00</stageThreshold>
      <weakClassifiers>
        <_>
          <internalNodes>
            0 -1 6 6.3097529113292694e-02</internalNodes>
          <leafValues>
            -9.5629298686981201e-01 7.7777779102325439e-01</leafValues></_>
        <_>
          <internalNodes>
            0 -1 21 1.1916229128837585e-01</internalNodes>
          <leafValues>
            -8.7191998958587646e-01 6.7288261651992798e-01</leafValues></_>
        <_>
          <internalNodes>
            0 -1 15 -2.9702028259634972e-02</internalNodes>
          <leafValues>
            -9.2025876045227051e-01 5.3818219900131226e-01</leafValues></_>
        <_>
          <internalNodes>
            0 -1 20 -1.9085198640823364e-02</internalNodes>
          <leafValues>
            4.5046216249465942e-01 -8.4626400470733643e-01</leafValues></_></weakClassifiers></_>
    <!-- stage 2 -->
    <_>
      <maxWeakCount>3</maxWeakCount>
      <stageThreshold>-1.7037647962570190e+00</stageThreshold>
      <weakClassifiers>
        <_>
          <internalNodes>
            0 -1 26 -4.1945621371269226e-02</internalNodes>
          <leafValues>
            5.6204378604888916e-01 -9.5838433504104614e-01</leafValues></_>
        <_>
          <internalNodes>
            0 -1 18 -4.0039561688899994e-02</internalNodes>
          <leafValues>
            4.9344432353973389e-01 -8.7447428703308105e-01</leafValues></_>
        <_>
          <internalNodes>
            0 -1 7 8.6510728579014540e-04</internalNodes>
          <leafValues>
            -9.8887568712234497e-01 1.2909388542175293e-01</leafValues></_></weakClassifiers></_>
    <!-- stage 3 -->
    <_>
      <maxWeakCount>4</maxWeakCount>
      <stageThreshold>-1.9733518362045288e+00</stageThreshold>
      <weakClassifiers>
        <_>
          <internalNodes>
            0 -1 27 2.7572620660066605e-02</internalNodes>
          <leafValues>
            -9.5749896764755249e-01 5.0354611873626709e-01</leafValues></_>
        <_>
          <internalNodes>
            0 -1 1 3.4074615687131882e-02</internalNodes>
          <leafValues>
            -8.5855996608734131e-01 5.8426475524902344e-01</leafValues></_>
        <_>
          <internalNodes>
            0 -1 25 2.9085634276270866e-02</internalNodes>
          <leafValues>
            -7.8475934267044067e-01 3.7713238596916199e-01</leafValues></_>
        <_>
          <internalNodes>
            0 -1 4 -1.0759304463863373e-01</internalNodes>
          <leafValues>
            8.8377791643142700e-01 -5.3442525863647461e-01</leafValues></_></weakClassifiers></_>
    <!-- stage 4 -->
    <_>
      <maxWeakCount>3</maxWeakCount>
      <stageThreshold>-1.6625230312347412e+00</stageThreshold>
      <weakClassifiers>
        <_>
          <internalNodes>
            0 -1 5 8.3753116428852081e-02</internalNodes>
          <leafValues>
            -9.5274949073791504e-01 5.0375938415527344e-01</leafValues></_>
        <_>
          <internalNodes>
            0 -1 34 -1.9436184316873550e-02</internalNodes>
          <leafValues>
            4.7058656811714172e-01 -8.3232837915420532e-01</leafValues></_>
        <_>
          <internalNodes>
            0 -1 31 1.3122749805916101e-04</internalNodes>
          <leafValues>
            -1. 1.2255487591028214e-01</leafValues></_></weakClassifiers></_>
    <!-- stage 5 -->
    <_>
      <maxWeakCount>5</maxWeakCount>
      <stageThreshold>-2.0440990924835205e+00</stageThreshold>
      <weakClassifiers>
        <_>
          <internalNodes>
            0 -1 19 -5.6923851370811462e-02</internalNodes>
          <leafValues>
            5.9292036294937134e-01 -9.4505047798156738e-01</leafValues></_>
        <_>
          <internalNodes>
            0 -1 2 8.7505057454109192e-02</internalNodes>
          <leafValues>
            -8.2886326313018799e-01 5.8164489269256592e-01</leafValues></_>
        <_>
          <internalNodes>
            0 -1 30 -3.6149763036519289e-04</internalNodes>
          <leafValues>
            -9.5008677244186401e-01 1.7787753045558929e-01</leafValues></_>
        <_>
          <internalNodes>
            0 -1 29 -3.1592115759849548e-02</internalNodes>
          <leafValues>
            -6.3670378923416138e-01 5.0725495815277100e-01</leafValues></_>
        <_>
          <internalNodes>
            0 -1 17 3.4711188636720181e-03</internalNodes>
          <leafValues>
            -9.5531773567199707e-01 3.4323936700820923e-01</leafValues></_></weakClassifiers></_>
    <!-- stage 6 -->
    <_>
      <maxWeakCount>4</maxWeakCount>
      <stageThreshold>-1.4517437219619751e+00</stageThreshold>
      <weakClassifiers>
        <_>
          <internalNodes>
            0 -1 32 -2.0157765597105026e-02</internalNodes>
          <leafValues>
            3.9682540297508240e-01 -9.4313567876815796e-01</leafValues></_>
        <_>
          <internalNodes>
            0 -1 10 -2.5328408926725388e-02</internalNodes>
          <leafValues>
            4.8432958126068115e-01 -8.3188819885253906e-01</leafValues></_>
        <_>
          <internalNodes>
            0 -1 22 -1.4067629817873240e-03</internalNodes>
          <leafValues>
            -1. 1.2208927422761917e-01</leafValues></_>
        <_>
          <internalNodes>
            0 -1 11 -3.6561535671353340e-04</internalNodes>
          <leafValues>
            2.0119082927703857e-01 -1.</leafValues></_></weakClassifiers></_>
    <!-- stage 7 -->
    <_>
      <maxWeakCount>5</maxWeakCount>
      <stageThreshold>-2.0350844860076904e+00</stageThreshold>
      <weakClassifiers>
        <_>
          <internalNodes>
            0 -1 35 -2.5480564683675766e-02</internalNodes>
          <leafValues>
            6.4705884456634521e-01 -9.2968440055847168e-01</leafValues></_>
        <_>
          <internalNodes>
            0 -1 0 3.9699760079383850e-01</internalNodes>
          <leafValues>
            -8.0896455049514771e-01 4.0306591987609863e-01</leafValues></_>
        <_>
          <internalNodes>
            0 -1 28 3.2082106918096542e-03</internalNodes>
          <leafValues>
            -7.4388897418975830e-01 3.2247000932693481e-01</leafValues></_>
        <_>
          <internalNodes>
            0 -1 8 3.1345789320766926e-03</internalNodes>
          <leafValues>
            3.0912438035011292e-01 -8.9425742626190186e-01</leafValues></_>
        <_>
          <internalNodes>
            0 -1 13 -2.1088779903948307e-03</internalNodes>
          <leafValues>
            2.7535176277160645e-01 -9.2834436893463135e-01</leafValues></_></weakClassifiers></_>
    <!-- stage 8 -->
    <_>
      <maxWeakCount>6</maxWeakCount>
      <stageThreshold>-1.9603854417800903e+00</stageThreshold>
      <weakClassifiers>
        <_>
          <internalNodes>
            0 -1 36 -2.1748032420873642e-02</internalNodes>
          <leafValues>
            7.8378379344940186e-01 -9.2680984735488892e-01</leafValues></_>
        <_>
          <internalNodes>
            0 -1 16 4.4556591659784317e-02</internalNodes>
          <leafValues>
            -8.2232809066772461e-01 3.3199721574783325e-01</leafValues></_>
        <_>
          <internalNodes>
            0 -1 14 -7.6287105912342668e-05</internalNodes>
          <leafValues>
            1.5207006037235260e-01 -8.9239740371704102e-01</leafValues></_>
        <_>
          <internalNodes>
            0 -1 24 -4.8423421685583889e-04</internalNodes>
          <leafValues>
            2.5581437349319458e-01 -9.2462617158889771e-01</leafValues></_>
        <_>
          <internalNodes>
            0 -1 12 -6.4095816924236715e-05</internalNodes>
          <leafValues>
            2.6673564314842224e-01 -8.2689112424850464e-01</leafValues></_>
        <_>
          <internalNodes>
            0 -1 33 -4.6488781663356349e-05</internalNodes>
          <leafValues>
            2.9457297921180725e-01 -8.5478681325912476e-01</leafValues></_></weakClassifiers></_></stages>
  <features>
    <_>
      <rects>
        <_>
          0 1 24 22 -1.</_>
        <_>
          6 1 12 22 2.</_></rects>
      <tilted>0</tilted></_>
    <_>
      <rects>
        <_>
          0 4 24 1 -1.</_>
        <_>
          6 4 12 1 2.</_></rects>
      <tilted>0</tilted></_>
    <_>
      <rects>
        <_>
          0 5 6 17 -1.</_>
        <_>
          3 5 3 17 2.</_></rects>
      <tilted>0</tilted></_>
    <_>
      <rects>
        <_>
          0 18 24 1 -1.</_>
        <_>
          6 18 12 1 2.</_></rects>
      <tilted>0</tilted></_>
    <_>
      <rects>
        <_>
          1 0 21 3 -1.</_>
        <_>
          8 1 7 1 9.</_></rects>
      <tilted>0</tilted></_>
    <_>
      <rects>
        <_>
          1 6 8 11 -1.</_>
        <_>
          3 6 4 11 2.</_></rects>
      <tilted>0</tilted></_>
    <_>
      <rects>
        <_>
          1 8 8 7 -1.</_>
        <_>
          3 8 4 7 2.</_></rects>
      <tilted>0</tilted></_>
    <_>
      <rects>
        <_>
          2 7 4 4 -1.</_>
        <_>
          2 9 4 2 2.</_></rects>
      <tilted>0</tilted></_>
    <_>
      <rects>
        <_>
          2 9 15 8 -1.</_>
        <_>
          2 13 15 4 2.</_></rects>
      <tilted>0</tilted></_>
    <_>
      <rects>
        <_>
          2 18 8 6 -1.</_>
        <_>
          2 18 4 3 2.</_>
        <_>
          6 21 4 3 2.</_></rects>
      <tilted>0</tilted></_>
    <_>
      <rects>
        <_>
          3 3 6 6 -1.</_>
        <_>
          3 3 3 3 2.</_>
        <_>
          6 6 3 3 2.</_></rects>
      <tilted>0</tilted></_>
    <_>
      <rects>
        <_>
          3 13 2 4 -1.</_>
        <_>
          3 15 2 2 2.</_></rects>
      <tilted>0</tilted></_>
    <_>
      <rects>
        <_>
          3 16 2 2 -1.</_>
        <_>
          3 17 2 1 2.</_></rects>
      <tilted>0</tilted></_>
    <_>
      <rects>
        <_>
          4 4 16 16 -1.</_>
        <_>
          4 4 8 8 2.</_>
        <_>
          12 12 8 8 2.</_></rects>
      <tilted>0</tilted></_>
    <_>
      <rects>
        <_>
          4 9 14 1 -1.</_>
        <_>
          11 9 7 1 2.</_></rects>
      <tilted>0</tilted></_>
    <_>
      <rects>
        <_>
          4 19 15 1 -1.</_>
        <_>
          9 19 5 1 2.</_></rects>
      <tilted>0</tilted></_>
    <_>
      <rects>
        <_>
          5 1 14 4 -1.</_>
        <_>
          5 3 14 2 2.</_></rects>
      <tilted>0</tilted></_>
    <_>
      <rects>
        <_>
          5 3 12 3 -1.</_>
        <_>
          9 4 4 1 9.</_></rects>
      <tilted>0</tilted></_>
    <_>
      <rects>
        <_>
          5 18 11 4 -1.</_>
        <_>
          5 20 11 2 2.</_></rects>
      <tilted>0</tilted></_>
    <_>
      <rects>
        <_>
          7 9 6 3 -1.</_>
        <_>
          9 11 2 3 3.</_></rects>
      <tilted>1</tilted></_>
    <_>
      <rects>
        <_>
          8 4 15 4 -1.</_>
        <_>
          8 6 15 2 2.</_></rects>
      <tilted>0</tilted></_>
    <_>
      <rects>
        <_>
          8 7 9 8 -1.</_>
        <_>
          6 9 9 4 2.</_></rects>
      <tilted>1</tilted></_>
    <_>
      <rects>
        <_>
          8 8 10 10 -1.</_>
        <_>
          8 13 10 5 2.</_></rects>
      <tilted>0</tilted></_>
    <_>
      <rects>
        <_>
          9 3 11 6 -1.</_>
        <_>
          7 5 11 2 3.</_></rects>
      <tilted>1</tilted></_>
    <_>
      <rects>
        <_>
          9 9 8 4 -1.</_>
        <_>
          9 9 4 4 2.</_></rects>
      <tilted>1</tilted></_>
    <_>
      <rects>
        <_>
          9 18 14 6 -1.</_>
        <_>
          9 18 7 3 2.</_>
        <_>
          16 21 7 3 2.</_></rects>
      <tilted>0</tilted></_>
    <_>
      <rects>
        <_>
          11 4 2 6 -1.</_>
        <_>
          9 6 2 2 3.</_></rects>
      <tilted>1</tilted></_>
    <_>
      <rects>
        <_>
          12 4 4 10 -1.</_>
        <_>
          12 4 2 5 2.</_>
        <_>
          14 9 2 5 2.</_></rects>
      <tilted>0</tilted></_>
    <_>
      <rects>
        <_>
          13 9 4 5 -1.</_>
        <_>
          14 9 2 5 2.</_></rects>
      <tilted>0</tilted></_>
    <_>
      <rects>
        <_>
          13 14 3 9 -1.</_>
        <_>
          13 17 3 3 2.</_></rects>
      <tilted>0</tilted></_>
    <_>
      <rects>
        <_>
          14 8 5 4 -1.</_>
        <_>
          14 9 5 2 2.</_></rects>
      <tilted>0</tilted></_>
    <_>
      <rects>
        <_>
          14 10 4 4 -1.</_>
        <_>
          14 11 4 2 2.</_></rects>
      <tilted>0</tilted></_>
    <_>
      <rects>
        <_>
          14 11 3 3 -1.</_>
        <_>
          13 12 3 1 3.</_></rects>
      <tilted>1</tilted></_>
    <_>
      <rects>
        <_>
          14 13 1 2 -1.</_>
        <_>
          14 14 1 1 2.</_></rects>
      <tilted>0</tilted></_>
    <_>
      <rects>
        <_>
          15 0 8 2 -1.</_>
        <_>
          15 0 8 1 2.</_></rects>
      <tilted>1</tilted></_>
    <_>
      <rects>
        <_>
          17 5 4 3 -1.</_>
        <_>
          16 6 4 1 3.</_></rects>
      <tilted>1</tilted></_>
    <_>
      <rects>
        <_>
          18 12 3 4 -1.</_>
        <_>
          19 13 1 4 3.</_></rects>
      <tilted>1</tilted></_>
    <_>
      <rects>
        <_>
          19 1 4 3 -1.</_>
        <_>
          18 2 4 1 3.</_></rects>
      <tilted>1</tilted></_></features></cascade>
</opencv_storage>
