<?xml version="1.0"?>
<opencv_storage>
<cascade>
  <stageType>BOOST</stageType>
  <featureType>HAAR</featureType>
  <height>32</height>
  <width>32</width>
  <stageParams>
    <boostType>GAB</boostType>
    <minHitRate>9.9500000476837158e-01</minHitRate>
    <maxFalseAlarm>5.0000000000000000e-01</maxFalseAlarm>
    <weightTrimRate>9.4999999999999996e-01</weightTrimRate>
    <maxDepth>1</maxDepth>
    <maxWeakCount>100</maxWeakCount></stageParams>
  <featureParams>
    <maxCatCount>0</maxCatCount>
    <featSize>1</featSize>
    <mode>ALL</mode></featureParams>
  <stageNum>9</stageNum>
  <stages>
    <!-- stage 0 -->
    <_>
      <maxWeakCount>3</maxWeakCount>
      <stageThreshold>-1.4926289319992065e+00</stageThreshold>
      <weakClassifiers>
        <_>
          <internalNodes>
            0 -1 23 9.5112733542919159e-02</internalNodes>
          <leafValues>
            -9.8605984449386597e-01 9.0532547235488892e-01</leafValues></_>
        <_>
          <internalNodes>
            0 -1 24 -9.3726012855768204e-03</internalNodes>
          <leafValues>
            5.8959138393402100e-01 -9.4890379905700684e-01</leafValues></_>
        <_>
          <internalNodes>
            0 -1 25 3.5311609506607056e-02</internalNodes>
          <leafValues>
            -9.8429387807846069e-01 4.4233477115631104e-01</leafValues></_></weakClassifiers></_>
    <!-- stage 1 -->
    <_>
      <maxWeakCount>4</maxWeakCount>
      <stageThreshold>-2.3773150444030762e+00</stageThreshold>
      <weakClassifiers>
        <_>
          <internalNodes>
            0 -1 27 2.9774639010429382e-01</internalNodes>
          <leafValues>
            -9.7235774993896484e-01 9.4594591856002808e-01</leafValues></_>
        <_>
          <internalNodes>
            0 -1 22 9.5865100622177124e-02</internalNodes>
          <leafValues>
            -9.2083489894866943e-01 5.7238388061523438e-01</leafValues></_>
        <_>
          <internalNodes>
            0 -1 31 -1.5081999823451042e-02</internalNodes>
          <leafValues>
            -8.0907195806503296e-01 5.5380797386169434e-01</leafValues></_>
        <_>
          <internalNodes>
            0 -1 30 9.1970078647136688e-03</internalNodes>
          <leafValues>
            -1. 3.2494947314262390e-01</leafValues></_></weakClassifiers></_>
    <!-- stage 2 -->
    <_>
      <maxWeakCount>4</maxWeakCount>
      <stageThreshold>-2.2672605514526367e+00</stageThreshold>
      <weakClassifiers>
        <_>
          <internalNodes>
            0 -1 14 1.5254360437393188e-01</internalNodes>
          <leafValues>
            -9.6827977895736694e-01 8.6577183008193970e-01</leafValues></_>
        <_>
          <internalNodes>
            0 -1 21 1.1430914700031281e-01</internalNodes>
          <leafValues>
            -8.7944602966308594e-01 5.9010320901870728e-01</leafValues></_>
        <_>
          <internalNodes>
            0 -1 5 -3.9673909544944763e-02</internalNodes>
          <leafValues>
            -7.4752104282379150e-01 4.3578422069549561e-01</leafValues></_>
        <_>
          <internalNodes>
            0 -1 2 3.7786443717777729e-03</internalNodes>
          <leafValues>
            -9.8772525787353516e-01 3.2798624038696289e-01</leafValues></_></weakClassifiers></_>
    <!-- stage 3 -->
    <_>
      <maxWeakCount>5</maxWeakCount>
      <stageThreshold>-2.2342839241027832e+00</stageThreshold>
      <weakClassifiers>
        <_>
          <internalNodes>
            0 -1 15 1.4299944043159485e-01</internalNodes>
          <leafValues>
            -9.6341460943222046e-01 7.9729729890823364e-01</leafValues></_>
        <_>
          <internalNodes>
            0 -1 19 1.1353889107704163e-01</internalNodes>
          <leafValues>
            -8.5699659585952759e-01 5.1907104253768921e-01</leafValues></_>
        <_>
          <internalNodes>
            0 -1 4 -4.8833414912223816e-03</internalNodes>
          <leafValues>
            3.1812971830368042e-01 -9.2885881662368774e-01</leafValues></_>
        <_>
          <internalNodes>
            0 -1 38 3.0351220630109310e-04</internalNodes>
          <leafValues>
            -9.7597253322601318e-01 2.4230848252773285e-01</leafValues></_>
        <_>
          <internalNodes>
            0 -1 1 -1.4250156236812472e-03</internalNodes>
          <leafValues>
            2.7267754077911377e-01 -9.2747676372528076e-01</leafValues></_></weakClassifiers></_>
    <!-- stage 4 -->
    <_>
      <maxWeakCount>5</maxWeakCount>
      <stageThreshold>-2.0621819496154785e+00</stageThreshold>
      <weakClassifiers>
        <_>
          <internalNodes>
            0 -1 7 1.8266615271568298e-01</internalNodes>
          <leafValues>
            -9.4832456111907959e-01 7.4045801162719727e-01</leafValues></_>
        <_>
          <internalNodes>
            0 -1 35 -1.1154559999704361e-01</internalNodes>
          <leafValues>
            2.9699090123176575e-01 -8.3737933635711670e-01</leafValues></_>
        <_>
          <internalNodes>
            0 -1 11 -1.4571756124496460e-02</internalNodes>
          <leafValues>
            3.3046588301658630e-01 -7.1616989374160767e-01</leafValues></_>
        <_>
          <internalNodes>
            0 -1 0 -3.2742129405960441e-04</internalNodes>
          <leafValues>
            2.7163445949554443e-01 -9.3302106857299805e-01</leafValues></_>
        <_>
          <internalNodes>
            0 -1 17 4.8962807341013104e-05</internalNodes>
          <leafValues>
            -9.9451261758804321e-01 2.3834264278411865e-01</leafValues></_></weakClassifiers></_>
    <!-- stage 5 -->
    <_>
      <maxWeakCount>6</maxWeakCount>
      <stageThreshold>-2.6905384063720703e+00</stageThreshold>
      <weakClassifiers>
        <_>
          <internalNodes>
            0 -1 6 2.1477732062339783e-01</internalNodes>
          <leafValues>
            -9.3432116508483887e-01 7.2972971200942993e-01</leafValues></_>
        <_>
          <internalNodes>
            0 -1 36 -3.1597170978784561e-02</internalNodes>
          <leafValues>
            6.8935620784759521e-01 -7.7264976501464844e-01</leafValues></_>
        <_>
          <internalNodes>
            0 -1 8 -5.7183986064046621e-04</internalNodes>
          <leafValues>
            3.4819367527961731e-01 -8.3292746543884277e-01</leafValues></_>
        <_>
          <internalNodes>
            0 -1 20 4.5294915325939655e-03</internalNodes>
          <leafValues>
            -8.9425760507583618e-01 2.8614073991775513e-01</leafValues></_>
        <_>
          <internalNodes>
            0 -1 18 1.0965998517349362e-03</internalNodes>
          <leafValues>
            -7.3991364240646362e-01 3.9130392670631409e-01</leafValues></_>
        <_>
          <internalNodes>
            0 -1 26 7.6476521790027618e-03</internalNodes>
          <leafValues>
            3.0313298106193542e-01 -9.8178189992904663e-01</leafValues></_></weakClassifiers></_>
    <!-- stage 6 -->
    <_>
      <maxWeakCount>5</maxWeakCount>
      <stageThreshold>-2.7850081920623779e+00</stageThreshold>
      <weakClassifiers>
        <_>
          <internalNodes>
            0 -1 6 2.1328215301036835e-01</internalNodes>
          <leafValues>
            -9.3540573120117188e-01 4.9618321657180786e-01</leafValues></_>
        <_>
          <internalNodes>
            0 -1 34 -3.4631259739398956e-02</internalNodes>
          <leafValues>
            3.7632831931114197e-01 -8.2494598627090454e-01</leafValues></_>
        <_>
          <internalNodes>
            0 -1 13 1.9777682609856129e-03</internalNodes>
          <leafValues>
            -8.9681750535964966e-01 2.7019506692886353e-01</leafValues></_>
        <_>
          <internalNodes>
            0 -1 9 -4.6164059313014150e-04</internalNodes>
          <leafValues>
            3.1450966000556946e-01 -7.8576904535293579e-01</leafValues></_>
        <_>
          <internalNodes>
            0 -1 39 -2.2036838345229626e-03</internalNodes>
          <leafValues>
            5.9427791833877563e-01 -5.0908261537551880e-01</leafValues></_></weakClassifiers></_>
    <!-- stage 7 -->
    <_>
      <maxWeakCount>5</maxWeakCount>
      <stageThreshold>-2.0699331760406494e+00</stageThreshold>
      <weakClassifiers>
        <_>
          <internalNodes>
            0 -1 15 1.8363100290298462e-01</internalNodes>
          <leafValues>
            -9.2470967769622803e-01 5.1351350545883179e-01</leafValues></_>
        <_>
          <internalNodes>
            0 -1 40 1.0882586240768433e-02</internalNodes>
          <leafValues>
            -7.2031533718109131e-01 7.3655802011489868e-01</leafValues></_>
        <_>
          <internalNodes>
            0 -1 12 -9.9084880203008652e-03</internalNodes>
          <leafValues>
            2.6341667771339417e-01 -8.8574242591857910e-01</leafValues></_>
        <_>
          <internalNodes>
            0 -1 3 -7.8574463259428740e-04</internalNodes>
          <leafValues>
            -9.1341328620910645e-01 2.5802600383758545e-01</leafValues></_>
        <_>
          <internalNodes>
            0 -1 37 9.3112550675868988e-03</internalNodes>
          <leafValues>
            2.7633893489837646e-01 -9.4635087251663208e-01</leafValues></_></weakClassifiers></_>
    <!-- stage 8 -->
    <_>
      <maxWeakCount>6</maxWeakCount>
      <stageThreshold>-2.8270349502563477e+00</stageThreshold>
      <weakClassifiers>
        <_>
          <internalNodes>
            0 -1 29 5.7672742754220963e-02</internalNodes>
          <leafValues>
            -9.1597306728363037e-01 6.9411766529083252e-01</leafValues></_>
        <_>
          <internalNodes>
            0 -1 33 8.6758434772491455e-03</internalNodes>
          <leafValues>
            -7.9549556970596313e-01 4.4191750884056091e-01</leafValues></_>
        <_>
          <internalNodes>
            0 -1 16 2.2219220409169793e-04</internalNodes>
          <leafValues>
            -8.2548642158508301e-01 2.5352457165718079e-01</leafValues></_>
        <_>
          <internalNodes>
            0 -1 32 1.5827789902687073e-03</internalNodes>
          <leafValues>
            -8.0709475278854370e-01 3.0152806639671326e-01</leafValues></_>
        <_>
          <internalNodes>
            0 -1 10 9.5376046374440193e-04</internalNodes>
          <leafValues>
            2.8269219398498535e-01 -9.4714701175689697e-01</leafValues></_>
        <_>
          <internalNodes>
            0 -1 28 -1.5646049287170172e-03</internalNodes>
          <leafValues>
            2.3432275652885437e-01 -9.9236798286437988e-01</leafValues></_></weakClassifiers></_></stages>
  <features>
    <_>
      <rects>
        <_>
          1 12 12 1 -1.</_>
        <_>
          4 15 6 1 2.</_></rects>
      <tilted>1</tilted></_>
    <_>
      <rects>
        <_>
          1 22 16 1 -1.</_>
        <_>
          5 22 8 1 2.</_></rects>
      <tilted>0</tilted></_>
    <_>
      <rects>
        <_>
          3 12 21 6 -1.</_>
        <_>
          3 15 21 3 2.</_></rects>
      <tilted>0</tilted></_>
    <_>
      <rects>
        <_>
          3 14 15 4 -1.</_>
        <_>
          3 15 15 2 2.</_></rects>
      <tilted>0</tilted></_>
    <_>
      <rects>
        <_>
          4 12 10 6 -1.</_>
        <_>
          4 15 10 3 2.</_></rects>
      <tilted>0</tilted></_>
    <_>
      <rects>
        <_>
          5 19 27 4 -1.</_>
        <_>
          14 19 9 4 2.</_></rects>
      <tilted>0</tilted></_>
    <_>
      <rects>
        <_>
          6 7 16 16 -1.</_>
        <_>
          6 7 8 8 2.</_>
        <_>
          14 15 8 8 2.</_></rects>
      <tilted>0</tilted></_>
    <_>
      <rects>
        <_>
          7 9 16 14 -1.</_>
        <_>
          7 9 8 7 2.</_>
        <_>
          15 16 8 7 2.</_></rects>
      <tilted>0</tilted></_>
    <_>
      <rects>
        <_>
          7 12 5 2 -1.</_>
        <_>
          7 13 5 1 2.</_></rects>
      <tilted>0</tilted></_>
    <_>
      <rects>
        <_>
          7 17 12 3 -1.</_>
        <_>
          11 21 4 3 3.</_></rects>
      <tilted>1</tilted></_>
    <_>
      <rects>
        <_>
          7 18 4 6 -1.</_>
        <_>
          7 21 4 3 2.</_></rects>
      <tilted>0</tilted></_>
    <_>
      <rects>
        <_>
          7 22 16 8 -1.</_>
        <_>
          7 24 16 4 2.</_></rects>
      <tilted>0</tilted></_>
    <_>
      <rects>
        <_>
          8 1 18 8 -1.</_>
        <_>
          14 7 6 8 3.</_></rects>
      <tilted>1</tilted></_>
    <_>
      <rects>
        <_>
          8 5 6 4 -1.</_>
        <_>
          10 7 2 4 3.</_></rects>
      <tilted>1</tilted></_>
    <_>
      <rects>
        <_>
          8 7 14 16 -1.</_>
        <_>
          8 7 7 8 2.</_>
        <_>
          15 15 7 8 2.</_></rects>
      <tilted>0</tilted></_>
    <_>
      <rects>
        <_>
          8 9 14 14 -1.</_>
        <_>
          8 9 7 7 2.</_>
        <_>
          15 16 7 7 2.</_></rects>
      <tilted>0</tilted></_>
    <_>
      <rects>
        <_>
          8 10 10 4 -1.</_>
        <_>
          8 11 10 2 2.</_></rects>
      <tilted>0</tilted></_>
    <_>
      <rects>
        <_>
          8 12 9 4 -1.</_>
        <_>
          8 13 9 2 2.</_></rects>
      <tilted>0</tilted></_>
    <_>
      <rects>
        <_>
          9 5 4 5 -1.</_>
        <_>
          10 6 2 5 2.</_></rects>
      <tilted>1</tilted></_>
    <_>
      <rects>
        <_>
          9 6 15 6 -1.</_>
        <_>
          9 6 15 3 2.</_></rects>
      <tilted>1</tilted></_>
    <_>
      <rects>
        <_>
          10 17 20 8 -1.</_>
        <_>
          10 19 20 4 2.</_></rects>
      <tilted>0</tilted></_>
    <_>
      <rects>
        <_>
          11 3 15 8 -1.</_>
        <_>
          9 5 15 4 2.</_></rects>
      <tilted>1</tilted></_>
    <_>
      <rects>
        <_>
          11 3 16 8 -1.</_>
        <_>
          9 5 16 4 2.</_></rects>
      <tilted>1</tilted></_>
    <_>
      <rects>
        <_>
          12 4 14 8 -1.</_>
        <_>
          10 6 14 4 2.</_></rects>
      <tilted>1</tilted></_>
    <_>
      <rects>
        <_>
          12 8 9 2 -1.</_>
        <_>
          12 8 9 1 2.</_></rects>
      <tilted>1</tilted></_>
    <_>
      <rects>
        <_>
          12 18 15 6 -1.</_>
        <_>
          17 20 5 2 9.</_></rects>
      <tilted>0</tilted></_>
    <_>
      <rects>
        <_>
          14 2 6 13 -1.</_>
        <_>
          14 2 3 13 2.</_></rects>
      <tilted>1</tilted></_>
    <_>
      <rects>
        <_>
          14 2 14 12 -1.</_>
        <_>
          10 6 14 4 3.</_></rects>
      <tilted>1</tilted></_>
    <_>
      <rects>
        <_>
          14 7 12 1 -1.</_>
        <_>
          14 7 6 1 2.</_></rects>
      <tilted>1</tilted></_>
    <_>
      <rects>
        <_>
          14 13 18 1 -1.</_>
        <_>
          14 13 9 1 2.</_></rects>
      <tilted>1</tilted></_>
    <_>
      <rects>
        <_>
          15 4 4 12 -1.</_>
        <_>
          12 7 4 6 2.</_></rects>
      <tilted>1</tilted></_>
    <_>
      <rects>
        <_>
          17 9 2 21 -1.</_>
        <_>
          17 16 2 7 2.</_></rects>
      <tilted>0</tilted></_>
    <_>
      <rects>
        <_>
          20 17 3 4 -1.</_>
        <_>
          21 18 1 4 3.</_></rects>
      <tilted>1</tilted></_>
    <_>
      <rects>
        <_>
          21 0 10 2 -1.</_>
        <_>
          21 0 10 1 2.</_></rects>
      <tilted>1</tilted></_>
    <_>
      <rects>
        <_>
          21 3 6 18 -1.</_>
        <_>
          21 3 3 9 2.</_>
        <_>
          24 12 3 9 2.</_></rects>
      <tilted>0</tilted></_>
    <_>
      <rects>
        <_>
          23 0 9 12 -1.</_>
        <_>
          20 3 9 6 2.</_></rects>
      <tilted>1</tilted></_>
    <_>
      <rects>
        <_>
          23 19 6 4 -1.</_>
        <_>
          25 21 2 4 3.</_></rects>
      <tilted>1</tilted></_>
    <_>
      <rects>
        <_>
          24 2 3 22 -1.</_>
        <_>
          24 13 3 11 2.</_></rects>
      <tilted>0</tilted></_>
    <_>
      <rects>
        <_>
          28 12 2 7 -1.</_>
        <_>
          28 12 1 7 2.</_></rects>
      <tilted>1</tilted></_>
    <_>
      <rects>
        <_>
          30 5 2 14 -1.</_>
        <_>
          31 5 1 14 2.</_></rects>
      <tilted>0</tilted></_>
    <_>
      <rects>
        <_>
          30 21 2 9 -1.</_>
        <_>
          30 21 1 9 2.</_></rects>
      <tilted>1</tilted></_></features></cascade>
</opencv_storage>
