<?xml version="1.0"?>
<opencv_storage>
<cascade>
  <stageType>BOOST</stageType>
  <featureType>HAAR</featureType>
  <height>24</height>
  <width>24</width>
  <stageParams>
    <boostType>GAB</boostType>
    <minHitRate>9.9500000476837158e-01</minHitRate>
    <maxFalseAlarm>5.0000000000000000e-01</maxFalseAlarm>
    <weightTrimRate>9.4999999999999996e-01</weightTrimRate>
    <maxDepth>1</maxDepth>
    <maxWeakCount>100</maxWeakCount></stageParams>
  <featureParams>
    <maxCatCount>0</maxCatCount>
    <featSize>1</featSize>
    <mode>ALL</mode></featureParams>
  <stageNum>8</stageNum>
  <stages>
    <!-- stage 0 -->
    <_>
      <maxWeakCount>4</maxWeakCount>
      <stageThreshold>-2.0789153575897217e+00</stageThreshold>
      <weakClassifiers>
        <_>
          <internalNodes>
            0 -1 14 8.9994713664054871e-02</internalNodes>
          <leafValues>
            -9.8362892866134644e-01 9.5294117927551270e-01</leafValues></_>
        <_>
          <internalNodes>
            0 -1 11 7.0988662540912628e-02</internalNodes>
          <leafValues>
            -9.5131224393844604e-01 6.3892525434494019e-01</leafValues></_>
        <_>
          <internalNodes>
            0 -1 23 1.7815371975302696e-02</internalNodes>
          <leafValues>
            -9.1911047697067261e-01 5.5720704793930054e-01</leafValues></_>
        <_>
          <internalNodes>
            0 -1 12 -6.7669123411178589e-02</internalNodes>
          <leafValues>
            7.7513617277145386e-01 -7.9385393857955933e-01</leafValues></_></weakClassifiers></_>
    <!-- stage 1 -->
    <_>
      <maxWeakCount>3</maxWeakCount>
      <stageThreshold>-1.5531280040740967e+00</stageThreshold>
      <weakClassifiers>
        <_>
          <internalNodes>
            0 -1 17 2.9961568117141724e-01</internalNodes>
          <leafValues>
            -9.6721309423446655e-01 7.9069769382476807e-01</leafValues></_>
        <_>
          <internalNodes>
            0 -1 25 1.1707229539752007e-02</internalNodes>
          <leafValues>
            -9.5126253366470337e-01 3.5596632957458496e-01</leafValues></_>
        <_>
          <internalNodes>
            0 -1 20 -1.3990424573421478e-01</internalNodes>
          <leafValues>
            -9.2418247461318970e-01 3.6534759402275085e-01</leafValues></_></weakClassifiers></_>
    <!-- stage 2 -->
    <_>
      <maxWeakCount>3</maxWeakCount>
      <stageThreshold>-1.4634587764739990e+00</stageThreshold>
      <weakClassifiers>
        <_>
          <internalNodes>
            0 -1 11 2.1291264891624451e-01</internalNodes>
          <leafValues>
            -9.4882154464721680e-01 8.5430461168289185e-01</leafValues></_>
        <_>
          <internalNodes>
            0 -1 3 1.8011197447776794e-01</internalNodes>
          <leafValues>
            -7.6888734102249146e-01 8.5138976573944092e-01</leafValues></_>
        <_>
          <internalNodes>
            0 -1 19 -7.3247356340289116e-03</internalNodes>
          <leafValues>
            2.5425007939338684e-01 -9.9131274223327637e-01</leafValues></_></weakClassifiers></_>
    <!-- stage 3 -->
    <_>
      <maxWeakCount>6</maxWeakCount>
      <stageThreshold>-2.3463888168334961e+00</stageThreshold>
      <weakClassifiers>
        <_>
          <internalNodes>
            0 -1 17 3.7097111344337463e-01</internalNodes>
          <leafValues>
            -9.3923026323318481e-01 7.1612900495529175e-01</leafValues></_>
        <_>
          <internalNodes>
            0 -1 16 2.5776991248130798e-01</internalNodes>
          <leafValues>
            -8.3740597963333130e-01 2.1798905730247498e-01</leafValues></_>
        <_>
          <internalNodes>
            0 -1 1 -1.7882270738482475e-02</internalNodes>
          <leafValues>
            -6.2850433588027954e-01 5.0324028730392456e-01</leafValues></_>
        <_>
          <internalNodes>
            0 -1 28 3.8770893588662148e-03</internalNodes>
          <leafValues>
            -6.1376190185546875e-01 5.0649428367614746e-01</leafValues></_>
        <_>
          <internalNodes>
            0 -1 2 1.4728389214724302e-04</internalNodes>
          <leafValues>
            -9.4074344635009766e-01 3.3724495768547058e-01</leafValues></_>
        <_>
          <internalNodes>
            0 -1 8 -2.2748298943042755e-03</internalNodes>
          <leafValues>
            -9.7755628824234009e-01 3.3526879549026489e-01</leafValues></_></weakClassifiers></_>
    <!-- stage 4 -->
    <_>
      <maxWeakCount>3</maxWeakCount>
      <stageThreshold>-1.4133808612823486e+00</stageThreshold>
      <weakClassifiers>
        <_>
          <internalNodes>
            0 -1 4 2.1504856646060944e-01</internalNodes>
          <leafValues>
            -9.1605597734451294e-01 7.0370370149612427e-01</leafValues></_>
        <_>
          <internalNodes>
            0 -1 10 3.6442082375288010e-02</internalNodes>
          <leafValues>
            -7.6182734966278076e-01 4.6407148241996765e-01</leafValues></_>
        <_>
          <internalNodes>
            0 -1 26 7.1681821718811989e-03</internalNodes>
          <leafValues>
            2.6450240612030029e-01 -9.3686139583587646e-01</leafValues></_></weakClassifiers></_>
    <!-- stage 5 -->
    <_>
      <maxWeakCount>5</maxWeakCount>
      <stageThreshold>-1.8852608203887939e+00</stageThreshold>
      <weakClassifiers>
        <_>
          <internalNodes>
            0 -1 4 2.1404519677162170e-01</internalNodes>
          <leafValues>
            -9.1683435440063477e-01 6.0000002384185791e-01</leafValues></_>
        <_>
          <internalNodes>
            0 -1 30 1.6506467014551163e-02</internalNodes>
          <leafValues>
            -6.7555230855941772e-01 7.5247478485107422e-01</leafValues></_>
        <_>
          <internalNodes>
            0 -1 18 -1.1479430831968784e-03</internalNodes>
          <leafValues>
            -9.1477912664413452e-01 3.0304723978042603e-01</leafValues></_>
        <_>
          <internalNodes>
            0 -1 24 -1.4195149997249246e-03</internalNodes>
          <leafValues>
            -9.5732712745666504e-01 2.3585894703865051e-01</leafValues></_>
        <_>
          <internalNodes>
            0 -1 6 -1.2176343239843845e-02</internalNodes>
          <leafValues>
            3.8604605197906494e-01 -7.1795934438705444e-01</leafValues></_></weakClassifiers></_>
    <!-- stage 6 -->
    <_>
      <maxWeakCount>5</maxWeakCount>
      <stageThreshold>-1.5393277406692505e+00</stageThreshold>
      <weakClassifiers>
        <_>
          <internalNodes>
            0 -1 5 2.0117300748825073e-01</internalNodes>
          <leafValues>
            -8.9078944921493530e-01 6.3793104887008667e-01</leafValues></_>
        <_>
          <internalNodes>
            0 -1 27 -2.5755899026989937e-02</internalNodes>
          <leafValues>
            7.3980444669723511e-01 -6.4900821447372437e-01</leafValues></_>
        <_>
          <internalNodes>
            0 -1 9 2.5614690457587130e-05</internalNodes>
          <leafValues>
            -9.2153167724609375e-01 2.8816002607345581e-01</leafValues></_>
        <_>
          <internalNodes>
            0 -1 29 -7.6859667897224426e-03</internalNodes>
          <leafValues>
            6.7480874061584473e-01 -5.0238668918609619e-01</leafValues></_>
        <_>
          <internalNodes>
            0 -1 15 -8.0722698476165533e-04</internalNodes>
          <leafValues>
            3.4977599978446960e-01 -9.6249890327453613e-01</leafValues></_></weakClassifiers></_>
    <!-- stage 7 -->
    <_>
      <maxWeakCount>5</maxWeakCount>
      <stageThreshold>-1.9587774276733398e+00</stageThreshold>
      <weakClassifiers>
        <_>
          <internalNodes>
            0 -1 21 -3.1460106372833252e-02</internalNodes>
          <leafValues>
            1.6494844853878021e-01 -9.0984743833541870e-01</leafValues></_>
        <_>
          <internalNodes>
            0 -1 7 1.0474562644958496e-01</internalNodes>
          <leafValues>
            -6.5804195404052734e-01 5.5534309148788452e-01</leafValues></_>
        <_>
          <internalNodes>
            0 -1 22 -2.5934213772416115e-02</internalNodes>
          <leafValues>
            2.7610820531845093e-01 -8.7150079011917114e-01</leafValues></_>
        <_>
          <internalNodes>
            0 -1 13 5.8350074104964733e-03</internalNodes>
          <leafValues>
            2.4713863432407379e-01 -9.9055320024490356e-01</leafValues></_>
        <_>
          <internalNodes>
            0 -1 0 -3.2510762102901936e-03</internalNodes>
          <leafValues>
            2.3348192870616913e-01 -9.1413486003875732e-01</leafValues></_></weakClassifiers></_></stages>
  <features>
    <_>
      <rects>
        <_>
          3 8 6 4 -1.</_>
        <_>
          3 10 6 2 2.</_></rects>
      <tilted>0</tilted></_>
    <_>
      <rects>
        <_>
          3 16 21 1 -1.</_>
        <_>
          10 16 7 1 2.</_></rects>
      <tilted>0</tilted></_>
    <_>
      <rects>
        <_>
          5 4 4 11 -1.</_>
        <_>
          6 4 2 11 2.</_></rects>
      <tilted>0</tilted></_>
    <_>
      <rects>
        <_>
          5 5 12 12 -1.</_>
        <_>
          5 5 6 6 2.</_>
        <_>
          11 11 6 6 2.</_></rects>
      <tilted>0</tilted></_>
    <_>
      <rects>
        <_>
          5 6 12 12 -1.</_>
        <_>
          5 6 6 6 2.</_>
        <_>
          11 12 6 6 2.</_></rects>
      <tilted>0</tilted></_>
    <_>
      <rects>
        <_>
          5 7 12 10 -1.</_>
        <_>
          5 7 6 5 2.</_>
        <_>
          11 12 6 5 2.</_></rects>
      <tilted>0</tilted></_>
    <_>
      <rects>
        <_>
          6 0 13 6 -1.</_>
        <_>
          6 3 13 3 2.</_></rects>
      <tilted>0</tilted></_>
    <_>
      <rects>
        <_>
          6 2 13 4 -1.</_>
        <_>
          5 3 13 2 2.</_></rects>
      <tilted>1</tilted></_>
    <_>
      <rects>
        <_>
          6 6 8 9 -1.</_>
        <_>
          8 6 4 9 2.</_></rects>
      <tilted>0</tilted></_>
    <_>
      <rects>
        <_>
          7 4 3 4 -1.</_>
        <_>
          8 5 1 4 3.</_></rects>
      <tilted>1</tilted></_>
    <_>
      <rects>
        <_>
          7 13 10 2 -1.</_>
        <_>
          12 13 5 2 2.</_></rects>
      <tilted>0</tilted></_>
    <_>
      <rects>
        <_>
          8 2 12 6 -1.</_>
        <_>
          6 4 12 2 3.</_></rects>
      <tilted>1</tilted></_>
    <_>
      <rects>
        <_>
          8 9 7 8 -1.</_>
        <_>
          6 11 7 4 2.</_></rects>
      <tilted>1</tilted></_>
    <_>
      <rects>
        <_>
          10 1 6 8 -1.</_>
        <_>
          10 1 3 8 2.</_></rects>
      <tilted>1</tilted></_>
    <_>
      <rects>
        <_>
          10 4 9 6 -1.</_>
        <_>
          8 6 9 2 3.</_></rects>
      <tilted>1</tilted></_>
    <_>
      <rects>
        <_>
          11 2 2 10 -1.</_>
        <_>
          12 2 1 10 2.</_></rects>
      <tilted>0</tilted></_>
    <_>
      <rects>
        <_>
          11 2 10 9 -1.</_>
        <_>
          8 5 10 3 3.</_></rects>
      <tilted>1</tilted></_>
    <_>
      <rects>
        <_>
          11 2 11 9 -1.</_>
        <_>
          8 5 11 3 3.</_></rects>
      <tilted>1</tilted></_>
    <_>
      <rects>
        <_>
          11 4 4 16 -1.</_>
        <_>
          12 4 2 16 2.</_></rects>
      <tilted>0</tilted></_>
    <_>
      <rects>
        <_>
          11 5 8 2 -1.</_>
        <_>
          11 5 4 2 2.</_></rects>
      <tilted>1</tilted></_>
    <_>
      <rects>
        <_>
          11 5 4 18 -1.</_>
        <_>
          11 11 4 6 2.</_></rects>
      <tilted>0</tilted></_>
    <_>
      <rects>
        <_>
          11 16 5 4 -1.</_>
        <_>
          11 18 5 2 2.</_></rects>
      <tilted>0</tilted></_>
    <_>
      <rects>
        <_>
          12 6 8 10 -1.</_>
        <_>
          12 6 4 10 2.</_></rects>
      <tilted>1</tilted></_>
    <_>
      <rects>
        <_>
          14 10 6 3 -1.</_>
        <_>
          16 12 2 3 3.</_></rects>
      <tilted>1</tilted></_>
    <_>
      <rects>
        <_>
          15 3 3 4 -1.</_>
        <_>
          16 4 1 4 3.</_></rects>
      <tilted>1</tilted></_>
    <_>
      <rects>
        <_>
          16 10 4 5 -1.</_>
        <_>
          17 11 2 5 2.</_></rects>
      <tilted>1</tilted></_>
    <_>
      <rects>
        <_>
          18 3 3 14 -1.</_>
        <_>
          18 10 3 7 2.</_></rects>
      <tilted>0</tilted></_>
    <_>
      <rects>
        <_>
          18 14 4 4 -1.</_>
        <_>
          19 15 2 4 2.</_></rects>
      <tilted>1</tilted></_>
    <_>
      <rects>
        <_>
          19 8 4 6 -1.</_>
        <_>
          21 8 2 6 2.</_></rects>
      <tilted>0</tilted></_>
    <_>
      <rects>
        <_>
          22 3 2 13 -1.</_>
        <_>
          23 3 1 13 2.</_></rects>
      <tilted>0</tilted></_>
    <_>
      <rects>
        <_>
          22 16 2 6 -1.</_>
        <_>
          22 16 1 6 2.</_></rects>
      <tilted>1</tilted></_></features></cascade>
</opencv_storage>
