<?xml version="1.0"?>
<opencv_storage>
<cascade>
  <stageType>BOOST</stageType>
  <featureType>HAAR</featureType>
  <height>24</height>
  <width>24</width>
  <stageParams>
    <boostType>GAB</boostType>
    <minHitRate>9.9500000476837158e-01</minHitRate>
    <maxFalseAlarm>5.0000000000000000e-01</maxFalseAlarm>
    <weightTrimRate>9.4999999999999996e-01</weightTrimRate>
    <maxDepth>1</maxDepth>
    <maxWeakCount>100</maxWeakCount></stageParams>
  <featureParams>
    <maxCatCount>0</maxCatCount>
    <featSize>1</featSize>
    <mode>ALL</mode></featureParams>
  <stageNum>11</stageNum>
  <stages>
    <!-- stage 0 -->
    <_>
      <maxWeakCount>4</maxWeakCount>
      <stageThreshold>-2.4295487403869629e+00</stageThreshold>
      <weakClassifiers>
        <_>
          <internalNodes>
            0 -1 4 1.1280954629182816e-01</internalNodes>
          <leafValues>
            -9.5006042718887329e-01 7.1428573131561279e-01</leafValues></_>
        <_>
          <internalNodes>
            0 -1 10 -1.3432595878839493e-02</internalNodes>
          <leafValues>
            4.4508403539657593e-01 -8.8755959272384644e-01</leafValues></_>
        <_>
          <internalNodes>
            0 -1 41 4.5369570143520832e-03</internalNodes>
          <leafValues>
            -8.6773532629013062e-01 2.6042619347572327e-01</leafValues></_>
        <_>
          <internalNodes>
            0 -1 1 -2.3122198879718781e-01</internalNodes>
          <leafValues>
            -9.5430243015289307e-01 2.7580651640892029e-01</leafValues></_></weakClassifiers></_>
    <!-- stage 1 -->
    <_>
      <maxWeakCount>4</maxWeakCount>
      <stageThreshold>-2.2100734710693359e+00</stageThreshold>
      <weakClassifiers>
        <_>
          <internalNodes>
            0 -1 0 3.0221763253211975e-01</internalNodes>
          <leafValues>
            -9.5397657155990601e-01 7.1014493703842163e-01</leafValues></_>
        <_>
          <internalNodes>
            0 -1 15 -6.8244390189647675e-02</internalNodes>
          <leafValues>
            7.9971373081207275e-01 -8.1892955303192139e-01</leafValues></_>
        <_>
          <internalNodes>
            0 -1 27 2.9362710192799568e-03</internalNodes>
          <leafValues>
            -8.8100141286849976e-01 4.6001455187797546e-01</leafValues></_>
        <_>
          <internalNodes>
            0 -1 43 -5.4288688115775585e-03</internalNodes>
          <leafValues>
            4.4383418560028076e-01 -7.9868596792221069e-01</leafValues></_></weakClassifiers></_>
    <!-- stage 2 -->
    <_>
      <maxWeakCount>4</maxWeakCount>
      <stageThreshold>-1.9086951017379761e+00</stageThreshold>
      <weakClassifiers>
        <_>
          <internalNodes>
            0 -1 11 5.7002179324626923e-02</internalNodes>
          <leafValues>
            -9.4886362552642822e-01 2.9268291592597961e-01</leafValues></_>
        <_>
          <internalNodes>
            0 -1 5 -1.7638926208019257e-01</internalNodes>
          <leafValues>
            5.0482767820358276e-01 -7.9992347955703735e-01</leafValues></_>
        <_>
          <internalNodes>
            0 -1 29 1.6679394245147705e-01</internalNodes>
          <leafValues>
            -5.5869418382644653e-01 9.0996754169464111e-01</leafValues></_>
        <_>
          <internalNodes>
            0 -1 45 -1.4146153116598725e-03</internalNodes>
          <leafValues>
            -9.7145098447799683e-01 3.9878624677658081e-01</leafValues></_></weakClassifiers></_>
    <!-- stage 3 -->
    <_>
      <maxWeakCount>4</maxWeakCount>
      <stageThreshold>-1.9361213445663452e+00</stageThreshold>
      <weakClassifiers>
        <_>
          <internalNodes>
            0 -1 9 4.7408007085323334e-02</internalNodes>
          <leafValues>
            -9.5798319578170776e-01 -2.0481927692890167e-01</leafValues></_>
        <_>
          <internalNodes>
            0 -1 2 -2.9217919707298279e-01</internalNodes>
          <leafValues>
            8.2127302885055542e-01 -7.4591356515884399e-01</leafValues></_>
        <_>
          <internalNodes>
            0 -1 31 4.9740906804800034e-02</internalNodes>
          <leafValues>
            -6.8929940462112427e-01 6.2066555023193359e-01</leafValues></_>
        <_>
          <internalNodes>
            0 -1 49 -1.0944793466478586e-03</internalNodes>
          <leafValues>
            4.5707482099533081e-01 -7.5986015796661377e-01</leafValues></_></weakClassifiers></_>
    <!-- stage 4 -->
    <_>
      <maxWeakCount>5</maxWeakCount>
      <stageThreshold>-2.0244972705841064e+00</stageThreshold>
      <weakClassifiers>
        <_>
          <internalNodes>
            0 -1 9 5.9395343065261841e-02</internalNodes>
          <leafValues>
            -9.4741165637969971e-01 -7.1428574621677399e-02</leafValues></_>
        <_>
          <internalNodes>
            0 -1 8 -2.3253004252910614e-01</internalNodes>
          <leafValues>
            8.7022519111633301e-01 -7.2624379396438599e-01</leafValues></_>
        <_>
          <internalNodes>
            0 -1 22 5.9106811881065369e-02</internalNodes>
          <leafValues>
            -6.2264698743820190e-01 5.4961401224136353e-01</leafValues></_>
        <_>
          <internalNodes>
            0 -1 21 1.3287339243106544e-04</internalNodes>
          <leafValues>
            -8.5306388139724731e-01 3.5482567548751831e-01</leafValues></_>
        <_>
          <internalNodes>
            0 -1 34 -1.2322934344410896e-03</internalNodes>
          <leafValues>
            -1. 2.4888604879379272e-01</leafValues></_></weakClassifiers></_>
    <!-- stage 5 -->
    <_>
      <maxWeakCount>5</maxWeakCount>
      <stageThreshold>-1.8805596828460693e+00</stageThreshold>
      <weakClassifiers>
        <_>
          <internalNodes>
            0 -1 3 -4.1677588224411011e-01</internalNodes>
          <leafValues>
            6.1538463830947876e-01 -9.2460316419601440e-01</leafValues></_>
        <_>
          <internalNodes>
            0 -1 46 9.9494969472289085e-03</internalNodes>
          <leafValues>
            -8.0832558870315552e-01 4.6933639049530029e-01</leafValues></_>
        <_>
          <internalNodes>
            0 -1 38 8.7351788533851504e-04</internalNodes>
          <leafValues>
            -8.6480313539505005e-01 2.0926605165004730e-01</leafValues></_>
        <_>
          <internalNodes>
            0 -1 24 4.1838381439447403e-03</internalNodes>
          <leafValues>
            -6.3747072219848633e-01 4.8464828729629517e-01</leafValues></_>
        <_>
          <internalNodes>
            0 -1 26 -7.0839509135112166e-04</internalNodes>
          <leafValues>
            -9.7386741638183594e-01 2.8057378530502319e-01</leafValues></_></weakClassifiers></_>
    <!-- stage 6 -->
    <_>
      <maxWeakCount>5</maxWeakCount>
      <stageThreshold>-2.2184705734252930e+00</stageThreshold>
      <weakClassifiers>
        <_>
          <internalNodes>
            0 -1 20 -9.4161808490753174e-02</internalNodes>
          <leafValues>
            6.8000000715255737e-01 -9.2463308572769165e-01</leafValues></_>
        <_>
          <internalNodes>
            0 -1 9 4.7456238418817520e-02</internalNodes>
          <leafValues>
            -8.1786990165710449e-01 1.7991027235984802e-01</leafValues></_>
        <_>
          <internalNodes>
            0 -1 19 -5.0247705075889826e-04</internalNodes>
          <leafValues>
            1.8495814502239227e-01 -8.4999984502792358e-01</leafValues></_>
        <_>
          <internalNodes>
            0 -1 37 1.0558477370068431e-03</internalNodes>
          <leafValues>
            -8.9251482486724854e-01 2.4630312621593475e-01</leafValues></_>
        <_>
          <internalNodes>
            0 -1 32 -8.6743566498626024e-05</internalNodes>
          <leafValues>
            2.6876685023307800e-01 -8.6001187562942505e-01</leafValues></_></weakClassifiers></_>
    <!-- stage 7 -->
    <_>
      <maxWeakCount>5</maxWeakCount>
      <stageThreshold>-2.1000757217407227e+00</stageThreshold>
      <weakClassifiers>
        <_>
          <internalNodes>
            0 -1 42 2.3823326826095581e-01</internalNodes>
          <leafValues>
            -9.3056666851043701e-01 4.4999998807907104e-01</leafValues></_>
        <_>
          <internalNodes>
            0 -1 48 8.9705120772123337e-03</internalNodes>
          <leafValues>
            -8.0648732185363770e-01 3.3796161413192749e-01</leafValues></_>
        <_>
          <internalNodes>
            0 -1 7 2.2177291102707386e-03</internalNodes>
          <leafValues>
            -7.5860208272933960e-01 2.0440250635147095e-01</leafValues></_>
        <_>
          <internalNodes>
            0 -1 30 -6.2447605887427926e-04</internalNodes>
          <leafValues>
            2.3220942914485931e-01 -8.7682420015335083e-01</leafValues></_>
        <_>
          <internalNodes>
            0 -1 35 -3.0041239369893447e-05</internalNodes>
          <leafValues>
            3.2552662491798401e-01 -7.9963368177413940e-01</leafValues></_></weakClassifiers></_>
    <!-- stage 8 -->
    <_>
      <maxWeakCount>5</maxWeakCount>
      <stageThreshold>-2.0297660827636719e+00</stageThreshold>
      <weakClassifiers>
        <_>
          <internalNodes>
            0 -1 16 -1.3102832436561584e-01</internalNodes>
          <leafValues>
            6.4285713434219360e-01 -9.2613184452056885e-01</leafValues></_>
        <_>
          <internalNodes>
            0 -1 44 1.6226992011070251e-01</internalNodes>
          <leafValues>
            -7.4238550662994385e-01 3.6657395958900452e-01</leafValues></_>
        <_>
          <internalNodes>
            0 -1 12 4.5239487662911415e-03</internalNodes>
          <leafValues>
            -6.4965784549713135e-01 3.5222643613815308e-01</leafValues></_>
        <_>
          <internalNodes>
            0 -1 25 1.3025619555264711e-03</internalNodes>
          <leafValues>
            2.2944605350494385e-01 -9.7147494554519653e-01</leafValues></_>
        <_>
          <internalNodes>
            0 -1 33 -3.2225400209426880e-03</internalNodes>
          <leafValues>
            -9.4292116165161133e-01 2.1142968535423279e-01</leafValues></_></weakClassifiers></_>
    <!-- stage 9 -->
    <_>
      <maxWeakCount>4</maxWeakCount>
      <stageThreshold>-1.7461293935775757e+00</stageThreshold>
      <weakClassifiers>
        <_>
          <internalNodes>
            0 -1 14 -6.4317137002944946e-02</internalNodes>
          <leafValues>
            5.0000000000000000e-01 -9.3136471509933472e-01</leafValues></_>
        <_>
          <internalNodes>
            0 -1 6 5.7325452566146851e-02</internalNodes>
          <leafValues>
            -8.1793254613876343e-01 3.3669162075966597e-03</leafValues></_>
        <_>
          <internalNodes>
            0 -1 18 -1.5902256127446890e-03</internalNodes>
          <leafValues>
            -9.5893186330795288e-01 5.5949941277503967e-02</leafValues></_>
        <_>
          <internalNodes>
            0 -1 36 -2.1104891784489155e-03</internalNodes>
          <leafValues>
            -1. 1.4080031216144562e-01</leafValues></_></weakClassifiers></_>
    <!-- stage 10 -->
    <_>
      <maxWeakCount>7</maxWeakCount>
      <stageThreshold>-2.0539777278900146e+00</stageThreshold>
      <weakClassifiers>
        <_>
          <internalNodes>
            0 -1 13 -3.6259062588214874e-02</internalNodes>
          <leafValues>
            1.3793103396892548e-01 -9.3327975273132324e-01</leafValues></_>
        <_>
          <internalNodes>
            0 -1 23 7.5289219617843628e-02</internalNodes>
          <leafValues>
            -7.7402210235595703e-01 2.0264288783073425e-01</leafValues></_>
        <_>
          <internalNodes>
            0 -1 39 2.5425034109503031e-03</internalNodes>
          <leafValues>
            -7.8217983245849609e-01 2.8139951825141907e-01</leafValues></_>
        <_>
          <internalNodes>
            0 -1 47 -1.2558848597109318e-02</internalNodes>
          <leafValues>
            8.0427783727645874e-01 -3.7361568212509155e-01</leafValues></_>
        <_>
          <internalNodes>
            0 -1 17 5.7389833964407444e-03</internalNodes>
          <leafValues>
            3.1816864013671875e-01 -8.2084339857101440e-01</leafValues></_>
        <_>
          <internalNodes>
            0 -1 28 -1.6195583157241344e-04</internalNodes>
          <leafValues>
            2.6730149984359741e-01 -8.7165457010269165e-01</leafValues></_>
        <_>
          <internalNodes>
            0 -1 40 -4.1128722950816154e-03</internalNodes>
          <leafValues>
            3.8599649071693420e-01 -5.2488458156585693e-01</leafValues></_></weakClassifiers></_></stages>
  <features>
    <_>
      <rects>
        <_>
          0 5 24 10 -1.</_>
        <_>
          6 5 12 10 2.</_></rects>
      <tilted>0</tilted></_>
    <_>
      <rects>
        <_>
          0 6 21 5 -1.</_>
        <_>
          7 6 7 5 2.</_></rects>
      <tilted>0</tilted></_>
    <_>
      <rects>
        <_>
          0 7 24 10 -1.</_>
        <_>
          6 7 12 10 2.</_></rects>
      <tilted>0</tilted></_>
    <_>
      <rects>
        <_>
          0 9 24 12 -1.</_>
        <_>
          6 9 12 12 2.</_></rects>
      <tilted>0</tilted></_>
    <_>
      <rects>
        <_>
          1 9 20 4 -1.</_>
        <_>
          6 9 10 4 2.</_></rects>
      <tilted>0</tilted></_>
    <_>
      <rects>
        <_>
          1 17 21 6 -1.</_>
        <_>
          8 19 7 2 9.</_></rects>
      <tilted>0</tilted></_>
    <_>
      <rects>
        <_>
          2 0 18 8 -1.</_>
        <_>
          2 2 18 4 2.</_></rects>
      <tilted>0</tilted></_>
    <_>
      <rects>
        <_>
          2 4 6 3 -1.</_>
        <_>
          4 5 2 1 9.</_></rects>
      <tilted>0</tilted></_>
    <_>
      <rects>
        <_>
          2 11 20 10 -1.</_>
        <_>
          7 11 10 10 2.</_></rects>
      <tilted>0</tilted></_>
    <_>
      <rects>
        <_>
          3 0 17 4 -1.</_>
        <_>
          3 2 17 2 2.</_></rects>
      <tilted>0</tilted></_>
    <_>
      <rects>
        <_>
          3 6 4 10 -1.</_>
        <_>
          3 6 2 5 2.</_>
        <_>
          5 11 2 5 2.</_></rects>
      <tilted>0</tilted></_>
    <_>
      <rects>
        <_>
          4 1 16 4 -1.</_>
        <_>
          4 3 16 2 2.</_></rects>
      <tilted>0</tilted></_>
    <_>
      <rects>
        <_>
          4 2 15 4 -1.</_>
        <_>
          4 3 15 2 2.</_></rects>
      <tilted>0</tilted></_>
    <_>
      <rects>
        <_>
          4 6 3 4 -1.</_>
        <_>
          4 6 3 2 2.</_></rects>
      <tilted>1</tilted></_>
    <_>
      <rects>
        <_>
          4 7 5 4 -1.</_>
        <_>
          4 7 5 2 2.</_></rects>
      <tilted>1</tilted></_>
    <_>
      <rects>
        <_>
          4 7 6 4 -1.</_>
        <_>
          4 7 6 2 2.</_></rects>
      <tilted>1</tilted></_>
    <_>
      <rects>
        <_>
          4 14 16 7 -1.</_>
        <_>
          8 14 8 7 2.</_></rects>
      <tilted>0</tilted></_>
    <_>
      <rects>
        <_>
          5 5 6 3 -1.</_>
        <_>
          7 7 2 3 3.</_></rects>
      <tilted>1</tilted></_>
    <_>
      <rects>
        <_>
          5 6 4 2 -1.</_>
        <_>
          6 7 2 2 2.</_></rects>
      <tilted>1</tilted></_>
    <_>
      <rects>
        <_>
          5 7 3 4 -1.</_>
        <_>
          5 9 3 2 2.</_></rects>
      <tilted>0</tilted></_>
    <_>
      <rects>
        <_>
          5 10 8 4 -1.</_>
        <_>
          5 10 8 2 2.</_></rects>
      <tilted>1</tilted></_>
    <_>
      <rects>
        <_>
          6 9 4 4 -1.</_>
        <_>
          7 9 2 4 2.</_></rects>
      <tilted>0</tilted></_>
    <_>
      <rects>
        <_>
          6 10 12 8 -1.</_>
        <_>
          9 10 6 8 2.</_></rects>
      <tilted>0</tilted></_>
    <_>
      <rects>
        <_>
          6 13 12 6 -1.</_>
        <_>
          9 13 6 6 2.</_></rects>
      <tilted>0</tilted></_>
    <_>
      <rects>
        <_>
          7 1 12 2 -1.</_>
        <_>
          7 2 12 1 2.</_></rects>
      <tilted>0</tilted></_>
    <_>
      <rects>
        <_>
          7 3 10 2 -1.</_>
        <_>
          7 3 10 1 2.</_></rects>
      <tilted>1</tilted></_>
    <_>
      <rects>
        <_>
          7 7 4 2 -1.</_>
        <_>
          8 8 2 2 2.</_></rects>
      <tilted>1</tilted></_>
    <_>
      <rects>
        <_>
          7 13 8 3 -1.</_>
        <_>
          9 13 4 3 2.</_></rects>
      <tilted>0</tilted></_>
    <_>
      <rects>
        <_>
          7 13 3 2 -1.</_>
        <_>
          7 14 3 1 2.</_></rects>
      <tilted>0</tilted></_>
    <_>
      <rects>
        <_>
          8 6 7 8 -1.</_>
        <_>
          8 6 7 4 2.</_></rects>
      <tilted>1</tilted></_>
    <_>
      <rects>
        <_>
          8 9 9 4 -1.</_>
        <_>
          8 11 9 2 2.</_></rects>
      <tilted>0</tilted></_>
    <_>
      <rects>
        <_>
          9 0 9 8 -1.</_>
        <_>
          7 2 9 4 2.</_></rects>
      <tilted>1</tilted></_>
    <_>
      <rects>
        <_>
          9 2 2 2 -1.</_>
        <_>
          9 2 2 1 2.</_></rects>
      <tilted>1</tilted></_>
    <_>
      <rects>
        <_>
          9 3 6 8 -1.</_>
        <_>
          9 3 3 4 2.</_>
        <_>
          12 7 3 4 2.</_></rects>
      <tilted>0</tilted></_>
    <_>
      <rects>
        <_>
          9 8 6 2 -1.</_>
        <_>
          11 10 2 2 3.</_></rects>
      <tilted>1</tilted></_>
    <_>
      <rects>
        <_>
          9 9 2 3 -1.</_>
        <_>
          9 9 1 3 2.</_></rects>
      <tilted>1</tilted></_>
    <_>
      <rects>
        <_>
          10 4 8 3 -1.</_>
        <_>
          9 5 8 1 3.</_></rects>
      <tilted>1</tilted></_>
    <_>
      <rects>
        <_>
          10 8 6 9 -1.</_>
        <_>
          12 11 2 3 9.</_></rects>
      <tilted>0</tilted></_>
    <_>
      <rects>
        <_>
          10 12 3 8 -1.</_>
        <_>
          10 14 3 4 2.</_></rects>
      <tilted>0</tilted></_>
    <_>
      <rects>
        <_>
          11 1 4 8 -1.</_>
        <_>
          11 3 4 4 2.</_></rects>
      <tilted>0</tilted></_>
    <_>
      <rects>
        <_>
          11 15 8 5 -1.</_>
        <_>
          13 15 4 5 2.</_></rects>
      <tilted>0</tilted></_>
    <_>
      <rects>
        <_>
          11 15 6 8 -1.</_>
        <_>
          11 15 3 4 2.</_>
        <_>
          14 19 3 4 2.</_></rects>
      <tilted>0</tilted></_>
    <_>
      <rects>
        <_>
          12 1 12 21 -1.</_>
        <_>
          18 1 6 21 2.</_></rects>
      <tilted>0</tilted></_>
    <_>
      <rects>
        <_>
          14 9 8 4 -1.</_>
        <_>
          16 9 4 4 2.</_></rects>
      <tilted>0</tilted></_>
    <_>
      <rects>
        <_>
          16 7 8 6 -1.</_>
        <_>
          16 7 4 6 2.</_></rects>
      <tilted>1</tilted></_>
    <_>
      <rects>
        <_>
          18 2 3 8 -1.</_>
        <_>
          16 4 3 4 2.</_></rects>
      <tilted>1</tilted></_>
    <_>
      <rects>
        <_>
          20 5 2 3 -1.</_>
        <_>
          20 5 1 3 2.</_></rects>
      <tilted>1</tilted></_>
    <_>
      <rects>
        <_>
          20 12 2 10 -1.</_>
        <_>
          20 12 1 10 2.</_></rects>
      <tilted>1</tilted></_>
    <_>
      <rects>
        <_>
          21 3 2 3 -1.</_>
        <_>
          21 3 1 3 2.</_></rects>
      <tilted>1</tilted></_>
    <_>
      <rects>
        <_>
          22 1 1 4 -1.</_>
        <_>
          22 1 1 2 2.</_></rects>
      <tilted>1</tilted></_></features></cascade>
</opencv_storage>
