<?xml version="1.0"?>
<opencv_storage>
<cascade>
  <stageType>BOOST</stageType>
  <featureType>HAAR</featureType>
  <height>32</height>
  <width>32</width>
  <stageParams>
    <boostType>GAB</boostType>
    <minHitRate>9.9500000476837158e-01</minHitRate>
    <maxFalseAlarm>5.0000000000000000e-01</maxFalseAlarm>
    <weightTrimRate>9.4999999999999996e-01</weightTrimRate>
    <maxDepth>1</maxDepth>
    <maxWeakCount>100</maxWeakCount></stageParams>
  <featureParams>
    <maxCatCount>0</maxCatCount>
    <featSize>1</featSize>
    <mode>ALL</mode></featureParams>
  <stageNum>10</stageNum>
  <stages>
    <!-- stage 0 -->
    <_>
      <maxWeakCount>4</maxWeakCount>
      <stageThreshold>-2.2065167427062988e+00</stageThreshold>
      <weakClassifiers>
        <_>
          <internalNodes>
            0 -1 2 2.0272576808929443e-01</internalNodes>
          <leafValues>
            -9.5480227470397949e-01 7.6470589637756348e-01</leafValues></_>
        <_>
          <internalNodes>
            0 -1 9 -2.1450219675898552e-02</internalNodes>
          <leafValues>
            6.1288827657699585e-01 -8.6962521076202393e-01</leafValues></_>
        <_>
          <internalNodes>
            0 -1 28 1.3406167738139629e-02</internalNodes>
          <leafValues>
            -7.8095698356628418e-01 4.5231688022613525e-01</leafValues></_>
        <_>
          <internalNodes>
            0 -1 32 -1.1659754812717438e-01</internalNodes>
          <leafValues>
            -8.8452094793319702e-01 3.9886757731437683e-01</leafValues></_></weakClassifiers></_>
    <!-- stage 1 -->
    <_>
      <maxWeakCount>3</maxWeakCount>
      <stageThreshold>-1.4037325382232666e+00</stageThreshold>
      <weakClassifiers>
        <_>
          <internalNodes>
            0 -1 0 2.5922995805740356e-01</internalNodes>
          <leafValues>
            -9.5382744073867798e-01 5.3246754407882690e-01</leafValues></_>
        <_>
          <internalNodes>
            0 -1 7 -3.9622753858566284e-01</internalNodes>
          <leafValues>
            8.1991565227508545e-01 -8.0183380842208862e-01</leafValues></_>
        <_>
          <internalNodes>
            0 -1 30 -1.2531224638223648e-03</internalNodes>
          <leafValues>
            3.5192871093750000e-01 -9.2487251758575439e-01</leafValues></_></weakClassifiers></_>
    <!-- stage 2 -->
    <_>
      <maxWeakCount>4</maxWeakCount>
      <stageThreshold>-2.2258861064910889e+00</stageThreshold>
      <weakClassifiers>
        <_>
          <internalNodes>
            0 -1 23 1.7515988647937775e-01</internalNodes>
          <leafValues>
            -9.4198226928710938e-01 3.7500000000000000e-01</leafValues></_>
        <_>
          <internalNodes>
            0 -1 37 1.6323629766702652e-02</internalNodes>
          <leafValues>
            -8.6462748050689697e-01 2.9396060109138489e-01</leafValues></_>
        <_>
          <internalNodes>
            0 -1 5 -5.4530845955014229e-03</internalNodes>
          <leafValues>
            3.7314635515213013e-01 -7.2793066501617432e-01</leafValues></_>
        <_>
          <internalNodes>
            0 -1 39 -2.7516779955476522e-03</internalNodes>
          <leafValues>
            -1. 3.0865436792373657e-01</leafValues></_></weakClassifiers></_>
    <!-- stage 3 -->
    <_>
      <maxWeakCount>5</maxWeakCount>
      <stageThreshold>-1.8269276618957520e+00</stageThreshold>
      <weakClassifiers>
        <_>
          <internalNodes>
            0 -1 31 2.3838844895362854e-01</internalNodes>
          <leafValues>
            -9.3880838155746460e-01 2.9032257199287415e-01</leafValues></_>
        <_>
          <internalNodes>
            0 -1 34 2.8855968266725540e-02</internalNodes>
          <leafValues>
            -8.2065099477767944e-01 3.4793856739997864e-01</leafValues></_>
        <_>
          <internalNodes>
            0 -1 21 5.1104580052196980e-04</internalNodes>
          <leafValues>
            -9.2749458551406860e-01 1.8935441970825195e-01</leafValues></_>
        <_>
          <internalNodes>
            0 -1 16 2.6033530011773109e-03</internalNodes>
          <leafValues>
            -5.9289985895156860e-01 5.3919452428817749e-01</leafValues></_>
        <_>
          <internalNodes>
            0 -1 33 1.0118386708199978e-03</internalNodes>
          <leafValues>
            3.3607718348503113e-01 -9.8750454187393188e-01</leafValues></_></weakClassifiers></_>
    <!-- stage 4 -->
    <_>
      <maxWeakCount>3</maxWeakCount>
      <stageThreshold>-1.6638628244400024e+00</stageThreshold>
      <weakClassifiers>
        <_>
          <internalNodes>
            0 -1 1 -2.7659258246421814e-01</internalNodes>
          <leafValues>
            8.0000001192092896e-01 -9.2925280332565308e-01</leafValues></_>
        <_>
          <internalNodes>
            0 -1 41 2.0670145750045776e-02</internalNodes>
          <leafValues>
            -8.5971069335937500e-01 4.4271707534790039e-01</leafValues></_>
        <_>
          <internalNodes>
            0 -1 25 7.4731477070599794e-04</internalNodes>
          <leafValues>
            -9.4066911935806274e-01 1.2510062754154205e-01</leafValues></_></weakClassifiers></_>
    <!-- stage 5 -->
    <_>
      <maxWeakCount>3</maxWeakCount>
      <stageThreshold>-1.6003166437149048e+00</stageThreshold>
      <weakClassifiers>
        <_>
          <internalNodes>
            0 -1 3 -2.6372838020324707e-01</internalNodes>
          <leafValues>
            9.2857140302658081e-01 -9.2930895090103149e-01</leafValues></_>
        <_>
          <internalNodes>
            0 -1 38 2.0515805110335350e-02</internalNodes>
          <leafValues>
            -8.4562861919403076e-01 3.5595884919166565e-01</leafValues></_>
        <_>
          <internalNodes>
            0 -1 12 8.5465819574892521e-04</internalNodes>
          <leafValues>
            -9.5154559612274170e-01 1.7462095618247986e-01</leafValues></_></weakClassifiers></_>
    <!-- stage 6 -->
    <_>
      <maxWeakCount>5</maxWeakCount>
      <stageThreshold>-2.2092320919036865e+00</stageThreshold>
      <weakClassifiers>
        <_>
          <internalNodes>
            0 -1 6 -1.5970826148986816e-01</internalNodes>
          <leafValues>
            9.0909093618392944e-01 -9.2472267150878906e-01</leafValues></_>
        <_>
          <internalNodes>
            0 -1 35 1.8360914662480354e-02</internalNodes>
          <leafValues>
            -8.1630820035934448e-01 1.9156739115715027e-01</leafValues></_>
        <_>
          <internalNodes>
            0 -1 10 -2.7327504358254373e-04</internalNodes>
          <leafValues>
            1.8023632466793060e-01 -9.1866368055343628e-01</leafValues></_>
        <_>
          <internalNodes>
            0 -1 22 7.2238326538354158e-04</internalNodes>
          <leafValues>
            2.5223970413208008e-01 -1.</leafValues></_>
        <_>
          <internalNodes>
            0 -1 20 -6.0899613890796900e-04</internalNodes>
          <leafValues>
            -9.9104243516921997e-01 1.9822262227535248e-01</leafValues></_></weakClassifiers></_>
    <!-- stage 7 -->
    <_>
      <maxWeakCount>5</maxWeakCount>
      <stageThreshold>-2.1503632068634033e+00</stageThreshold>
      <weakClassifiers>
        <_>
          <internalNodes>
            0 -1 18 -1.2693651020526886e-01</internalNodes>
          <leafValues>
            7.1428573131561279e-01 -9.2692613601684570e-01</leafValues></_>
        <_>
          <internalNodes>
            0 -1 15 4.0085472166538239e-02</internalNodes>
          <leafValues>
            -8.4032022953033447e-01 2.3493605852127075e-01</leafValues></_>
        <_>
          <internalNodes>
            0 -1 11 -5.0494377501308918e-04</internalNodes>
          <leafValues>
            2.8497359156608582e-01 -9.2073488235473633e-01</leafValues></_>
        <_>
          <internalNodes>
            0 -1 27 -1.2248226266819984e-04</internalNodes>
          <leafValues>
            3.1401425600051880e-01 -7.5403892993927002e-01</leafValues></_>
        <_>
          <internalNodes>
            0 -1 24 -2.3989743203856051e-04</internalNodes>
          <leafValues>
            2.2360377013683319e-01 -9.7024744749069214e-01</leafValues></_></weakClassifiers></_>
    <!-- stage 8 -->
    <_>
      <maxWeakCount>5</maxWeakCount>
      <stageThreshold>-2.0737872123718262e+00</stageThreshold>
      <weakClassifiers>
        <_>
          <internalNodes>
            0 -1 14 -1.0764007270336151e-01</internalNodes>
          <leafValues>
            6.2500000000000000e-01 -9.2840093374252319e-01</leafValues></_>
        <_>
          <internalNodes>
            0 -1 29 1.9537743926048279e-01</internalNodes>
          <leafValues>
            -7.5565135478973389e-01 5.4488372802734375e-01</leafValues></_>
        <_>
          <internalNodes>
            0 -1 13 5.6163938716053963e-03</internalNodes>
          <leafValues>
            1.5891124308109283e-01 -9.5454633235931396e-01</leafValues></_>
        <_>
          <internalNodes>
            0 -1 4 1.4667393406853080e-04</internalNodes>
          <leafValues>
            -8.2998090982437134e-01 2.3891751468181610e-01</leafValues></_>
        <_>
          <internalNodes>
            0 -1 17 1.2249714927747846e-04</internalNodes>
          <leafValues>
            -9.4934725761413574e-01 2.8133463859558105e-01</leafValues></_></weakClassifiers></_>
    <!-- stage 9 -->
    <_>
      <maxWeakCount>5</maxWeakCount>
      <stageThreshold>-1.8855408430099487e+00</stageThreshold>
      <weakClassifiers>
        <_>
          <internalNodes>
            0 -1 40 -6.6374115645885468e-02</internalNodes>
          <leafValues>
            5.6097561120986938e-01 -9.3293410539627075e-01</leafValues></_>
        <_>
          <internalNodes>
            0 -1 36 1.5486800670623779e-01</internalNodes>
          <leafValues>
            -7.5390714406967163e-01 4.2614635825157166e-01</leafValues></_>
        <_>
          <internalNodes>
            0 -1 19 1.7218748107552528e-03</internalNodes>
          <leafValues>
            2.5913926959037781e-01 -8.2870322465896606e-01</leafValues></_>
        <_>
          <internalNodes>
            0 -1 8 6.5430306131020188e-04</internalNodes>
          <leafValues>
            -6.0918945074081421e-01 4.1827088594436646e-01</leafValues></_>
        <_>
          <internalNodes>
            0 -1 26 1.4378357445821166e-04</internalNodes>
          <leafValues>
            -8.7610971927642822e-01 2.7080377936363220e-01</leafValues></_></weakClassifiers></_></stages>
  <features>
    <_>
      <rects>
        <_>
          0 7 32 12 -1.</_>
        <_>
          8 7 16 12 2.</_></rects>
      <tilted>0</tilted></_>
    <_>
      <rects>
        <_>
          0 9 32 14 -1.</_>
        <_>
          8 9 16 14 2.</_></rects>
      <tilted>0</tilted></_>
    <_>
      <rects>
        <_>
          1 10 28 11 -1.</_>
        <_>
          8 10 14 11 2.</_></rects>
      <tilted>0</tilted></_>
    <_>
      <rects>
        <_>
          1 10 28 18 -1.</_>
        <_>
          8 10 14 18 2.</_></rects>
      <tilted>0</tilted></_>
    <_>
      <rects>
        <_>
          2 3 8 5 -1.</_>
        <_>
          4 3 4 5 2.</_></rects>
      <tilted>0</tilted></_>
    <_>
      <rects>
        <_>
          2 7 6 10 -1.</_>
        <_>
          2 7 3 5 2.</_>
        <_>
          5 12 3 5 2.</_></rects>
      <tilted>0</tilted></_>
    <_>
      <rects>
        <_>
          2 17 28 7 -1.</_>
        <_>
          9 17 14 7 2.</_></rects>
      <tilted>0</tilted></_>
    <_>
      <rects>
        <_>
          2 17 27 15 -1.</_>
        <_>
          11 22 9 5 9.</_></rects>
      <tilted>0</tilted></_>
    <_>
      <rects>
        <_>
          4 2 6 1 -1.</_>
        <_>
          6 4 2 1 3.</_></rects>
      <tilted>1</tilted></_>
    <_>
      <rects>
        <_>
          4 8 6 14 -1.</_>
        <_>
          4 8 3 7 2.</_>
        <_>
          7 15 3 7 2.</_></rects>
      <tilted>0</tilted></_>
    <_>
      <rects>
        <_>
          5 9 10 4 -1.</_>
        <_>
          5 11 10 2 2.</_></rects>
      <tilted>0</tilted></_>
    <_>
      <rects>
        <_>
          6 8 6 6 -1.</_>
        <_>
          6 11 6 3 2.</_></rects>
      <tilted>0</tilted></_>
    <_>
      <rects>
        <_>
          6 9 8 6 -1.</_>
        <_>
          8 9 4 6 2.</_></rects>
      <tilted>0</tilted></_>
    <_>
      <rects>
        <_>
          6 9 20 8 -1.</_>
        <_>
          6 11 20 4 2.</_></rects>
      <tilted>0</tilted></_>
    <_>
      <rects>
        <_>
          6 19 20 11 -1.</_>
        <_>
          11 19 10 11 2.</_></rects>
      <tilted>0</tilted></_>
    <_>
      <rects>
        <_>
          7 0 15 6 -1.</_>
        <_>
          7 3 15 3 2.</_></rects>
      <tilted>0</tilted></_>
    <_>
      <rects>
        <_>
          7 2 17 2 -1.</_>
        <_>
          7 3 17 1 2.</_></rects>
      <tilted>0</tilted></_>
    <_>
      <rects>
        <_>
          7 4 12 3 -1.</_>
        <_>
          11 8 4 3 3.</_></rects>
      <tilted>1</tilted></_>
    <_>
      <rects>
        <_>
          8 10 13 8 -1.</_>
        <_>
          8 10 13 4 2.</_></rects>
      <tilted>1</tilted></_>
    <_>
      <rects>
        <_>
          9 6 9 2 -1.</_>
        <_>
          12 9 3 2 3.</_></rects>
      <tilted>1</tilted></_>
    <_>
      <rects>
        <_>
          9 8 12 1 -1.</_>
        <_>
          13 12 4 1 3.</_></rects>
      <tilted>1</tilted></_>
    <_>
      <rects>
        <_>
          9 14 8 6 -1.</_>
        <_>
          11 14 4 6 2.</_></rects>
      <tilted>0</tilted></_>
    <_>
      <rects>
        <_>
          10 6 4 2 -1.</_>
        <_>
          11 7 2 2 2.</_></rects>
      <tilted>1</tilted></_>
    <_>
      <rects>
        <_>
          10 7 10 10 -1.</_>
        <_>
          10 7 10 5 2.</_></rects>
      <tilted>1</tilted></_>
    <_>
      <rects>
        <_>
          10 13 12 4 -1.</_>
        <_>
          10 15 12 2 2.</_></rects>
      <tilted>0</tilted></_>
    <_>
      <rects>
        <_>
          11 2 4 6 -1.</_>
        <_>
          11 5 4 3 2.</_></rects>
      <tilted>0</tilted></_>
    <_>
      <rects>
        <_>
          11 11 3 12 -1.</_>
        <_>
          11 14 3 6 2.</_></rects>
      <tilted>0</tilted></_>
    <_>
      <rects>
        <_>
          12 18 4 2 -1.</_>
        <_>
          12 18 2 2 2.</_></rects>
      <tilted>1</tilted></_>
    <_>
      <rects>
        <_>
          14 19 10 12 -1.</_>
        <_>
          14 19 5 6 2.</_>
        <_>
          19 25 5 6 2.</_></rects>
      <tilted>0</tilted></_>
    <_>
      <rects>
        <_>
          15 11 7 14 -1.</_>
        <_>
          15 11 7 7 2.</_></rects>
      <tilted>1</tilted></_>
    <_>
      <rects>
        <_>
          15 18 1 12 -1.</_>
        <_>
          15 24 1 6 2.</_></rects>
      <tilted>0</tilted></_>
    <_>
      <rects>
        <_>
          16 9 7 16 -1.</_>
        <_>
          16 9 7 8 2.</_></rects>
      <tilted>1</tilted></_>
    <_>
      <rects>
        <_>
          19 0 6 18 -1.</_>
        <_>
          19 6 6 6 2.</_></rects>
      <tilted>0</tilted></_>
    <_>
      <rects>
        <_>
          19 13 3 4 -1.</_>
        <_>
          19 13 3 2 2.</_></rects>
      <tilted>1</tilted></_>
    <_>
      <rects>
        <_>
          21 5 8 16 -1.</_>
        <_>
          21 5 4 8 2.</_>
        <_>
          25 13 4 8 2.</_></rects>
      <tilted>0</tilted></_>
    <_>
      <rects>
        <_>
          22 0 8 3 -1.</_>
        <_>
          24 2 4 3 2.</_></rects>
      <tilted>1</tilted></_>
    <_>
      <rects>
        <_>
          22 10 10 9 -1.</_>
        <_>
          22 10 5 9 2.</_></rects>
      <tilted>1</tilted></_>
    <_>
      <rects>
        <_>
          23 4 6 16 -1.</_>
        <_>
          23 4 3 8 2.</_>
        <_>
          26 12 3 8 2.</_></rects>
      <tilted>0</tilted></_>
    <_>
      <rects>
        <_>
          24 11 4 6 -1.</_>
        <_>
          24 11 2 6 2.</_></rects>
      <tilted>1</tilted></_>
    <_>
      <rects>
        <_>
          25 7 2 12 -1.</_>
        <_>
          21 11 2 4 3.</_></rects>
      <tilted>1</tilted></_>
    <_>
      <rects>
        <_>
          26 13 6 13 -1.</_>
        <_>
          26 13 3 13 2.</_></rects>
      <tilted>1</tilted></_>
    <_>
      <rects>
        <_>
          27 4 4 6 -1.</_>
        <_>
          27 4 2 6 2.</_></rects>
      <tilted>1</tilted></_></features></cascade>
</opencv_storage>
