<?xml version="1.0"?>
<opencv_storage>
<cascade>
  <stageType>BOOST</stageType>
  <featureType>HAAR</featureType>
  <height>24</height>
  <width>24</width>
  <stageParams>
    <boostType>GAB</boostType>
    <minHitRate>9.9500000476837158e-01</minHitRate>
    <maxFalseAlarm>5.0000000000000000e-01</maxFalseAlarm>
    <weightTrimRate>9.4999999999999996e-01</weightTrimRate>
    <maxDepth>1</maxDepth>
    <maxWeakCount>100</maxWeakCount></stageParams>
  <featureParams>
    <maxCatCount>0</maxCatCount>
    <featSize>1</featSize>
    <mode>ALL</mode></featureParams>
  <stageNum>8</stageNum>
  <stages>
    <!-- stage 0 -->
    <_>
      <maxWeakCount>3</maxWeakCount>
      <stageThreshold>-1.3704774379730225e+00</stageThreshold>
      <weakClassifiers>
        <_>
          <internalNodes>
            0 -1 16 -4.3179661035537720e-02</internalNodes>
          <leafValues>
            8.6466163396835327e-01 -9.8198938369750977e-01</leafValues></_>
        <_>
          <internalNodes>
            0 -1 28 -1.5703812241554260e-02</internalNodes>
          <leafValues>
            6.1981219053268433e-01 -9.6020376682281494e-01</leafValues></_>
        <_>
          <internalNodes>
            0 -1 1 1.0991696268320084e-02</internalNodes>
          <leafValues>
            -9.2022240161895752e-01 5.7171565294265747e-01</leafValues></_></weakClassifiers></_>
    <!-- stage 1 -->
    <_>
      <maxWeakCount>3</maxWeakCount>
      <stageThreshold>-1.4688189029693604e+00</stageThreshold>
      <weakClassifiers>
        <_>
          <internalNodes>
            0 -1 19 -3.5517647862434387e-02</internalNodes>
          <leafValues>
            7.1641790866851807e-01 -9.7461098432540894e-01</leafValues></_>
        <_>
          <internalNodes>
            0 -1 15 3.6140494048595428e-02</internalNodes>
          <leafValues>
            -9.1552597284317017e-01 4.6122071146965027e-01</leafValues></_>
        <_>
          <internalNodes>
            0 -1 4 -3.2607197761535645e-02</internalNodes>
          <leafValues>
            -9.5542865991592407e-01 5.2187579870223999e-01</leafValues></_></weakClassifiers></_>
    <!-- stage 2 -->
    <_>
      <maxWeakCount>4</maxWeakCount>
      <stageThreshold>-1.9875137805938721e+00</stageThreshold>
      <weakClassifiers>
        <_>
          <internalNodes>
            0 -1 9 -8.6886234581470490e-02</internalNodes>
          <leafValues>
            6.8000000715255737e-01 -9.6654427051544189e-01</leafValues></_>
        <_>
          <internalNodes>
            0 -1 17 6.8124011158943176e-02</internalNodes>
          <leafValues>
            -8.9979797601699829e-01 4.6018749475479126e-01</leafValues></_>
        <_>
          <internalNodes>
            0 -1 2 -7.2803676128387451e-02</internalNodes>
          <leafValues>
            5.8367645740509033e-01 -7.6931262016296387e-01</leafValues></_>
        <_>
          <internalNodes>
            0 -1 30 -4.2070560157299042e-02</internalNodes>
          <leafValues>
            7.4143630266189575e-01 -7.0484805107116699e-01</leafValues></_></weakClassifiers></_>
    <!-- stage 3 -->
    <_>
      <maxWeakCount>4</maxWeakCount>
      <stageThreshold>-2.1694586277008057e+00</stageThreshold>
      <weakClassifiers>
        <_>
          <internalNodes>
            0 -1 14 7.1541719138622284e-02</internalNodes>
          <leafValues>
            -9.5469254255294800e-01 7.3076921701431274e-01</leafValues></_>
        <_>
          <internalNodes>
            0 -1 11 -4.3239858001470566e-02</internalNodes>
          <leafValues>
            4.3505787849426270e-01 -8.8772249221801758e-01</leafValues></_>
        <_>
          <internalNodes>
            0 -1 21 -1.7474031075835228e-02</internalNodes>
          <leafValues>
            6.9603532552719116e-01 -6.8325394392013550e-01</leafValues></_>
        <_>
          <internalNodes>
            0 -1 0 1.1735940352082253e-02</internalNodes>
          <leafValues>
            -1. 3.5621038079261780e-01</leafValues></_></weakClassifiers></_>
    <!-- stage 4 -->
    <_>
      <maxWeakCount>4</maxWeakCount>
      <stageThreshold>-2.4443590641021729e+00</stageThreshold>
      <weakClassifiers>
        <_>
          <internalNodes>
            0 -1 18 -5.5101785808801651e-02</internalNodes>
          <leafValues>
            5.0769233703613281e-01 -9.6075224876403809e-01</leafValues></_>
        <_>
          <internalNodes>
            0 -1 7 -5.5453293025493622e-02</internalNodes>
          <leafValues>
            4.0335139632225037e-01 -9.3469446897506714e-01</leafValues></_>
        <_>
          <internalNodes>
            0 -1 27 2.2157166153192520e-02</internalNodes>
          <leafValues>
            -8.0506443977355957e-01 3.4877482056617737e-01</leafValues></_>
        <_>
          <internalNodes>
            0 -1 24 -1.6149986535310745e-02</internalNodes>
          <leafValues>
            2.5615209341049194e-01 -1.</leafValues></_></weakClassifiers></_>
    <!-- stage 5 -->
    <_>
      <maxWeakCount>5</maxWeakCount>
      <stageThreshold>-2.9441080093383789e+00</stageThreshold>
      <weakClassifiers>
        <_>
          <internalNodes>
            0 -1 20 -3.6771133542060852e-02</internalNodes>
          <leafValues>
            5.0877195596694946e-01 -9.5125913619995117e-01</leafValues></_>
        <_>
          <internalNodes>
            0 -1 10 7.6063022017478943e-02</internalNodes>
          <leafValues>
            -8.8642698526382446e-01 4.2529165744781494e-01</leafValues></_>
        <_>
          <internalNodes>
            0 -1 26 -9.0856011956930161e-03</internalNodes>
          <leafValues>
            3.4133493900299072e-01 -8.3042228221893311e-01</leafValues></_>
        <_>
          <internalNodes>
            0 -1 3 2.6994603686034679e-03</internalNodes>
          <leafValues>
            -9.4959515333175659e-01 2.5985664129257202e-01</leafValues></_>
        <_>
          <internalNodes>
            0 -1 23 -7.0877941325306892e-03</internalNodes>
          <leafValues>
            7.4098861217498779e-01 -5.3585636615753174e-01</leafValues></_></weakClassifiers></_>
    <!-- stage 6 -->
    <_>
      <maxWeakCount>4</maxWeakCount>
      <stageThreshold>-2.1914014816284180e+00</stageThreshold>
      <weakClassifiers>
        <_>
          <internalNodes>
            0 -1 22 -3.3894047141075134e-02</internalNodes>
          <leafValues>
            7.8571426868438721e-01 -9.4301766157150269e-01</leafValues></_>
        <_>
          <internalNodes>
            0 -1 13 -9.4630762934684753e-02</internalNodes>
          <leafValues>
            3.7963536381721497e-01 -8.7720900774002075e-01</leafValues></_>
        <_>
          <internalNodes>
            0 -1 6 1.7686238884925842e-01</internalNodes>
          <leafValues>
            -8.3558881282806396e-01 2.8138557076454163e-01</leafValues></_>
        <_>
          <internalNodes>
            0 -1 5 -3.1398013234138489e-02</internalNodes>
          <leafValues>
            4.7603103518486023e-01 -6.5256029367446899e-01</leafValues></_></weakClassifiers></_>
    <!-- stage 7 -->
    <_>
      <maxWeakCount>5</maxWeakCount>
      <stageThreshold>-1.7594158649444580e+00</stageThreshold>
      <weakClassifiers>
        <_>
          <internalNodes>
            0 -1 12 -1.0146737098693848e-01</internalNodes>
          <leafValues>
            7.1111112833023071e-01 -9.4448912143707275e-01</leafValues></_>
        <_>
          <internalNodes>
            0 -1 20 -2.2552438080310822e-02</internalNodes>
          <leafValues>
            3.1187319755554199e-01 -8.8600009679794312e-01</leafValues></_>
        <_>
          <internalNodes>
            0 -1 25 -4.0950637310743332e-02</internalNodes>
          <leafValues>
            2.8393733501434326e-01 -8.6098754405975342e-01</leafValues></_>
        <_>
          <internalNodes>
            0 -1 29 4.6328548341989517e-03</internalNodes>
          <leafValues>
            -8.9538258314132690e-01 2.8047606348991394e-01</leafValues></_>
        <_>
          <internalNodes>
            0 -1 8 -1.8207188695669174e-02</internalNodes>
          <leafValues>
            7.6362746953964233e-01 -4.9333998560905457e-01</leafValues></_></weakClassifiers></_></stages>
  <features>
    <_>
      <rects>
        <_>
          0 10 14 6 -1.</_>
        <_>
          0 13 14 3 2.</_></rects>
      <tilted>0</tilted></_>
    <_>
      <rects>
        <_>
          1 12 4 5 -1.</_>
        <_>
          3 12 2 5 2.</_></rects>
      <tilted>0</tilted></_>
    <_>
      <rects>
        <_>
          1 18 23 6 -1.</_>
        <_>
          1 21 23 3 2.</_></rects>
      <tilted>0</tilted></_>
    <_>
      <rects>
        <_>
          2 4 12 1 -1.</_>
        <_>
          8 4 6 1 2.</_></rects>
      <tilted>0</tilted></_>
    <_>
      <rects>
        <_>
          2 5 18 1 -1.</_>
        <_>
          8 5 6 1 2.</_></rects>
      <tilted>0</tilted></_>
    <_>
      <rects>
        <_>
          5 0 6 5 -1.</_>
        <_>
          7 2 2 5 3.</_></rects>
      <tilted>1</tilted></_>
    <_>
      <rects>
        <_>
          5 1 17 16 -1.</_>
        <_>
          5 9 17 8 2.</_></rects>
      <tilted>0</tilted></_>
    <_>
      <rects>
        <_>
          5 4 6 4 -1.</_>
        <_>
          5 4 3 4 2.</_></rects>
      <tilted>1</tilted></_>
    <_>
      <rects>
        <_>
          5 20 10 4 -1.</_>
        <_>
          5 21 10 2 2.</_></rects>
      <tilted>0</tilted></_>
    <_>
      <rects>
        <_>
          6 0 6 14 -1.</_>
        <_>
          6 0 3 7 2.</_>
        <_>
          9 7 3 7 2.</_></rects>
      <tilted>0</tilted></_>
    <_>
      <rects>
        <_>
          6 5 8 5 -1.</_>
        <_>
          8 7 4 5 2.</_></rects>
      <tilted>1</tilted></_>
    <_>
      <rects>
        <_>
          6 7 4 4 -1.</_>
        <_>
          6 7 2 4 2.</_></rects>
      <tilted>1</tilted></_>
    <_>
      <rects>
        <_>
          6 11 12 3 -1.</_>
        <_>
          10 12 4 1 9.</_></rects>
      <tilted>0</tilted></_>
    <_>
      <rects>
        <_>
          7 5 9 6 -1.</_>
        <_>
          10 7 3 2 9.</_></rects>
      <tilted>0</tilted></_>
    <_>
      <rects>
        <_>
          8 6 4 14 -1.</_>
        <_>
          8 6 2 7 2.</_>
        <_>
          10 13 2 7 2.</_></rects>
      <tilted>0</tilted></_>
    <_>
      <rects>
        <_>
          8 7 4 14 -1.</_>
        <_>
          8 7 2 7 2.</_>
        <_>
          10 14 2 7 2.</_></rects>
      <tilted>0</tilted></_>
    <_>
      <rects>
        <_>
          8 8 8 5 -1.</_>
        <_>
          10 8 4 5 2.</_></rects>
      <tilted>0</tilted></_>
    <_>
      <rects>
        <_>
          11 0 6 14 -1.</_>
        <_>
          11 0 3 7 2.</_>
        <_>
          14 7 3 7 2.</_></rects>
      <tilted>0</tilted></_>
    <_>
      <rects>
        <_>
          11 7 4 12 -1.</_>
        <_>
          11 7 2 6 2.</_>
        <_>
          13 13 2 6 2.</_></rects>
      <tilted>0</tilted></_>
    <_>
      <rects>
        <_>
          11 8 4 10 -1.</_>
        <_>
          11 8 2 5 2.</_>
        <_>
          13 13 2 5 2.</_></rects>
      <tilted>0</tilted></_>
    <_>
      <rects>
        <_>
          11 9 4 5 -1.</_>
        <_>
          12 10 2 5 2.</_></rects>
      <tilted>1</tilted></_>
    <_>
      <rects>
        <_>
          11 19 9 4 -1.</_>
        <_>
          11 20 9 2 2.</_></rects>
      <tilted>0</tilted></_>
    <_>
      <rects>
        <_>
          13 10 5 3 -1.</_>
        <_>
          12 11 5 1 3.</_></rects>
      <tilted>1</tilted></_>
    <_>
      <rects>
        <_>
          13 19 3 4 -1.</_>
        <_>
          13 20 3 2 2.</_></rects>
      <tilted>0</tilted></_>
    <_>
      <rects>
        <_>
          14 0 8 12 -1.</_>
        <_>
          14 3 8 6 2.</_></rects>
      <tilted>0</tilted></_>
    <_>
      <rects>
        <_>
          16 1 6 16 -1.</_>
        <_>
          16 1 3 8 2.</_>
        <_>
          19 9 3 8 2.</_></rects>
      <tilted>0</tilted></_>
    <_>
      <rects>
        <_>
          17 3 2 4 -1.</_>
        <_>
          17 3 2 2 2.</_></rects>
      <tilted>1</tilted></_>
    <_>
      <rects>
        <_>
          17 9 4 4 -1.</_>
        <_>
          16 10 4 2 2.</_></rects>
      <tilted>1</tilted></_>
    <_>
      <rects>
        <_>
          17 9 7 2 -1.</_>
        <_>
          17 9 7 1 2.</_></rects>
      <tilted>1</tilted></_>
    <_>
      <rects>
        <_>
          17 11 6 4 -1.</_>
        <_>
          17 13 6 2 2.</_></rects>
      <tilted>0</tilted></_>
    <_>
      <rects>
        <_>
          20 4 4 6 -1.</_>
        <_>
          18 6 4 2 3.</_></rects>
      <tilted>1</tilted></_></features></cascade>
</opencv_storage>
