<?xml version="1.0"?>
<opencv_storage>
<cascade>
  <stageType>BOOST</stageType>
  <featureType>HAAR</featureType>
  <height>32</height>
  <width>32</width>
  <stageParams>
    <boostType>GAB</boostType>
    <minHitRate>9.9500000476837158e-01</minHitRate>
    <maxFalseAlarm>5.0000000000000000e-01</maxFalseAlarm>
    <weightTrimRate>9.4999999999999996e-01</weightTrimRate>
    <maxDepth>1</maxDepth>
    <maxWeakCount>100</maxWeakCount></stageParams>
  <featureParams>
    <maxCatCount>0</maxCatCount>
    <featSize>1</featSize>
    <mode>ALL</mode></featureParams>
  <stageNum>8</stageNum>
  <stages>
    <!-- stage 0 -->
    <_>
      <maxWeakCount>4</maxWeakCount>
      <stageThreshold>-2.3568539619445801e+00</stageThreshold>
      <weakClassifiers>
        <_>
          <internalNodes>
            0 -1 23 -2.2236777469515800e-02</internalNodes>
          <leafValues>
            8.8888889551162720e-01 -9.7075545787811279e-01</leafValues></_>
        <_>
          <internalNodes>
            0 -1 29 -4.1688945144414902e-02</internalNodes>
          <leafValues>
            6.7553681135177612e-01 -9.2611944675445557e-01</leafValues></_>
        <_>
          <internalNodes>
            0 -1 21 6.5828254446387291e-03</internalNodes>
          <leafValues>
            -9.0767127275466919e-01 4.6652770042419434e-01</leafValues></_>
        <_>
          <internalNodes>
            0 -1 7 4.6070683747529984e-03</internalNodes>
          <leafValues>
            -9.8218202590942383e-01 4.4769218564033508e-01</leafValues></_></weakClassifiers></_>
    <!-- stage 1 -->
    <_>
      <maxWeakCount>4</maxWeakCount>
      <stageThreshold>-2.5094335079193115e+00</stageThreshold>
      <weakClassifiers>
        <_>
          <internalNodes>
            0 -1 27 -1.3798413798213005e-02</internalNodes>
          <leafValues>
            5.5813956260681152e-01 -9.6977126598358154e-01</leafValues></_>
        <_>
          <internalNodes>
            0 -1 4 2.7577409148216248e-01</internalNodes>
          <leafValues>
            -9.0260630846023560e-01 6.6069370508193970e-01</leafValues></_>
        <_>
          <internalNodes>
            0 -1 28 4.5207925140857697e-03</internalNodes>
          <leafValues>
            -9.5197528600692749e-01 2.5483763217926025e-01</leafValues></_>
        <_>
          <internalNodes>
            0 -1 19 2.9169833287596703e-03</internalNodes>
          <leafValues>
            -1. 3.1491926312446594e-01</leafValues></_></weakClassifiers></_>
    <!-- stage 2 -->
    <_>
      <maxWeakCount>4</maxWeakCount>
      <stageThreshold>-2.3219487667083740e+00</stageThreshold>
      <weakClassifiers>
        <_>
          <internalNodes>
            0 -1 2 6.8451821804046631e-02</internalNodes>
          <leafValues>
            -9.6974653005599976e-01 5.2272725105285645e-01</leafValues></_>
        <_>
          <internalNodes>
            0 -1 30 -2.8033822774887085e-02</internalNodes>
          <leafValues>
            5.1069110631942749e-01 -9.0903192758560181e-01</leafValues></_>
        <_>
          <internalNodes>
            0 -1 22 3.7139136344194412e-02</internalNodes>
          <leafValues>
            -9.4383007287979126e-01 2.5474929809570312e-01</leafValues></_>
        <_>
          <internalNodes>
            0 -1 3 2.5062482804059982e-02</internalNodes>
          <leafValues>
            -6.9791972637176514e-01 5.8548295497894287e-01</leafValues></_></weakClassifiers></_>
    <!-- stage 3 -->
    <_>
      <maxWeakCount>6</maxWeakCount>
      <stageThreshold>-2.6532826423645020e+00</stageThreshold>
      <weakClassifiers>
        <_>
          <internalNodes>
            0 -1 11 -5.6615315377712250e-02</internalNodes>
          <leafValues>
            2.0930232107639313e-01 -9.7837835550308228e-01</leafValues></_>
        <_>
          <internalNodes>
            0 -1 6 7.1493558585643768e-02</internalNodes>
          <leafValues>
            -8.8254916667938232e-01 4.2555385828018188e-01</leafValues></_>
        <_>
          <internalNodes>
            0 -1 16 4.2824633419513702e-03</internalNodes>
          <leafValues>
            -9.1889137029647827e-01 2.4539335072040558e-01</leafValues></_>
        <_>
          <internalNodes>
            0 -1 26 -4.4446429237723351e-03</internalNodes>
          <leafValues>
            2.6323920488357544e-01 -9.2815858125686646e-01</leafValues></_>
        <_>
          <internalNodes>
            0 -1 25 -1.7719633877277374e-02</internalNodes>
          <leafValues>
            6.3101512193679810e-01 -6.1125206947326660e-01</leafValues></_>
        <_>
          <internalNodes>
            0 -1 18 5.5073690600693226e-03</internalNodes>
          <leafValues>
            -8.5586410760879517e-01 4.7454920411109924e-01</leafValues></_></weakClassifiers></_>
    <!-- stage 4 -->
    <_>
      <maxWeakCount>4</maxWeakCount>
      <stageThreshold>-2.5423455238342285e+00</stageThreshold>
      <weakClassifiers>
        <_>
          <internalNodes>
            0 -1 33 -1.5620961785316467e-02</internalNodes>
          <leafValues>
            7.0909088850021362e-01 -9.5401370525360107e-01</leafValues></_>
        <_>
          <internalNodes>
            0 -1 17 -2.5045324116945267e-02</internalNodes>
          <leafValues>
            3.9957672357559204e-01 -8.8593041896820068e-01</leafValues></_>
        <_>
          <internalNodes>
            0 -1 16 4.2903451249003410e-03</internalNodes>
          <leafValues>
            -9.0137994289398193e-01 1.5054316818714142e-01</leafValues></_>
        <_>
          <internalNodes>
            0 -1 5 1.0291701182723045e-02</internalNodes>
          <leafValues>
            1.9897857308387756e-01 -9.8060357570648193e-01</leafValues></_></weakClassifiers></_>
    <!-- stage 5 -->
    <_>
      <maxWeakCount>4</maxWeakCount>
      <stageThreshold>-2.4493145942687988e+00</stageThreshold>
      <weakClassifiers>
        <_>
          <internalNodes>
            0 -1 31 -1.4247114770114422e-02</internalNodes>
          <leafValues>
            7.1428573131561279e-01 -9.5010060071945190e-01</leafValues></_>
        <_>
          <internalNodes>
            0 -1 34 3.1879015266895294e-02</internalNodes>
          <leafValues>
            -8.6550199985504150e-01 4.5777350664138794e-01</leafValues></_>
        <_>
          <internalNodes>
            0 -1 10 4.6812254004180431e-03</internalNodes>
          <leafValues>
            -9.1551977396011353e-01 2.5474619865417480e-01</leafValues></_>
        <_>
          <internalNodes>
            0 -1 8 3.1777783297002316e-03</internalNodes>
          <leafValues>
            -1. 2.8180786967277527e-01</leafValues></_></weakClassifiers></_>
    <!-- stage 6 -->
    <_>
      <maxWeakCount>5</maxWeakCount>
      <stageThreshold>-2.1203784942626953e+00</stageThreshold>
      <weakClassifiers>
        <_>
          <internalNodes>
            0 -1 24 4.8190280795097351e-02</internalNodes>
          <leafValues>
            -9.5474749803543091e-01 6.2711864709854126e-01</leafValues></_>
        <_>
          <internalNodes>
            0 -1 0 2.9619827866554260e-02</internalNodes>
          <leafValues>
            -8.5593611001968384e-01 4.3737173080444336e-01</leafValues></_>
        <_>
          <internalNodes>
            0 -1 14 2.8782996814697981e-03</internalNodes>
          <leafValues>
            -9.4114744663238525e-01 2.3975053429603577e-01</leafValues></_>
        <_>
          <internalNodes>
            0 -1 1 -2.2759407758712769e-02</internalNodes>
          <leafValues>
            3.5147237777709961e-01 -8.1974554061889648e-01</leafValues></_>
        <_>
          <internalNodes>
            0 -1 13 -1.7005167901515961e-03</internalNodes>
          <leafValues>
            3.2959464192390442e-01 -9.0091776847839355e-01</leafValues></_></weakClassifiers></_>
    <!-- stage 7 -->
    <_>
      <maxWeakCount>5</maxWeakCount>
      <stageThreshold>-1.8041357994079590e+00</stageThreshold>
      <weakClassifiers>
        <_>
          <internalNodes>
            0 -1 32 -1.3895904645323753e-02</internalNodes>
          <leafValues>
            6.6666668653488159e-01 -9.4851166009902954e-01</leafValues></_>
        <_>
          <internalNodes>
            0 -1 12 -2.2149324417114258e-02</internalNodes>
          <leafValues>
            4.1376242041587830e-01 -8.4297424554824829e-01</leafValues></_>
        <_>
          <internalNodes>
            0 -1 20 -1.3617657124996185e-02</internalNodes>
          <leafValues>
            6.8151962757110596e-01 -5.6972682476043701e-01</leafValues></_>
        <_>
          <internalNodes>
            0 -1 15 -1.3782217138214037e-05</internalNodes>
          <leafValues>
            -9.6284180879592896e-01 3.4084707498550415e-01</leafValues></_>
        <_>
          <internalNodes>
            0 -1 9 7.0977263385429978e-04</internalNodes>
          <leafValues>
            -9.3876242637634277e-01 2.6867228746414185e-01</leafValues></_></weakClassifiers></_></stages>
  <features>
    <_>
      <rects>
        <_>
          0 11 6 11 -1.</_>
        <_>
          3 11 3 11 2.</_></rects>
      <tilted>0</tilted></_>
    <_>
      <rects>
        <_>
          1 5 20 6 -1.</_>
        <_>
          1 8 20 3 2.</_></rects>
      <tilted>0</tilted></_>
    <_>
      <rects>
        <_>
          1 24 28 3 -1.</_>
        <_>
          8 24 14 3 2.</_></rects>
      <tilted>0</tilted></_>
    <_>
      <rects>
        <_>
          2 1 16 6 -1.</_>
        <_>
          2 1 8 3 2.</_>
        <_>
          10 4 8 3 2.</_></rects>
      <tilted>0</tilted></_>
    <_>
      <rects>
        <_>
          2 1 27 9 -1.</_>
        <_>
          11 4 9 3 9.</_></rects>
      <tilted>0</tilted></_>
    <_>
      <rects>
        <_>
          3 9 26 11 -1.</_>
        <_>
          16 9 13 11 2.</_></rects>
      <tilted>0</tilted></_>
    <_>
      <rects>
        <_>
          3 16 16 10 -1.</_>
        <_>
          3 16 8 5 2.</_>
        <_>
          11 21 8 5 2.</_></rects>
      <tilted>0</tilted></_>
    <_>
      <rects>
        <_>
          3 19 16 4 -1.</_>
        <_>
          3 19 8 2 2.</_>
        <_>
          11 21 8 2 2.</_></rects>
      <tilted>0</tilted></_>
    <_>
      <rects>
        <_>
          7 3 12 19 -1.</_>
        <_>
          13 3 6 19 2.</_></rects>
      <tilted>0</tilted></_>
    <_>
      <rects>
        <_>
          8 7 1 20 -1.</_>
        <_>
          8 17 1 10 2.</_></rects>
      <tilted>0</tilted></_>
    <_>
      <rects>
        <_>
          8 14 18 3 -1.</_>
        <_>
          17 14 9 3 2.</_></rects>
      <tilted>0</tilted></_>
    <_>
      <rects>
        <_>
          8 24 16 6 -1.</_>
        <_>
          8 27 16 3 2.</_></rects>
      <tilted>0</tilted></_>
    <_>
      <rects>
        <_>
          10 0 4 6 -1.</_>
        <_>
          10 0 2 6 2.</_></rects>
      <tilted>1</tilted></_>
    <_>
      <rects>
        <_>
          10 11 12 7 -1.</_>
        <_>
          13 11 6 7 2.</_></rects>
      <tilted>0</tilted></_>
    <_>
      <rects>
        <_>
          10 15 16 2 -1.</_>
        <_>
          18 15 8 2 2.</_></rects>
      <tilted>0</tilted></_>
    <_>
      <rects>
        <_>
          12 3 1 6 -1.</_>
        <_>
          10 5 1 2 3.</_></rects>
      <tilted>1</tilted></_>
    <_>
      <rects>
        <_>
          12 8 6 2 -1.</_>
        <_>
          14 10 2 2 3.</_></rects>
      <tilted>1</tilted></_>
    <_>
      <rects>
        <_>
          12 10 4 6 -1.</_>
        <_>
          10 12 4 2 3.</_></rects>
      <tilted>1</tilted></_>
    <_>
      <rects>
        <_>
          13 21 8 8 -1.</_>
        <_>
          13 23 8 4 2.</_></rects>
      <tilted>0</tilted></_>
    <_>
      <rects>
        <_>
          14 5 1 8 -1.</_>
        <_>
          14 5 1 4 2.</_></rects>
      <tilted>1</tilted></_>
    <_>
      <rects>
        <_>
          14 10 4 7 -1.</_>
        <_>
          16 10 2 7 2.</_></rects>
      <tilted>0</tilted></_>
    <_>
      <rects>
        <_>
          15 8 6 8 -1.</_>
        <_>
          15 8 3 4 2.</_>
        <_>
          18 12 3 4 2.</_></rects>
      <tilted>0</tilted></_>
    <_>
      <rects>
        <_>
          16 8 9 15 -1.</_>
        <_>
          19 13 3 5 9.</_></rects>
      <tilted>0</tilted></_>
    <_>
      <rects>
        <_>
          16 12 4 14 -1.</_>
        <_>
          16 12 2 7 2.</_>
        <_>
          18 19 2 7 2.</_></rects>
      <tilted>0</tilted></_>
    <_>
      <rects>
        <_>
          17 12 8 7 -1.</_>
        <_>
          19 12 4 7 2.</_></rects>
      <tilted>0</tilted></_>
    <_>
      <rects>
        <_>
          18 0 10 8 -1.</_>
        <_>
          18 0 5 4 2.</_>
        <_>
          23 4 5 4 2.</_></rects>
      <tilted>0</tilted></_>
    <_>
      <rects>
        <_>
          18 8 8 8 -1.</_>
        <_>
          18 8 4 4 2.</_>
        <_>
          22 12 4 4 2.</_></rects>
      <tilted>0</tilted></_>
    <_>
      <rects>
        <_>
          19 7 4 4 -1.</_>
        <_>
          20 8 2 4 2.</_></rects>
      <tilted>1</tilted></_>
    <_>
      <rects>
        <_>
          19 10 6 2 -1.</_>
        <_>
          21 12 2 2 3.</_></rects>
      <tilted>1</tilted></_>
    <_>
      <rects>
        <_>
          20 6 6 14 -1.</_>
        <_>
          22 8 2 14 3.</_></rects>
      <tilted>1</tilted></_>
    <_>
      <rects>
        <_>
          20 14 4 6 -1.</_>
        <_>
          18 16 4 2 3.</_></rects>
      <tilted>1</tilted></_>
    <_>
      <rects>
        <_>
          22 7 5 3 -1.</_>
        <_>
          21 8 5 1 3.</_></rects>
      <tilted>1</tilted></_>
    <_>
      <rects>
        <_>
          23 7 4 3 -1.</_>
        <_>
          22 8 4 1 3.</_></rects>
      <tilted>1</tilted></_>
    <_>
      <rects>
        <_>
          23 17 4 4 -1.</_>
        <_>
          24 18 2 4 2.</_></rects>
      <tilted>1</tilted></_>
    <_>
      <rects>
        <_>
          25 20 4 8 -1.</_>
        <_>
          25 20 2 8 2.</_></rects>
      <tilted>1</tilted></_></features></cascade>
</opencv_storage>
