<?xml version="1.0"?>
<opencv_storage>
<cascade>
  <stageType>BOOST</stageType>
  <featureType>HAAR</featureType>
  <height>24</height>
  <width>24</width>
  <stageParams>
    <boostType>GAB</boostType>
    <minHitRate>9.9500000476837158e-01</minHitRate>
    <maxFalseAlarm>5.0000000000000000e-01</maxFalseAlarm>
    <weightTrimRate>9.4999999999999996e-01</weightTrimRate>
    <maxDepth>1</maxDepth>
    <maxWeakCount>100</maxWeakCount></stageParams>
  <featureParams>
    <maxCatCount>0</maxCatCount>
    <featSize>1</featSize>
    <mode>ALL</mode></featureParams>
  <stageNum>5</stageNum>
  <stages>
    <!-- stage 0 -->
    <_>
      <maxWeakCount>3</maxWeakCount>
      <stageThreshold>-1.0852466821670532e+00</stageThreshold>
      <weakClassifiers>
        <_>
          <internalNodes>
            0 -1 2 7.5171387195587158e-01</internalNodes>
          <leafValues>
            -9.9042409658432007e-01 8.7999999523162842e-01</leafValues></_>
        <_>
          <internalNodes>
            0 -1 1 1.4796908199787140e-01</internalNodes>
          <leafValues>
            -9.7010284662246704e-01 9.0578758716583252e-01</leafValues></_>
        <_>
          <internalNodes>
            0 -1 12 -2.5645369663834572e-02</internalNodes>
          <leafValues>
            8.7528026103973389e-01 -9.7854369878768921e-01</leafValues></_></weakClassifiers></_>
    <!-- stage 1 -->
    <_>
      <maxWeakCount>3</maxWeakCount>
      <stageThreshold>-1.5124570131301880e+00</stageThreshold>
      <weakClassifiers>
        <_>
          <internalNodes>
            0 -1 13 -1.6609605401754379e-02</internalNodes>
          <leafValues>
            5.6097561120986938e-01 -9.7008836269378662e-01</leafValues></_>
        <_>
          <internalNodes>
            0 -1 7 5.1047947257757187e-02</internalNodes>
          <leafValues>
            -9.7451853752136230e-01 4.9358522891998291e-01</leafValues></_>
        <_>
          <internalNodes>
            0 -1 9 3.4940198063850403e-02</internalNodes>
          <leafValues>
            -9.9682193994522095e-01 4.3214982748031616e-01</leafValues></_></weakClassifiers></_>
    <!-- stage 2 -->
    <_>
      <maxWeakCount>4</maxWeakCount>
      <stageThreshold>-2.3815314769744873e+00</stageThreshold>
      <weakClassifiers>
        <_>
          <internalNodes>
            0 -1 5 -8.3328932523727417e-03</internalNodes>
          <leafValues>
            -9.7271484136581421e-01 4.7826087474822998e-01</leafValues></_>
        <_>
          <internalNodes>
            0 -1 3 -4.0002249181270599e-02</internalNodes>
          <leafValues>
            -9.7092127799987793e-01 4.0186670422554016e-01</leafValues></_>
        <_>
          <internalNodes>
            0 -1 15 4.6231754124164581e-02</internalNodes>
          <leafValues>
            -8.8803207874298096e-01 6.5824306011199951e-01</leafValues></_>
        <_>
          <internalNodes>
            0 -1 8 5.6474087759852409e-03</internalNodes>
          <leafValues>
            -9.7892731428146362e-01 4.5013689994812012e-01</leafValues></_></weakClassifiers></_>
    <!-- stage 3 -->
    <_>
      <maxWeakCount>3</maxWeakCount>
      <stageThreshold>-1.5540767908096313e+00</stageThreshold>
      <weakClassifiers>
        <_>
          <internalNodes>
            0 -1 6 -2.6342596858739853e-02</internalNodes>
          <leafValues>
            8.6206895112991333e-01 -9.6358734369277954e-01</leafValues></_>
        <_>
          <internalNodes>
            0 -1 0 4.4951441884040833e-01</internalNodes>
          <leafValues>
            -9.6487063169479370e-01 4.7356054186820984e-01</leafValues></_>
        <_>
          <internalNodes>
            0 -1 4 -5.9335034340620041e-02</internalNodes>
          <leafValues>
            -9.6769106388092041e-01 3.7438115477561951e-01</leafValues></_></weakClassifiers></_>
    <!-- stage 4 -->
    <_>
      <maxWeakCount>3</maxWeakCount>
      <stageThreshold>-1.7556750774383545e+00</stageThreshold>
      <weakClassifiers>
        <_>
          <internalNodes>
            0 -1 14 -1.6066607087850571e-02</internalNodes>
          <leafValues>
            6.4102566242218018e-01 -9.7012901306152344e-01</leafValues></_>
        <_>
          <internalNodes>
            0 -1 10 8.1866774708032608e-03</internalNodes>
          <leafValues>
            -9.4157510995864868e-01 4.9624633789062500e-01</leafValues></_>
        <_>
          <internalNodes>
            0 -1 11 7.3663732036948204e-03</internalNodes>
          <leafValues>
            -9.9659353494644165e-01 1.5602898597717285e-01</leafValues></_></weakClassifiers></_></stages>
  <features>
    <_>
      <rects>
        <_>
          0 2 24 20 -1.</_>
        <_>
          6 2 12 20 2.</_></rects>
      <tilted>0</tilted></_>
    <_>
      <rects>
        <_>
          0 3 24 4 -1.</_>
        <_>
          6 3 12 4 2.</_></rects>
      <tilted>0</tilted></_>
    <_>
      <rects>
        <_>
          0 12 24 12 -1.</_>
        <_>
          8 16 8 4 9.</_></rects>
      <tilted>0</tilted></_>
    <_>
      <rects>
        <_>
          0 18 24 3 -1.</_>
        <_>
          8 18 8 3 2.</_></rects>
      <tilted>0</tilted></_>
    <_>
      <rects>
        <_>
          2 18 21 3 -1.</_>
        <_>
          9 18 7 3 2.</_></rects>
      <tilted>0</tilted></_>
    <_>
      <rects>
        <_>
          3 0 1 24 -1.</_>
        <_>
          3 8 1 8 2.</_></rects>
      <tilted>0</tilted></_>
    <_>
      <rects>
        <_>
          3 7 4 9 -1.</_>
        <_>
          4 7 2 9 2.</_></rects>
      <tilted>0</tilted></_>
    <_>
      <rects>
        <_>
          4 1 14 4 -1.</_>
        <_>
          4 3 14 2 2.</_></rects>
      <tilted>0</tilted></_>
    <_>
      <rects>
        <_>
          5 3 2 8 -1.</_>
        <_>
          5 5 2 4 2.</_></rects>
      <tilted>0</tilted></_>
    <_>
      <rects>
        <_>
          7 11 5 6 -1.</_>
        <_>
          5 13 5 2 3.</_></rects>
      <tilted>1</tilted></_>
    <_>
      <rects>
        <_>
          8 10 4 3 -1.</_>
        <_>
          9 10 2 3 2.</_></rects>
      <tilted>0</tilted></_>
    <_>
      <rects>
        <_>
          11 15 9 4 -1.</_>
        <_>
          11 16 9 2 2.</_></rects>
      <tilted>0</tilted></_>
    <_>
      <rects>
        <_>
          12 7 8 3 -1.</_>
        <_>
          11 8 8 1 3.</_></rects>
      <tilted>1</tilted></_>
    <_>
      <rects>
        <_>
          15 7 3 2 -1.</_>
        <_>
          16 8 1 2 3.</_></rects>
      <tilted>1</tilted></_>
    <_>
      <rects>
        <_>
          18 6 3 3 -1.</_>
        <_>
          17 7 3 1 3.</_></rects>
      <tilted>1</tilted></_>
    <_>
      <rects>
        <_>
          20 14 4 5 -1.</_>
        <_>
          20 14 2 5 2.</_></rects>
      <tilted>1</tilted></_></features></cascade>
</opencv_storage>
