<?xml version="1.0"?>
<opencv_storage>
<cascade>
  <stageType>BOOST</stageType>
  <featureType>HAAR</featureType>
  <height>32</height>
  <width>32</width>
  <stageParams>
    <boostType>GAB</boostType>
    <minHitRate>9.9500000476837158e-01</minHitRate>
    <maxFalseAlarm>5.0000000000000000e-01</maxFalseAlarm>
    <weightTrimRate>9.4999999999999996e-01</weightTrimRate>
    <maxDepth>1</maxDepth>
    <maxWeakCount>100</maxWeakCount></stageParams>
  <featureParams>
    <maxCatCount>0</maxCatCount>
    <featSize>1</featSize>
    <mode>ALL</mode></featureParams>
  <stageNum>4</stageNum>
  <stages>
    <!-- stage 0 -->
    <_>
      <maxWeakCount>3</maxWeakCount>
      <stageThreshold>-1.3252767324447632e+00</stageThreshold>
      <weakClassifiers>
        <_>
          <internalNodes>
            0 -1 1 1.3920520246028900e-01</internalNodes>
          <leafValues>
            -9.9177968502044678e-01 7.2549021244049072e-01</leafValues></_>
        <_>
          <internalNodes>
            0 -1 2 7.8966096043586731e-02</internalNodes>
          <leafValues>
            -9.8708248138427734e-01 6.4098101854324341e-01</leafValues></_>
        <_>
          <internalNodes>
            0 -1 9 -1.3118607923388481e-02</internalNodes>
          <leafValues>
            7.3564743995666504e-01 -9.7447800636291504e-01</leafValues></_></weakClassifiers></_>
    <!-- stage 1 -->
    <_>
      <maxWeakCount>3</maxWeakCount>
      <stageThreshold>-1.6951601505279541e+00</stageThreshold>
      <weakClassifiers>
        <_>
          <internalNodes>
            0 -1 5 -1.4770686626434326e-01</internalNodes>
          <leafValues>
            3.1506848335266113e-01 -9.9502283334732056e-01</leafValues></_>
        <_>
          <internalNodes>
            0 -1 12 -6.0092881321907043e-02</internalNodes>
          <leafValues>
            7.1169477701187134e-01 -9.6084052324295044e-01</leafValues></_>
        <_>
          <internalNodes>
            0 -1 8 4.6626113355159760e-02</internalNodes>
          <leafValues>
            -1. 2.6070317625999451e-01</leafValues></_></weakClassifiers></_>
    <!-- stage 2 -->
    <_>
      <maxWeakCount>4</maxWeakCount>
      <stageThreshold>-2.4956972599029541e+00</stageThreshold>
      <weakClassifiers>
        <_>
          <internalNodes>
            0 -1 4 1.3265904784202576e-01</internalNodes>
          <leafValues>
            -9.9505561590194702e-01 6.8421053886413574e-01</leafValues></_>
        <_>
          <internalNodes>
            0 -1 7 5.9409655630588531e-02</internalNodes>
          <leafValues>
            -9.6997874975204468e-01 2.4423572421073914e-01</leafValues></_>
        <_>
          <internalNodes>
            0 -1 6 7.8848823904991150e-02</internalNodes>
          <leafValues>
            -9.4200974702835083e-01 3.1811076402664185e-01</leafValues></_>
        <_>
          <internalNodes>
            0 -1 3 -1.5491668134927750e-02</internalNodes>
          <leafValues>
            -1. 4.1134676337242126e-01</leafValues></_></weakClassifiers></_>
    <!-- stage 3 -->
    <_>
      <maxWeakCount>4</maxWeakCount>
      <stageThreshold>-2.1504027843475342e+00</stageThreshold>
      <weakClassifiers>
        <_>
          <internalNodes>
            0 -1 11 -1.3233633711934090e-02</internalNodes>
          <leafValues>
            4.8148149251937866e-01 -9.8847734928131104e-01</leafValues></_>
        <_>
          <internalNodes>
            0 -1 0 1.5465497970581055e-02</internalNodes>
          <leafValues>
            -9.7347110509872437e-01 5.0782233476638794e-01</leafValues></_>
        <_>
          <internalNodes>
            0 -1 13 -2.9275115579366684e-02</internalNodes>
          <leafValues>
            5.1862972974777222e-01 -9.1443318128585815e-01</leafValues></_>
        <_>
          <internalNodes>
            0 -1 10 -6.0324813239276409e-03</internalNodes>
          <leafValues>
            7.2597897052764893e-01 -9.0492063760757446e-01</leafValues></_></weakClassifiers></_></stages>
  <features>
    <_>
      <rects>
        <_>
          0 7 10 2 -1.</_>
        <_>
          5 7 5 2 2.</_></rects>
      <tilted>0</tilted></_>
    <_>
      <rects>
        <_>
          0 22 32 5 -1.</_>
        <_>
          8 22 16 5 2.</_></rects>
      <tilted>0</tilted></_>
    <_>
      <rects>
        <_>
          2 4 28 4 -1.</_>
        <_>
          9 4 14 4 2.</_></rects>
      <tilted>0</tilted></_>
    <_>
      <rects>
        <_>
          2 26 30 1 -1.</_>
        <_>
          12 26 10 1 2.</_></rects>
      <tilted>0</tilted></_>
    <_>
      <rects>
        <_>
          5 1 22 12 -1.</_>
        <_>
          5 4 22 6 2.</_></rects>
      <tilted>0</tilted></_>
    <_>
      <rects>
        <_>
          5 22 22 10 -1.</_>
        <_>
          5 27 22 5 2.</_></rects>
      <tilted>0</tilted></_>
    <_>
      <rects>
        <_>
          6 2 19 12 -1.</_>
        <_>
          6 5 19 6 2.</_></rects>
      <tilted>0</tilted></_>
    <_>
      <rects>
        <_>
          9 1 8 9 -1.</_>
        <_>
          11 3 4 9 2.</_></rects>
      <tilted>1</tilted></_>
    <_>
      <rects>
        <_>
          9 13 9 9 -1.</_>
        <_>
          6 16 9 3 3.</_></rects>
      <tilted>1</tilted></_>
    <_>
      <rects>
        <_>
          15 8 10 4 -1.</_>
        <_>
          14 9 10 2 2.</_></rects>
      <tilted>1</tilted></_>
    <_>
      <rects>
        <_>
          16 10 3 3 -1.</_>
        <_>
          15 11 3 1 3.</_></rects>
      <tilted>1</tilted></_>
    <_>
      <rects>
        <_>
          20 1 9 2 -1.</_>
        <_>
          20 1 9 1 2.</_></rects>
      <tilted>1</tilted></_>
    <_>
      <rects>
        <_>
          21 7 6 11 -1.</_>
        <_>
          23 9 2 11 3.</_></rects>
      <tilted>1</tilted></_>
    <_>
      <rects>
        <_>
          22 0 8 4 -1.</_>
        <_>
          22 0 8 2 2.</_></rects>
      <tilted>1</tilted></_></features></cascade>
</opencv_storage>
