<?xml version="1.0"?>
<opencv_storage>
<cascade>
  <stageType>BOOST</stageType>
  <featureType>HAAR</featureType>
  <height>32</height>
  <width>32</width>
  <stageParams>
    <boostType>GAB</boostType>
    <minHitRate>9.9500000476837158e-01</minHitRate>
    <maxFalseAlarm>5.0000000000000000e-01</maxFalseAlarm>
    <weightTrimRate>9.4999999999999996e-01</weightTrimRate>
    <maxDepth>1</maxDepth>
    <maxWeakCount>100</maxWeakCount></stageParams>
  <featureParams>
    <maxCatCount>0</maxCatCount>
    <featSize>1</featSize>
    <mode>ALL</mode></featureParams>
  <stageNum>4</stageNum>
  <stages>
    <!-- stage 0 -->
    <_>
      <maxWeakCount>1</maxWeakCount>
      <stageThreshold>9.7822862863540649e-01</stageThreshold>
      <weakClassifiers>
        <_>
          <internalNodes>
            0 -1 4 -5.7727605104446411e-02</internalNodes>
          <leafValues>
            9.7822862863540649e-01 -9.9795711040496826e-01</leafValues></_></weakClassifiers></_>
    <!-- stage 1 -->
    <_>
      <maxWeakCount>1</maxWeakCount>
      <stageThreshold>9.2023068666458130e-01</stageThreshold>
      <weakClassifiers>
        <_>
          <internalNodes>
            0 -1 1 -7.5654983520507812e-02</internalNodes>
          <leafValues>
            -9.9564743041992188e-01 9.2023068666458130e-01</leafValues></_></weakClassifiers></_>
    <!-- stage 2 -->
    <_>
      <maxWeakCount>2</maxWeakCount>
      <stageThreshold>-1.2603286653757095e-02</stageThreshold>
      <weakClassifiers>
        <_>
          <internalNodes>
            0 -1 5 -2.0600780844688416e-02</internalNodes>
          <leafValues>
            9.3643033504486084e-01 -9.5811516046524048e-01</leafValues></_>
        <_>
          <internalNodes>
            0 -1 0 -1.7249676602659747e-05</internalNodes>
          <leafValues>
            -8.4061115980148315e-01 9.4551187753677368e-01</leafValues></_></weakClassifiers></_>
    <!-- stage 3 -->
    <_>
      <maxWeakCount>2</maxWeakCount>
      <stageThreshold>-1.3253541290760040e-01</stageThreshold>
      <weakClassifiers>
        <_>
          <internalNodes>
            0 -1 3 -3.2154187560081482e-02</internalNodes>
          <leafValues>
            7.9790621995925903e-01 -9.3773347139358521e-01</leafValues></_>
        <_>
          <internalNodes>
            0 -1 2 -1.2275821063667536e-05</internalNodes>
          <leafValues>
            -8.3047628402709961e-01 8.0519807338714600e-01</leafValues></_></weakClassifiers></_></stages>
  <features>
    <_>
      <rects>
        <_>
          0 0 1 3 -1.</_>
        <_>
          0 1 1 1 2.</_></rects>
      <tilted>0</tilted></_>
    <_>
      <rects>
        <_>
          0 10 18 8 -1.</_>
        <_>
          6 10 6 8 2.</_></rects>
      <tilted>0</tilted></_>
    <_>
      <rects>
        <_>
          0 31 3 1 -1.</_>
        <_>
          1 31 1 1 2.</_></rects>
      <tilted>0</tilted></_>
    <_>
      <rects>
        <_>
          7 22 22 10 -1.</_>
        <_>
          7 27 22 5 2.</_></rects>
      <tilted>0</tilted></_>
    <_>
      <rects>
        <_>
          13 10 6 12 -1.</_>
        <_>
          15 14 2 4 9.</_></rects>
      <tilted>0</tilted></_>
    <_>
      <rects>
        <_>
          13 15 6 3 -1.</_>
        <_>
          15 16 2 1 9.</_></rects>
      <tilted>0</tilted></_></features></cascade>
</opencv_storage>
