<?xml version="1.0"?>
<opencv_storage>
<cascade>
  <stageType>BOOST</stageType>
  <featureType>HAAR</featureType>
  <height>24</height>
  <width>24</width>
  <stageParams>
    <boostType>GAB</boostType>
    <minHitRate>9.9500000476837158e-01</minHitRate>
    <maxFalseAlarm>5.0000000000000000e-01</maxFalseAlarm>
    <weightTrimRate>9.4999999999999996e-01</weightTrimRate>
    <maxDepth>1</maxDepth>
    <maxWeakCount>100</maxWeakCount></stageParams>
  <featureParams>
    <maxCatCount>0</maxCatCount>
    <featSize>1</featSize>
    <mode>ALL</mode></featureParams>
  <stageNum>5</stageNum>
  <stages>
    <!-- stage 0 -->
    <_>
      <maxWeakCount>10</maxWeakCount>
      <stageThreshold>-1.4267909526824951e+00</stageThreshold>
      <weakClassifiers>
        <_>
          <internalNodes>
            0 -1 10 1.9462367892265320e-01</internalNodes>
          <leafValues>
            -6.8017816543579102e-01 5.7738792896270752e-01</leafValues></_>
        <_>
          <internalNodes>
            0 -1 50 -7.2569370269775391e-02</internalNodes>
          <leafValues>
            -9.3578422069549561e-01 1.6487257182598114e-01</leafValues></_>
        <_>
          <internalNodes>
            0 -1 95 -1.1793026700615883e-02</internalNodes>
          <leafValues>
            5.0821805000305176e-01 -3.1632387638092041e-01</leafValues></_>
        <_>
          <internalNodes>
            0 -1 25 3.8313348777592182e-03</internalNodes>
          <leafValues>
            -2.2301593422889709e-01 5.2785670757293701e-01</leafValues></_>
        <_>
          <internalNodes>
            0 -1 117 3.3410869538784027e-02</internalNodes>
          <leafValues>
            -1.2513948976993561e-01 6.3920247554779053e-01</leafValues></_>
        <_>
          <internalNodes>
            0 -1 98 3.8317844271659851e-02</internalNodes>
          <leafValues>
            -2.0284229516983032e-01 5.4501652717590332e-01</leafValues></_>
        <_>
          <internalNodes>
            0 -1 77 1.0375510156154633e-01</internalNodes>
          <leafValues>
            1.7171445488929749e-01 -5.1567220687866211e-01</leafValues></_>
        <_>
          <internalNodes>
            0 -1 97 -1.0745575651526451e-02</internalNodes>
          <leafValues>
            5.5640882253646851e-01 -1.6546609997749329e-01</leafValues></_>
        <_>
          <internalNodes>
            0 -1 11 -1.6008663922548294e-02</internalNodes>
          <leafValues>
            5.4810637235641479e-01 -1.7302829027175903e-01</leafValues></_>
        <_>
          <internalNodes>
            0 -1 56 -3.4000444412231445e-01</internalNodes>
          <leafValues>
            -9.9358838796615601e-01 1.2261614203453064e-01</leafValues></_></weakClassifiers></_>
    <!-- stage 1 -->
    <_>
      <maxWeakCount>23</maxWeakCount>
      <stageThreshold>-2.0079007148742676e+00</stageThreshold>
      <weakClassifiers>
        <_>
          <internalNodes>
            0 -1 90 -4.0606096386909485e-02</internalNodes>
          <leafValues>
            4.2234149575233459e-01 -6.8982434272766113e-01</leafValues></_>
        <_>
          <internalNodes>
            0 -1 16 9.1888010501861572e-03</internalNodes>
          <leafValues>
            -3.4239912033081055e-01 4.9002742767333984e-01</leafValues></_>
        <_>
          <internalNodes>
            0 -1 0 4.0015853941440582e-02</internalNodes>
          <leafValues>
            -2.2919712960720062e-01 4.8497292399406433e-01</leafValues></_>
        <_>
          <internalNodes>
            0 -1 108 6.9465609267354012e-03</internalNodes>
          <leafValues>
            -2.4253687262535095e-01 5.0538259744644165e-01</leafValues></_>
        <_>
          <internalNodes>
            0 -1 115 -2.3006787523627281e-02</internalNodes>
          <leafValues>
            5.4693996906280518e-01 -1.3024047017097473e-01</leafValues></_>
        <_>
          <internalNodes>
            0 -1 99 7.9203154891729355e-03</internalNodes>
          <leafValues>
            -2.3508013784885406e-01 4.1609585285186768e-01</leafValues></_>
        <_>
          <internalNodes>
            0 -1 9 -1.8127288669347763e-02</internalNodes>
          <leafValues>
            5.2087008953094482e-01 -1.3300317525863647e-01</leafValues></_>
        <_>
          <internalNodes>
            0 -1 1 -5.2251851558685303e-01</internalNodes>
          <leafValues>
            -4.0380683541297913e-01 2.0310364663600922e-01</leafValues></_>
        <_>
          <internalNodes>
            0 -1 80 9.5204636454582214e-03</internalNodes>
          <leafValues>
            -1.7751868069171906e-01 4.6223619580268860e-01</leafValues></_>
        <_>
          <internalNodes>
            0 -1 111 -1.8163617700338364e-02</internalNodes>
          <leafValues>
            6.5286064147949219e-01 -1.0227409750223160e-01</leafValues></_>
        <_>
          <internalNodes>
            0 -1 65 2.5200785603374243e-03</internalNodes>
          <leafValues>
            -1.3483515381813049e-01 4.1063800454139709e-01</leafValues></_>
        <_>
          <internalNodes>
            0 -1 46 -5.9609506279230118e-03</internalNodes>
          <leafValues>
            5.0797033309936523e-01 -8.0194719135761261e-02</leafValues></_>
        <_>
          <internalNodes>
            0 -1 83 5.3192038089036942e-02</internalNodes>
          <leafValues>
            1.1298539489507675e-01 -5.1167649030685425e-01</leafValues></_>
        <_>
          <internalNodes>
            0 -1 76 -1.0271634161472321e-01</internalNodes>
          <leafValues>
            -4.2790108919143677e-01 1.5734902024269104e-01</leafValues></_>
        <_>
          <internalNodes>
            0 -1 32 6.6174706444144249e-03</internalNodes>
          <leafValues>
            -1.2128086388111115e-01 4.4028651714324951e-01</leafValues></_>
        <_>
          <internalNodes>
            0 -1 28 -8.2958161830902100e-02</internalNodes>
          <leafValues>
            -7.7850908041000366e-01 5.9681501239538193e-02</leafValues></_>
        <_>
          <internalNodes>
            0 -1 52 -1.0781072080135345e-02</internalNodes>
          <leafValues>
            5.4739075899124146e-01 -8.9031860232353210e-02</leafValues></_>
        <_>
          <internalNodes>
            0 -1 27 6.8070366978645325e-03</internalNodes>
          <leafValues>
            6.7409813404083252e-02 -6.3391381502151489e-01</leafValues></_>
        <_>
          <internalNodes>
            0 -1 75 -1.7419917508959770e-02</internalNodes>
          <leafValues>
            2.5505462288856506e-01 -1.6394491493701935e-01</leafValues></_>
        <_>
          <internalNodes>
            0 -1 44 -2.8052780777215958e-02</internalNodes>
          <leafValues>
            4.6676933765411377e-01 -8.4412083029747009e-02</leafValues></_>
        <_>
          <internalNodes>
            0 -1 23 1.4804900856688619e-03</internalNodes>
          <leafValues>
            -1.1912056803703308e-01 3.3350956439971924e-01</leafValues></_>
        <_>
          <internalNodes>
            0 -1 38 1.5239261090755463e-02</internalNodes>
          <leafValues>
            -1.2516249716281891e-01 3.4048655629158020e-01</leafValues></_>
        <_>
          <internalNodes>
            0 -1 67 -3.8762077689170837e-02</internalNodes>
          <leafValues>
            -8.3654470741748810e-02 5.6232124567031860e-01</leafValues></_></weakClassifiers></_>
    <!-- stage 2 -->
    <_>
      <maxWeakCount>38</maxWeakCount>
      <stageThreshold>-1.8016068935394287e+00</stageThreshold>
      <weakClassifiers>
        <_>
          <internalNodes>
            0 -1 2 3.7588661909103394e-01</internalNodes>
          <leafValues>
            -5.6380379199981689e-01 3.4865900874137878e-01</leafValues></_>
        <_>
          <internalNodes>
            0 -1 74 -2.5762002915143967e-02</internalNodes>
          <leafValues>
            3.8664588332176208e-01 -3.3504897356033325e-01</leafValues></_>
        <_>
          <internalNodes>
            0 -1 57 -1.1058762669563293e-02</internalNodes>
          <leafValues>
            6.7127060890197754e-01 -1.6721682250499725e-01</leafValues></_>
        <_>
          <internalNodes>
            0 -1 93 1.6961861401796341e-02</internalNodes>
          <leafValues>
            -2.2090689837932587e-01 4.3909257650375366e-01</leafValues></_>
        <_>
          <internalNodes>
            0 -1 78 -7.7032959088683128e-03</internalNodes>
          <leafValues>
            4.3044158816337585e-01 -1.5892004966735840e-01</leafValues></_>
        <_>
          <internalNodes>
            0 -1 53 5.3085081279277802e-02</internalNodes>
          <leafValues>
            1.0151989758014679e-01 -6.0438406467437744e-01</leafValues></_>
        <_>
          <internalNodes>
            0 -1 120 1.8237002193927765e-02</internalNodes>
          <leafValues>
            -8.7020285427570343e-02 7.2352027893066406e-01</leafValues></_>
        <_>
          <internalNodes>
            0 -1 18 -9.9511984735727310e-03</internalNodes>
          <leafValues>
            -3.4005868434906006e-01 1.7035697400569916e-01</leafValues></_>
        <_>
          <internalNodes>
            0 -1 24 2.2435383871197701e-03</internalNodes>
          <leafValues>
            -1.3687267899513245e-01 3.9126729965209961e-01</leafValues></_>
        <_>
          <internalNodes>
            0 -1 121 1.2909427285194397e-02</internalNodes>
          <leafValues>
            -1.3490781188011169e-01 4.2252114415168762e-01</leafValues></_>
        <_>
          <internalNodes>
            0 -1 127 -4.9671707674860954e-03</internalNodes>
          <leafValues>
            4.9253427982330322e-01 -1.2401545792818069e-01</leafValues></_>
        <_>
          <internalNodes>
            0 -1 129 -9.3599241226911545e-03</internalNodes>
          <leafValues>
            4.7760835289955139e-01 -9.7567878663539886e-02</leafValues></_>
        <_>
          <internalNodes>
            0 -1 87 3.0802633613348007e-02</internalNodes>
          <leafValues>
            -1.0765326023101807e-01 3.7556138634681702e-01</leafValues></_>
        <_>
          <internalNodes>
            0 -1 20 -4.0170522406697273e-03</internalNodes>
          <leafValues>
            3.6355385184288025e-01 -1.2006814032793045e-01</leafValues></_>
        <_>
          <internalNodes>
            0 -1 14 -1.4101651310920715e-01</internalNodes>
          <leafValues>
            -7.4103569984436035e-01 8.8186345994472504e-02</leafValues></_>
        <_>
          <internalNodes>
            0 -1 34 -7.0706792175769806e-03</internalNodes>
          <leafValues>
            2.8405916690826416e-01 -1.6892856359481812e-01</leafValues></_>
        <_>
          <internalNodes>
            0 -1 68 -1.1541198939085007e-02</internalNodes>
          <leafValues>
            -7.3050498962402344e-01 7.7446900308132172e-02</leafValues></_>
        <_>
          <internalNodes>
            0 -1 49 1.7942801117897034e-02</internalNodes>
          <leafValues>
            -1.3004669547080994e-01 3.2817742228507996e-01</leafValues></_>
        <_>
          <internalNodes>
            0 -1 114 -1.6055420041084290e-02</internalNodes>
          <leafValues>
            6.1003482341766357e-01 -6.2196779996156693e-02</leafValues></_>
        <_>
          <internalNodes>
            0 -1 104 -6.2967082485556602e-03</internalNodes>
          <leafValues>
            -5.9006482362747192e-01 6.3365362584590912e-02</leafValues></_>
        <_>
          <internalNodes>
            0 -1 123 1.2029064819216728e-02</internalNodes>
          <leafValues>
            -7.9241469502449036e-02 4.7896590828895569e-01</leafValues></_>
        <_>
          <internalNodes>
            0 -1 19 1.7140746116638184e-02</internalNodes>
          <leafValues>
            -1.0936138033866882e-01 3.0344530940055847e-01</leafValues></_>
        <_>
          <internalNodes>
            0 -1 29 -2.4776175618171692e-02</internalNodes>
          <leafValues>
            3.2093757390975952e-01 -1.2061799317598343e-01</leafValues></_>
        <_>
          <internalNodes>
            0 -1 21 -7.7908784151077271e-03</internalNodes>
          <leafValues>
            -6.0660082101821899e-01 6.2567047774791718e-02</leafValues></_>
        <_>
          <internalNodes>
            0 -1 92 -9.3966452404856682e-03</internalNodes>
          <leafValues>
            2.5131666660308838e-01 -1.4117540419101715e-01</leafValues></_>
        <_>
          <internalNodes>
            0 -1 79 2.4932646192610264e-03</internalNodes>
          <leafValues>
            8.4182485938072205e-02 -3.8246101140975952e-01</leafValues></_>
        <_>
          <internalNodes>
            0 -1 13 -1.0729725181590766e-04</internalNodes>
          <leafValues>
            -2.8774952888488770e-01 1.1361461877822876e-01</leafValues></_>
        <_>
          <internalNodes>
            0 -1 42 1.1471018195152283e-02</internalNodes>
          <leafValues>
            -6.4512521028518677e-02 4.7998416423797607e-01</leafValues></_>
        <_>
          <internalNodes>
            0 -1 58 -1.2406725436449051e-02</internalNodes>
          <leafValues>
            -3.8250008225440979e-01 8.4586761891841888e-02</leafValues></_>
        <_>
          <internalNodes>
            0 -1 96 1.4622625894844532e-02</internalNodes>
          <leafValues>
            -8.8926449418067932e-02 3.8794794678688049e-01</leafValues></_>
        <_>
          <internalNodes>
            0 -1 84 -3.3195731230080128e-03</internalNodes>
          <leafValues>
            3.2686141133308411e-01 -1.0342901945114136e-01</leafValues></_>
        <_>
          <internalNodes>
            0 -1 101 -2.2387406788766384e-03</internalNodes>
          <leafValues>
            -4.3245455622673035e-01 8.6395174264907837e-02</leafValues></_>
        <_>
          <internalNodes>
            0 -1 61 1.1122593656182289e-02</internalNodes>
          <leafValues>
            5.5441174656152725e-02 -4.8367422819137573e-01</leafValues></_>
        <_>
          <internalNodes>
            0 -1 109 -4.5987060293555260e-03</internalNodes>
          <leafValues>
            -5.4516363143920898e-01 4.9924790859222412e-02</leafValues></_>
        <_>
          <internalNodes>
            0 -1 39 -9.7999051213264465e-03</internalNodes>
          <leafValues>
            2.5231909751892090e-01 -1.2022338062524796e-01</leafValues></_>
        <_>
          <internalNodes>
            0 -1 73 -1.1351010762155056e-03</internalNodes>
          <leafValues>
            -2.9863500595092773e-01 9.7431920468807220e-02</leafValues></_>
        <_>
          <internalNodes>
            0 -1 47 1.0119274258613586e-02</internalNodes>
          <leafValues>
            -5.5129017680883408e-02 5.4839909076690674e-01</leafValues></_>
        <_>
          <internalNodes>
            0 -1 13 3.2413743610959500e-05</internalNodes>
          <leafValues>
            1.2959183752536774e-01 -2.1549354493618011e-01</leafValues></_></weakClassifiers></_>
    <!-- stage 3 -->
    <_>
      <maxWeakCount>34</maxWeakCount>
      <stageThreshold>-1.7479953765869141e+00</stageThreshold>
      <weakClassifiers>
        <_>
          <internalNodes>
            0 -1 128 2.7346629649400711e-02</internalNodes>
          <leafValues>
            -5.9016650915145874e-01 2.4121128022670746e-01</leafValues></_>
        <_>
          <internalNodes>
            0 -1 81 -4.1741519235074520e-03</internalNodes>
          <leafValues>
            4.6817576885223389e-01 -2.7551457285881042e-01</leafValues></_>
        <_>
          <internalNodes>
            0 -1 40 -8.4026176482439041e-03</internalNodes>
          <leafValues>
            5.4710859060287476e-01 -1.5099149942398071e-01</leafValues></_>
        <_>
          <internalNodes>
            0 -1 116 -1.4247660338878632e-01</internalNodes>
          <leafValues>
            -5.7251757383346558e-01 1.2603455781936646e-01</leafValues></_>
        <_>
          <internalNodes>
            0 -1 15 4.7077005729079247e-03</internalNodes>
          <leafValues>
            -1.8509468436241150e-01 3.5499653220176697e-01</leafValues></_>
        <_>
          <internalNodes>
            0 -1 112 -4.4965453445911407e-02</internalNodes>
          <leafValues>
            6.2378323078155518e-01 -1.1677782982587814e-01</leafValues></_>
        <_>
          <internalNodes>
            0 -1 110 -4.9198839813470840e-02</internalNodes>
          <leafValues>
            3.9648261666297913e-01 -1.4929191768169403e-01</leafValues></_>
        <_>
          <internalNodes>
            0 -1 12 -2.0067006349563599e-01</internalNodes>
          <leafValues>
            6.0496717691421509e-01 -1.0403954237699509e-01</leafValues></_>
        <_>
          <internalNodes>
            0 -1 37 2.9416768811643124e-03</internalNodes>
          <leafValues>
            -1.5001842379570007e-01 3.3823215961456299e-01</leafValues></_>
        <_>
          <internalNodes>
            0 -1 66 -7.2698511183261871e-02</internalNodes>
          <leafValues>
            -5.4828530550003052e-01 8.9551724493503571e-02</leafValues></_>
        <_>
          <internalNodes>
            0 -1 102 2.3075373843312263e-02</internalNodes>
          <leafValues>
            -7.8989788889884949e-02 5.8555084466934204e-01</leafValues></_>
        <_>
          <internalNodes>
            0 -1 91 -5.4385485127568245e-03</internalNodes>
          <leafValues>
            3.9193263649940491e-01 -1.0538080334663391e-01</leafValues></_>
        <_>
          <internalNodes>
            0 -1 41 -2.0099725574254990e-02</internalNodes>
          <leafValues>
            4.3121841549873352e-01 -1.0125526785850525e-01</leafValues></_>
        <_>
          <internalNodes>
            0 -1 5 8.7838210165500641e-03</internalNodes>
          <leafValues>
            -1.9933973252773285e-01 2.3180760443210602e-01</leafValues></_>
        <_>
          <internalNodes>
            0 -1 59 -7.7771580219268799e-01</internalNodes>
          <leafValues>
            -8.3187025785446167e-01 6.7575700581073761e-02</leafValues></_>
        <_>
          <internalNodes>
            0 -1 106 -1.5266208909451962e-02</internalNodes>
          <leafValues>
            5.5007648468017578e-01 -9.1134712100028992e-02</leafValues></_>
        <_>
          <internalNodes>
            0 -1 36 -1.2073408812284470e-01</internalNodes>
          <leafValues>
            -4.5091384649276733e-01 8.8399417698383331e-02</leafValues></_>
        <_>
          <internalNodes>
            0 -1 122 -2.5664432905614376e-03</internalNodes>
          <leafValues>
            -6.3655591011047363e-01 5.6777950376272202e-02</leafValues></_>
        <_>
          <internalNodes>
            0 -1 63 -8.9892715215682983e-02</internalNodes>
          <leafValues>
            7.0228546857833862e-01 -6.7402027547359467e-02</leafValues></_>
        <_>
          <internalNodes>
            0 -1 94 1.5379707328975201e-03</internalNodes>
          <leafValues>
            -1.6665937006473541e-01 2.4269841611385345e-01</leafValues></_>
        <_>
          <internalNodes>
            0 -1 64 3.2243838068097830e-03</internalNodes>
          <leafValues>
            -1.4378061890602112e-01 2.8938826918601990e-01</leafValues></_>
        <_>
          <internalNodes>
            0 -1 26 9.1555938124656677e-03</internalNodes>
          <leafValues>
            -1.4281773567199707e-01 2.6075255870819092e-01</leafValues></_>
        <_>
          <internalNodes>
            0 -1 48 -5.9012770652770996e-03</internalNodes>
          <leafValues>
            -7.9755447804927826e-02 5.3393024206161499e-01</leafValues></_>
        <_>
          <internalNodes>
            0 -1 105 -1.1091534979641438e-03</internalNodes>
          <leafValues>
            3.1197273731231689e-01 -1.0685814172029495e-01</leafValues></_>
        <_>
          <internalNodes>
            0 -1 82 -1.2977391481399536e-02</internalNodes>
          <leafValues>
            3.0494791269302368e-01 -1.1684640496969223e-01</leafValues></_>
        <_>
          <internalNodes>
            0 -1 85 -6.5048262476921082e-02</internalNodes>
          <leafValues>
            -8.2711285352706909e-01 4.1823439300060272e-02</leafValues></_>
        <_>
          <internalNodes>
            0 -1 30 -5.1608996000140905e-04</internalNodes>
          <leafValues>
            -3.8665750622749329e-01 7.5175508856773376e-02</leafValues></_>
        <_>
          <internalNodes>
            0 -1 6 -1.7880585044622421e-02</internalNodes>
          <leafValues>
            3.3449524641036987e-01 -1.0634816437959671e-01</leafValues></_>
        <_>
          <internalNodes>
            0 -1 70 -4.7077372670173645e-02</internalNodes>
          <leafValues>
            -6.2428063154220581e-01 5.4563980549573898e-02</leafValues></_>
        <_>
          <internalNodes>
            0 -1 33 -7.4962186627089977e-03</internalNodes>
          <leafValues>
            -7.3689877986907959e-01 3.1621210277080536e-02</leafValues></_>
        <_>
          <internalNodes>
            0 -1 126 4.8678601160645485e-03</internalNodes>
          <leafValues>
            -1.0567526519298553e-01 2.7187588810920715e-01</leafValues></_>
        <_>
          <internalNodes>
            0 -1 43 -3.2564722001552582e-02</internalNodes>
          <leafValues>
            2.5182023644447327e-01 -1.3238699734210968e-01</leafValues></_>
        <_>
          <internalNodes>
            0 -1 119 -2.4914485402405262e-03</internalNodes>
          <leafValues>
            -4.7287824749946594e-01 6.6892780363559723e-02</leafValues></_>
        <_>
          <internalNodes>
            0 -1 54 -7.1783829480409622e-04</internalNodes>
          <leafValues>
            1.7462196946144104e-01 -1.6623683273792267e-01</leafValues></_></weakClassifiers></_>
    <!-- stage 4 -->
    <_>
      <maxWeakCount>27</maxWeakCount>
      <stageThreshold>-1.7436350584030151e+00</stageThreshold>
      <weakClassifiers>
        <_>
          <internalNodes>
            0 -1 4 -1.4030141830444336e+00</internalNodes>
          <leafValues>
            -7.6979702711105347e-01 7.2866931557655334e-02</leafValues></_>
        <_>
          <internalNodes>
            0 -1 3 4.3164288997650146e-01</internalNodes>
          <leafValues>
            -3.1188392639160156e-01 6.0282999277114868e-01</leafValues></_>
        <_>
          <internalNodes>
            0 -1 88 3.7777688354253769e-02</internalNodes>
          <leafValues>
            -2.3915350437164307e-01 4.0614509582519531e-01</leafValues></_>
        <_>
          <internalNodes>
            0 -1 118 6.1171874403953552e-02</internalNodes>
          <leafValues>
            -1.1924864351749420e-01 5.7099604606628418e-01</leafValues></_>
        <_>
          <internalNodes>
            0 -1 100 -1.4422414824366570e-02</internalNodes>
          <leafValues>
            4.2581954598426819e-01 -1.6094115376472473e-01</leafValues></_>
        <_>
          <internalNodes>
            0 -1 107 -1.5479330904781818e-03</internalNodes>
          <leafValues>
            -6.0846424102783203e-01 1.0837595164775848e-01</leafValues></_>
        <_>
          <internalNodes>
            0 -1 103 -1.9414403941482306e-03</internalNodes>
          <leafValues>
            -6.5604734420776367e-01 1.0171100497245789e-01</leafValues></_>
        <_>
          <internalNodes>
            0 -1 86 8.0059403553605080e-03</internalNodes>
          <leafValues>
            -1.9683586061000824e-01 3.4783446788787842e-01</leafValues></_>
        <_>
          <internalNodes>
            0 -1 17 -1.0538082569837570e-02</internalNodes>
          <leafValues>
            3.3629316091537476e-01 -1.7393919825553894e-01</leafValues></_>
        <_>
          <internalNodes>
            0 -1 69 -7.1539869531989098e-04</internalNodes>
          <leafValues>
            2.6659902930259705e-01 -2.4976879358291626e-01</leafValues></_>
        <_>
          <internalNodes>
            0 -1 124 -3.1732659786939621e-02</internalNodes>
          <leafValues>
            5.0070250034332275e-01 -1.2232103943824768e-01</leafValues></_>
        <_>
          <internalNodes>
            0 -1 8 -3.1947724521160126e-02</internalNodes>
          <leafValues>
            5.4681855440139771e-01 -1.0272229462862015e-01</leafValues></_>
        <_>
          <internalNodes>
            0 -1 125 -7.2175532113760710e-04</internalNodes>
          <leafValues>
            -5.0461441278457642e-01 1.0206700861454010e-01</leafValues></_>
        <_>
          <internalNodes>
            0 -1 72 2.5909878313541412e-02</internalNodes>
          <leafValues>
            -1.5848827362060547e-01 2.9380530118942261e-01</leafValues></_>
        <_>
          <internalNodes>
            0 -1 62 7.6149078086018562e-03</internalNodes>
          <leafValues>
            -6.7600548267364502e-02 5.1810681819915771e-01</leafValues></_>
        <_>
          <internalNodes>
            0 -1 31 -6.8108947016298771e-04</internalNodes>
          <leafValues>
            -4.7231945395469666e-01 9.6058294177055359e-02</leafValues></_>
        <_>
          <internalNodes>
            0 -1 22 -2.6001092046499252e-03</internalNodes>
          <leafValues>
            -4.3659317493438721e-01 9.2494472861289978e-02</leafValues></_>
        <_>
          <internalNodes>
            0 -1 51 -3.1624361872673035e-02</internalNodes>
          <leafValues>
            4.6501567959785461e-01 -9.3524090945720673e-02</leafValues></_>
        <_>
          <internalNodes>
            0 -1 45 -6.4888358116149902e-02</internalNodes>
          <leafValues>
            3.9792749285697937e-01 -9.3411132693290710e-02</leafValues></_>
        <_>
          <internalNodes>
            0 -1 7 -2.1204417571425438e-02</internalNodes>
          <leafValues>
            5.0896012783050537e-01 -7.7492378652095795e-02</leafValues></_>
        <_>
          <internalNodes>
            0 -1 35 -1.2409531511366367e-02</internalNodes>
          <leafValues>
            3.1411445140838623e-01 -1.2415511906147003e-01</leafValues></_>
        <_>
          <internalNodes>
            0 -1 113 -2.8290646150708199e-02</internalNodes>
          <leafValues>
            -4.6053808927536011e-01 8.8354654610157013e-02</leafValues></_>
        <_>
          <internalNodes>
            0 -1 130 -1.3021178543567657e-02</internalNodes>
          <leafValues>
            5.0399351119995117e-01 -8.4638394415378571e-02</leafValues></_>
        <_>
          <internalNodes>
            0 -1 89 -1.1917687952518463e-02</internalNodes>
          <leafValues>
            7.5049382448196411e-01 -4.4297810643911362e-02</leafValues></_>
        <_>
          <internalNodes>
            0 -1 71 -7.6310060918331146e-02</internalNodes>
          <leafValues>
            5.7458180189132690e-01 -5.9989791363477707e-02</leafValues></_>
        <_>
          <internalNodes>
            0 -1 55 7.1678981184959412e-03</internalNodes>
          <leafValues>
            -1.5461573004722595e-01 2.4887521564960480e-01</leafValues></_>
        <_>
          <internalNodes>
            0 -1 60 -8.3268887829035521e-04</internalNodes>
          <leafValues>
            -3.5698816180229187e-01 1.0619586706161499e-01</leafValues></_></weakClassifiers></_></stages>
  <features>
    <_>
      <rects>
        <_>
          0 0 6 21 -1.</_>
        <_>
          3 0 3 21 2.</_></rects>
      <tilted>0</tilted></_>
    <_>
      <rects>
        <_>
          0 0 18 9 -1.</_>
        <_>
          6 0 6 9 2.</_></rects>
      <tilted>0</tilted></_>
    <_>
      <rects>
        <_>
          0 0 24 22 -1.</_>
        <_>
          6 0 12 22 2.</_></rects>
      <tilted>0</tilted></_>
    <_>
      <rects>
        <_>
          0 0 24 23 -1.</_>
        <_>
          6 0 12 23 2.</_></rects>
      <tilted>0</tilted></_>
    <_>
      <rects>
        <_>
          0 0 24 20 -1.</_>
        <_>
          8 0 8 20 2.</_></rects>
      <tilted>0</tilted></_>
    <_>
      <rects>
        <_>
          0 0 10 8 -1.</_>
        <_>
          0 4 10 4 2.</_></rects>
      <tilted>0</tilted></_>
    <_>
      <rects>
        <_>
          0 1 8 10 -1.</_>
        <_>
          0 1 4 5 2.</_>
        <_>
          4 6 4 5 2.</_></rects>
      <tilted>0</tilted></_>
    <_>
      <rects>
        <_>
          0 1 20 1 -1.</_>
        <_>
          5 1 10 1 2.</_></rects>
      <tilted>0</tilted></_>
    <_>
      <rects>
        <_>
          0 2 4 17 -1.</_>
        <_>
          2 2 2 17 2.</_></rects>
      <tilted>0</tilted></_>
    <_>
      <rects>
        <_>
          0 3 6 7 -1.</_>
        <_>
          3 3 3 7 2.</_></rects>
      <tilted>0</tilted></_>
    <_>
      <rects>
        <_>
          0 4 24 16 -1.</_>
        <_>
          6 4 12 16 2.</_></rects>
      <tilted>0</tilted></_>
    <_>
      <rects>
        <_>
          0 5 4 13 -1.</_>
        <_>
          2 5 2 13 2.</_></rects>
      <tilted>0</tilted></_>
    <_>
      <rects>
        <_>
          0 17 24 6 -1.</_>
        <_>
          8 19 8 2 9.</_></rects>
      <tilted>0</tilted></_>
    <_>
      <rects>
        <_>
          0 18 2 2 -1.</_>
        <_>
          0 18 1 1 2.</_>
        <_>
          1 19 1 1 2.</_></rects>
      <tilted>0</tilted></_>
    <_>
      <rects>
        <_>
          0 20 12 2 -1.</_>
        <_>
          4 20 4 2 2.</_></rects>
      <tilted>0</tilted></_>
    <_>
      <rects>
        <_>
          1 0 2 24 -1.</_>
        <_>
          2 0 1 24 2.</_></rects>
      <tilted>0</tilted></_>
    <_>
      <rects>
        <_>
          1 0 8 6 -1.</_>
        <_>
          1 0 4 3 2.</_>
        <_>
          5 3 4 3 2.</_></rects>
      <tilted>0</tilted></_>
    <_>
      <rects>
        <_>
          1 1 10 1 -1.</_>
        <_>
          1 1 5 1 2.</_></rects>
      <tilted>1</tilted></_>
    <_>
      <rects>
        <_>
          1 3 1 3 -1.</_>
        <_>
          1 4 1 1 2.</_></rects>
      <tilted>0</tilted></_>
    <_>
      <rects>
        <_>
          1 3 8 10 -1.</_>
        <_>
          1 3 4 5 2.</_>
        <_>
          5 8 4 5 2.</_></rects>
      <tilted>0</tilted></_>
    <_>
      <rects>
        <_>
          1 5 2 15 -1.</_>
        <_>
          2 5 1 15 2.</_></rects>
      <tilted>0</tilted></_>
    <_>
      <rects>
        <_>
          1 11 11 4 -1.</_>
        <_>
          1 12 11 2 2.</_></rects>
      <tilted>0</tilted></_>
    <_>
      <rects>
        <_>
          1 12 6 4 -1.</_>
        <_>
          1 13 6 2 2.</_></rects>
      <tilted>0</tilted></_>
    <_>
      <rects>
        <_>
          1 13 2 5 -1.</_>
        <_>
          2 13 1 5 2.</_></rects>
      <tilted>0</tilted></_>
    <_>
      <rects>
        <_>
          1 13 2 6 -1.</_>
        <_>
          2 13 1 6 2.</_></rects>
      <tilted>0</tilted></_>
    <_>
      <rects>
        <_>
          1 13 4 3 -1.</_>
        <_>
          3 13 2 3 2.</_></rects>
      <tilted>0</tilted></_>
    <_>
      <rects>
        <_>
          1 17 6 5 -1.</_>
        <_>
          4 17 3 5 2.</_></rects>
      <tilted>0</tilted></_>
    <_>
      <rects>
        <_>
          2 0 3 2 -1.</_>
        <_>
          2 0 3 1 2.</_></rects>
      <tilted>1</tilted></_>
    <_>
      <rects>
        <_>
          2 0 12 1 -1.</_>
        <_>
          6 0 4 1 2.</_></rects>
      <tilted>0</tilted></_>
    <_>
      <rects>
        <_>
          2 2 10 12 -1.</_>
        <_>
          2 2 5 6 2.</_>
        <_>
          7 8 5 6 2.</_></rects>
      <tilted>0</tilted></_>
    <_>
      <rects>
        <_>
          2 9 1 4 -1.</_>
        <_>
          2 10 1 2 2.</_></rects>
      <tilted>0</tilted></_>
    <_>
      <rects>
        <_>
          2 10 1 4 -1.</_>
        <_>
          2 11 1 2 2.</_></rects>
      <tilted>0</tilted></_>
    <_>
      <rects>
        <_>
          2 10 4 8 -1.</_>
        <_>
          2 10 2 4 2.</_>
        <_>
          4 14 2 4 2.</_></rects>
      <tilted>0</tilted></_>
    <_>
      <rects>
        <_>
          2 14 16 2 -1.</_>
        <_>
          2 14 8 1 2.</_>
        <_>
          10 15 8 1 2.</_></rects>
      <tilted>0</tilted></_>
    <_>
      <rects>
        <_>
          3 0 4 2 -1.</_>
        <_>
          3 0 2 2 2.</_></rects>
      <tilted>1</tilted></_>
    <_>
      <rects>
        <_>
          3 0 4 3 -1.</_>
        <_>
          3 0 2 3 2.</_></rects>
      <tilted>1</tilted></_>
    <_>
      <rects>
        <_>
          3 0 18 22 -1.</_>
        <_>
          3 0 9 11 2.</_>
        <_>
          12 11 9 11 2.</_></rects>
      <tilted>0</tilted></_>
    <_>
      <rects>
        <_>
          3 1 4 6 -1.</_>
        <_>
          3 1 2 3 2.</_>
        <_>
          5 4 2 3 2.</_></rects>
      <tilted>0</tilted></_>
    <_>
      <rects>
        <_>
          3 1 6 12 -1.</_>
        <_>
          3 1 3 6 2.</_>
        <_>
          6 7 3 6 2.</_></rects>
      <tilted>0</tilted></_>
    <_>
      <rects>
        <_>
          3 12 6 10 -1.</_>
        <_>
          3 12 3 5 2.</_>
        <_>
          6 17 3 5 2.</_></rects>
      <tilted>0</tilted></_>
    <_>
      <rects>
        <_>
          3 13 7 3 -1.</_>
        <_>
          2 14 7 1 3.</_></rects>
      <tilted>1</tilted></_>
    <_>
      <rects>
        <_>
          4 0 11 4 -1.</_>
        <_>
          4 2 11 2 2.</_></rects>
      <tilted>0</tilted></_>
    <_>
      <rects>
        <_>
          4 11 9 3 -1.</_>
        <_>
          3 12 9 1 3.</_></rects>
      <tilted>1</tilted></_>
    <_>
      <rects>
        <_>
          4 13 6 10 -1.</_>
        <_>
          4 18 6 5 2.</_></rects>
      <tilted>0</tilted></_>
    <_>
      <rects>
        <_>
          4 14 5 4 -1.</_>
        <_>
          4 14 5 2 2.</_></rects>
      <tilted>1</tilted></_>
    <_>
      <rects>
        <_>
          4 18 15 6 -1.</_>
        <_>
          4 21 15 3 2.</_></rects>
      <tilted>0</tilted></_>
    <_>
      <rects>
        <_>
          5 0 2 4 -1.</_>
        <_>
          5 0 1 4 2.</_></rects>
      <tilted>1</tilted></_>
    <_>
      <rects>
        <_>
          5 1 3 5 -1.</_>
        <_>
          6 2 1 5 3.</_></rects>
      <tilted>1</tilted></_>
    <_>
      <rects>
        <_>
          5 8 6 1 -1.</_>
        <_>
          7 8 2 1 2.</_></rects>
      <tilted>0</tilted></_>
    <_>
      <rects>
        <_>
          5 18 10 6 -1.</_>
        <_>
          5 21 10 3 2.</_></rects>
      <tilted>0</tilted></_>
    <_>
      <rects>
        <_>
          5 21 6 2 -1.</_>
        <_>
          7 21 2 2 2.</_></rects>
      <tilted>0</tilted></_>
    <_>
      <rects>
        <_>
          6 0 9 8 -1.</_>
        <_>
          6 2 9 4 2.</_></rects>
      <tilted>0</tilted></_>
    <_>
      <rects>
        <_>
          6 1 3 6 -1.</_>
        <_>
          7 2 1 6 3.</_></rects>
      <tilted>1</tilted></_>
    <_>
      <rects>
        <_>
          6 3 10 12 -1.</_>
        <_>
          11 3 5 12 2.</_></rects>
      <tilted>0</tilted></_>
    <_>
      <rects>
        <_>
          6 12 6 6 -1.</_>
        <_>
          6 12 3 3 2.</_>
        <_>
          9 15 3 3 2.</_></rects>
      <tilted>0</tilted></_>
    <_>
      <rects>
        <_>
          6 13 1 6 -1.</_>
        <_>
          6 13 1 3 2.</_></rects>
      <tilted>1</tilted></_>
    <_>
      <rects>
        <_>
          6 14 12 2 -1.</_>
        <_>
          10 14 4 2 2.</_></rects>
      <tilted>0</tilted></_>
    <_>
      <rects>
        <_>
          7 0 3 7 -1.</_>
        <_>
          8 1 1 7 3.</_></rects>
      <tilted>1</tilted></_>
    <_>
      <rects>
        <_>
          7 0 2 6 -1.</_>
        <_>
          7 0 2 3 2.</_></rects>
      <tilted>1</tilted></_>
    <_>
      <rects>
        <_>
          7 11 10 12 -1.</_>
        <_>
          7 15 10 4 2.</_></rects>
      <tilted>0</tilted></_>
    <_>
      <rects>
        <_>
          7 17 3 1 -1.</_>
        <_>
          8 18 1 1 3.</_></rects>
      <tilted>1</tilted></_>
    <_>
      <rects>
        <_>
          8 1 1 6 -1.</_>
        <_>
          8 1 1 3 2.</_></rects>
      <tilted>1</tilted></_>
    <_>
      <rects>
        <_>
          8 1 7 2 -1.</_>
        <_>
          8 2 7 1 2.</_></rects>
      <tilted>0</tilted></_>
    <_>
      <rects>
        <_>
          8 7 9 8 -1.</_>
        <_>
          6 9 9 4 2.</_></rects>
      <tilted>1</tilted></_>
    <_>
      <rects>
        <_>
          8 20 6 4 -1.</_>
        <_>
          8 22 6 2 2.</_></rects>
      <tilted>0</tilted></_>
    <_>
      <rects>
        <_>
          8 21 8 2 -1.</_>
        <_>
          8 22 8 1 2.</_></rects>
      <tilted>0</tilted></_>
    <_>
      <rects>
        <_>
          9 0 4 24 -1.</_>
        <_>
          9 12 4 12 2.</_></rects>
      <tilted>0</tilted></_>
    <_>
      <rects>
        <_>
          9 8 6 7 -1.</_>
        <_>
          11 8 2 7 2.</_></rects>
      <tilted>0</tilted></_>
    <_>
      <rects>
        <_>
          9 9 15 4 -1.</_>
        <_>
          9 10 15 2 2.</_></rects>
      <tilted>0</tilted></_>
    <_>
      <rects>
        <_>
          10 8 5 6 -1.</_>
        <_>
          10 8 5 3 2.</_></rects>
      <tilted>1</tilted></_>
    <_>
      <rects>
        <_>
          11 0 2 10 -1.</_>
        <_>
          11 0 2 5 2.</_></rects>
      <tilted>1</tilted></_>
    <_>
      <rects>
        <_>
          11 9 5 9 -1.</_>
        <_>
          8 12 5 3 3.</_></rects>
      <tilted>1</tilted></_>
    <_>
      <rects>
        <_>
          11 11 10 10 -1.</_>
        <_>
          11 11 5 5 2.</_>
        <_>
          16 16 5 5 2.</_></rects>
      <tilted>0</tilted></_>
    <_>
      <rects>
        <_>
          11 15 3 3 -1.</_>
        <_>
          12 16 1 1 9.</_></rects>
      <tilted>0</tilted></_>
    <_>
      <rects>
        <_>
          11 16 7 8 -1.</_>
        <_>
          11 20 7 4 2.</_></rects>
      <tilted>0</tilted></_>
    <_>
      <rects>
        <_>
          12 0 10 6 -1.</_>
        <_>
          17 0 5 6 2.</_></rects>
      <tilted>0</tilted></_>
    <_>
      <rects>
        <_>
          12 0 11 12 -1.</_>
        <_>
          12 0 11 6 2.</_></rects>
      <tilted>1</tilted></_>
    <_>
      <rects>
        <_>
          12 0 12 12 -1.</_>
        <_>
          12 0 12 6 2.</_></rects>
      <tilted>1</tilted></_>
    <_>
      <rects>
        <_>
          12 1 10 4 -1.</_>
        <_>
          12 1 5 2 2.</_>
        <_>
          17 3 5 2 2.</_></rects>
      <tilted>0</tilted></_>
    <_>
      <rects>
        <_>
          12 4 3 2 -1.</_>
        <_>
          12 4 3 1 2.</_></rects>
      <tilted>1</tilted></_>
    <_>
      <rects>
        <_>
          12 16 6 1 -1.</_>
        <_>
          12 16 3 1 2.</_></rects>
      <tilted>1</tilted></_>
    <_>
      <rects>
        <_>
          13 0 3 2 -1.</_>
        <_>
          13 0 3 1 2.</_></rects>
      <tilted>1</tilted></_>
    <_>
      <rects>
        <_>
          13 3 6 10 -1.</_>
        <_>
          13 3 3 5 2.</_>
        <_>
          16 8 3 5 2.</_></rects>
      <tilted>0</tilted></_>
    <_>
      <rects>
        <_>
          13 3 7 10 -1.</_>
        <_>
          13 3 7 5 2.</_></rects>
      <tilted>1</tilted></_>
    <_>
      <rects>
        <_>
          14 0 2 4 -1.</_>
        <_>
          14 2 2 2 2.</_></rects>
      <tilted>0</tilted></_>
    <_>
      <rects>
        <_>
          14 1 4 23 -1.</_>
        <_>
          16 1 2 23 2.</_></rects>
      <tilted>0</tilted></_>
    <_>
      <rects>
        <_>
          14 3 8 3 -1.</_>
        <_>
          18 3 4 3 2.</_></rects>
      <tilted>0</tilted></_>
    <_>
      <rects>
        <_>
          14 7 6 8 -1.</_>
        <_>
          16 9 2 8 3.</_></rects>
      <tilted>1</tilted></_>
    <_>
      <rects>
        <_>
          14 8 8 8 -1.</_>
        <_>
          16 10 4 8 2.</_></rects>
      <tilted>1</tilted></_>
    <_>
      <rects>
        <_>
          14 9 2 4 -1.</_>
        <_>
          13 10 2 2 2.</_></rects>
      <tilted>1</tilted></_>
    <_>
      <rects>
        <_>
          14 9 8 11 -1.</_>
        <_>
          18 9 4 11 2.</_></rects>
      <tilted>0</tilted></_>
    <_>
      <rects>
        <_>
          14 10 2 6 -1.</_>
        <_>
          14 13 2 3 2.</_></rects>
      <tilted>0</tilted></_>
    <_>
      <rects>
        <_>
          14 10 4 8 -1.</_>
        <_>
          16 10 2 8 2.</_></rects>
      <tilted>0</tilted></_>
    <_>
      <rects>
        <_>
          14 10 8 10 -1.</_>
        <_>
          14 10 4 5 2.</_>
        <_>
          18 15 4 5 2.</_></rects>
      <tilted>0</tilted></_>
    <_>
      <rects>
        <_>
          14 18 2 3 -1.</_>
        <_>
          14 18 1 3 2.</_></rects>
      <tilted>1</tilted></_>
    <_>
      <rects>
        <_>
          15 0 4 14 -1.</_>
        <_>
          15 0 2 7 2.</_>
        <_>
          17 7 2 7 2.</_></rects>
      <tilted>0</tilted></_>
    <_>
      <rects>
        <_>
          15 0 4 6 -1.</_>
        <_>
          15 3 4 3 2.</_></rects>
      <tilted>0</tilted></_>
    <_>
      <rects>
        <_>
          15 0 9 2 -1.</_>
        <_>
          15 0 9 1 2.</_></rects>
      <tilted>1</tilted></_>
    <_>
      <rects>
        <_>
          15 7 8 8 -1.</_>
        <_>
          17 9 4 8 2.</_></rects>
      <tilted>1</tilted></_>
    <_>
      <rects>
        <_>
          15 9 4 14 -1.</_>
        <_>
          15 9 2 7 2.</_>
        <_>
          17 16 2 7 2.</_></rects>
      <tilted>0</tilted></_>
    <_>
      <rects>
        <_>
          16 0 3 4 -1.</_>
        <_>
          16 0 3 2 2.</_></rects>
      <tilted>1</tilted></_>
    <_>
      <rects>
        <_>
          16 1 3 2 -1.</_>
        <_>
          17 2 1 2 3.</_></rects>
      <tilted>1</tilted></_>
    <_>
      <rects>
        <_>
          16 1 6 10 -1.</_>
        <_>
          16 1 3 5 2.</_>
        <_>
          19 6 3 5 2.</_></rects>
      <tilted>0</tilted></_>
    <_>
      <rects>
        <_>
          16 2 3 1 -1.</_>
        <_>
          17 3 1 1 3.</_></rects>
      <tilted>1</tilted></_>
    <_>
      <rects>
        <_>
          16 12 8 4 -1.</_>
        <_>
          16 13 8 2 2.</_></rects>
      <tilted>0</tilted></_>
    <_>
      <rects>
        <_>
          17 0 1 2 -1.</_>
        <_>
          17 0 1 1 2.</_></rects>
      <tilted>1</tilted></_>
    <_>
      <rects>
        <_>
          17 0 7 3 -1.</_>
        <_>
          16 1 7 1 3.</_></rects>
      <tilted>1</tilted></_>
    <_>
      <rects>
        <_>
          17 3 3 1 -1.</_>
        <_>
          18 4 1 1 3.</_></rects>
      <tilted>1</tilted></_>
    <_>
      <rects>
        <_>
          17 5 6 3 -1.</_>
        <_>
          20 5 3 3 2.</_></rects>
      <tilted>0</tilted></_>
    <_>
      <rects>
        <_>
          17 7 6 4 -1.</_>
        <_>
          17 8 6 2 2.</_></rects>
      <tilted>0</tilted></_>
    <_>
      <rects>
        <_>
          18 0 6 20 -1.</_>
        <_>
          21 0 3 20 2.</_></rects>
      <tilted>0</tilted></_>
    <_>
      <rects>
        <_>
          18 0 5 4 -1.</_>
        <_>
          17 1 5 2 2.</_></rects>
      <tilted>1</tilted></_>
    <_>
      <rects>
        <_>
          18 0 6 6 -1.</_>
        <_>
          16 2 6 2 3.</_></rects>
      <tilted>1</tilted></_>
    <_>
      <rects>
        <_>
          18 1 2 3 -1.</_>
        <_>
          18 2 2 1 2.</_></rects>
      <tilted>0</tilted></_>
    <_>
      <rects>
        <_>
          18 1 6 3 -1.</_>
        <_>
          17 2 6 1 3.</_></rects>
      <tilted>1</tilted></_>
    <_>
      <rects>
        <_>
          18 2 6 9 -1.</_>
        <_>
          21 2 3 9 2.</_></rects>
      <tilted>0</tilted></_>
    <_>
      <rects>
        <_>
          18 2 4 9 -1.</_>
        <_>
          18 5 4 3 2.</_></rects>
      <tilted>0</tilted></_>
    <_>
      <rects>
        <_>
          18 4 6 13 -1.</_>
        <_>
          21 4 3 13 2.</_></rects>
      <tilted>0</tilted></_>
    <_>
      <rects>
        <_>
          18 5 6 18 -1.</_>
        <_>
          21 5 3 18 2.</_></rects>
      <tilted>0</tilted></_>
    <_>
      <rects>
        <_>
          18 8 4 4 -1.</_>
        <_>
          18 9 4 2 2.</_></rects>
      <tilted>0</tilted></_>
    <_>
      <rects>
        <_>
          19 0 5 4 -1.</_>
        <_>
          18 1 5 2 2.</_></rects>
      <tilted>1</tilted></_>
    <_>
      <rects>
        <_>
          19 4 4 7 -1.</_>
        <_>
          21 4 2 7 2.</_></rects>
      <tilted>0</tilted></_>
    <_>
      <rects>
        <_>
          19 10 3 4 -1.</_>
        <_>
          19 11 3 2 2.</_></rects>
      <tilted>0</tilted></_>
    <_>
      <rects>
        <_>
          19 13 4 6 -1.</_>
        <_>
          20 14 2 6 2.</_></rects>
      <tilted>1</tilted></_>
    <_>
      <rects>
        <_>
          20 3 4 15 -1.</_>
        <_>
          22 3 2 15 2.</_></rects>
      <tilted>0</tilted></_>
    <_>
      <rects>
        <_>
          20 9 1 4 -1.</_>
        <_>
          20 10 1 2 2.</_></rects>
      <tilted>0</tilted></_>
    <_>
      <rects>
        <_>
          21 3 2 16 -1.</_>
        <_>
          22 3 1 16 2.</_></rects>
      <tilted>0</tilted></_>
    <_>
      <rects>
        <_>
          21 5 2 11 -1.</_>
        <_>
          22 5 1 11 2.</_></rects>
      <tilted>0</tilted></_>
    <_>
      <rects>
        <_>
          21 7 1 16 -1.</_>
        <_>
          17 11 1 8 2.</_></rects>
      <tilted>1</tilted></_>
    <_>
      <rects>
        <_>
          21 13 3 7 -1.</_>
        <_>
          22 14 1 7 3.</_></rects>
      <tilted>1</tilted></_>
    <_>
      <rects>
        <_>
          21 14 2 7 -1.</_>
        <_>
          21 14 1 7 2.</_></rects>
      <tilted>1</tilted></_></features></cascade>
</opencv_storage>
