<?xml version="1.0"?>
<opencv_storage>
<stage1>
  <maxWeakCount>14</maxWeakCount>
  <stageThreshold>-1.5867310762405396e+00</stageThreshold>
  <weakClassifiers>
    <_>
      <internalNodes>
        0 -1 206574 -7.6208621263504028e-02</internalNodes>
      <leafValues>
        5.0712025165557861e-01 -6.4707618951797485e-01</leafValues></_>
    <_>
      <internalNodes>
        0 -1 17900 8.9956615120172501e-03</internalNodes>
      <leafValues>
        -3.1030803918838501e-01 4.6065819263458252e-01</leafValues></_>
    <_>
      <internalNodes>
        0 -1 50012 -4.9254961311817169e-02</internalNodes>
      <leafValues>
        -8.3692932128906250e-01 1.4711083471775055e-01</leafValues></_>
    <_>
      <internalNodes>
        0 -1 221286 6.1340536922216415e-03</internalNodes>
      <leafValues>
        -2.6291498541831970e-01 4.4230949878692627e-01</leafValues></_>
    <_>
      <internalNodes>
        0 -1 342 3.8774237036705017e-02</internalNodes>
      <leafValues>
        -2.2847168147563934e-01 4.3871363997459412e-01</leafValues></_>
    <_>
      <internalNodes>
        0 -1 235629 4.2702602222561836e-03</internalNodes>
      <leafValues>
        -2.1956986188888550e-01 5.2804243564605713e-01</leafValues></_>
    <_>
      <internalNodes>
        0 -1 247924 -1.0265905410051346e-02</internalNodes>
      <leafValues>
        5.4208946228027344e-01 -1.7978052794933319e-01</leafValues></_>
    <_>
      <internalNodes>
        0 -1 6671 -3.8089281879365444e-03</internalNodes>
      <leafValues>
        4.7481489181518555e-01 -1.8725909292697906e-01</leafValues></_>
    <_>
      <internalNodes>
        0 -1 203307 2.6350226253271103e-02</internalNodes>
      <leafValues>
        -1.8272633850574493e-01 4.6196570992469788e-01</leafValues></_>
    <_>
      <internalNodes>
        0 -1 233135 -1.5215897932648659e-02</internalNodes>
      <leafValues>
        6.4818090200424194e-01 -1.0355195403099060e-01</leafValues></_>
    <_>
      <internalNodes>
        0 -1 187666 -1.4432530403137207e+00</internalNodes>
      <leafValues>
        -9.9318927526473999e-01 7.2496727108955383e-02</leafValues></_>
    <_>
      <internalNodes>
        0 -1 82927 -6.4575066789984703e-03</internalNodes>
      <leafValues>
        4.7298517823219299e-01 -1.4545558393001556e-01</leafValues></_>
    <_>
      <internalNodes>
        0 -1 47872 -1.2821305543184280e-02</internalNodes>
      <leafValues>
        6.3724023103713989e-01 -1.1304830759763718e-01</leafValues></_>
    <_>
      <internalNodes>
        0 -1 217486 1.0057249665260315e-01</internalNodes>
      <leafValues>
        1.2913182377815247e-01 -6.0555422306060791e-01</leafValues></_></weakClassifiers></stage1>
</opencv_storage>
