<?xml version="1.0"?>
<opencv_storage>
<cascade>
  <stageType>BOOST</stageType>
  <featureType>HAAR</featureType>
  <height>32</height>
  <width>32</width>
  <stageParams>
    <boostType>GAB</boostType>
    <minHitRate>9.9500000476837158e-01</minHitRate>
    <maxFalseAlarm>5.0000000000000000e-01</maxFalseAlarm>
    <weightTrimRate>9.4999999999999996e-01</weightTrimRate>
    <maxDepth>1</maxDepth>
    <maxWeakCount>100</maxWeakCount></stageParams>
  <featureParams>
    <maxCatCount>0</maxCatCount>
    <featSize>1</featSize>
    <mode>ALL</mode></featureParams>
  <stageNum>5</stageNum>
  <stages>
    <!-- stage 0 -->
    <_>
      <maxWeakCount>1</maxWeakCount>
      <stageThreshold>1.</stageThreshold>
      <weakClassifiers>
        <_>
          <internalNodes>
            0 -1 1 -5.4151445627212524e-02</internalNodes>
          <leafValues>
            -1. 1.</leafValues></_></weakClassifiers></_>
    <!-- stage 1 -->
    <_>
      <maxWeakCount>2</maxWeakCount>
      <stageThreshold>-1.5169282257556915e-01</stageThreshold>
      <weakClassifiers>
        <_>
          <internalNodes>
            0 -1 2 -4.4887822121381760e-02</internalNodes>
          <leafValues>
            7.8942573070526123e-01 -9.0818858146667480e-01</leafValues></_>
        <_>
          <internalNodes>
            0 -1 4 -2.6870191504713148e-05</internalNodes>
          <leafValues>
            -1. 7.5649577379226685e-01</leafValues></_></weakClassifiers></_>
    <!-- stage 2 -->
    <_>
      <maxWeakCount>1</maxWeakCount>
      <stageThreshold>9.6653544902801514e-01</stageThreshold>
      <weakClassifiers>
        <_>
          <internalNodes>
            0 -1 5 1.4565433375537395e-03</internalNodes>
          <leafValues>
            -9.9586778879165649e-01 9.6653544902801514e-01</leafValues></_></weakClassifiers></_>
    <!-- stage 3 -->
    <_>
      <maxWeakCount>2</maxWeakCount>
      <stageThreshold>-3.3479565382003784e-01</stageThreshold>
      <weakClassifiers>
        <_>
          <internalNodes>
            0 -1 3 -7.5471159070730209e-03</internalNodes>
          <leafValues>
            8.1066179275512695e-01 -9.2718446254730225e-01</leafValues></_>
        <_>
          <internalNodes>
            0 -1 0 -1.0881053749471903e-03</internalNodes>
          <leafValues>
            5.9238880872726440e-01 -9.9667656421661377e-01</leafValues></_></weakClassifiers></_>
    <!-- stage 4 -->
    <_>
      <maxWeakCount>4</maxWeakCount>
      <stageThreshold>-7.1790051460266113e-01</stageThreshold>
      <weakClassifiers>
        <_>
          <internalNodes>
            0 -1 6 1.4927664771676064e-02</internalNodes>
          <leafValues>
            -9.2581140995025635e-01 6.7955803871154785e-01</leafValues></_>
        <_>
          <internalNodes>
            0 -1 9 -1.5504680050071329e-05</internalNodes>
          <leafValues>
            -8.4692633152008057e-01 5.6936490535736084e-01</leafValues></_>
        <_>
          <internalNodes>
            0 -1 7 -7.9882074714987539e-06</internalNodes>
          <leafValues>
            5.4679137468338013e-01 -8.2297062873840332e-01</leafValues></_>
        <_>
          <internalNodes>
            0 -1 8 8.6141983047127724e-05</internalNodes>
          <leafValues>
            -7.9015755653381348e-01 4.6151661872863770e-01</leafValues></_></weakClassifiers></_></stages>
  <features>
    <_>
      <rects>
        <_>
          0 8 20 16 -1.</_>
        <_>
          10 8 10 16 2.</_></rects>
      <tilted>0</tilted></_>
    <_>
      <rects>
        <_>
          0 9 23 12 -1.</_>
        <_>
          0 13 23 4 2.</_></rects>
      <tilted>0</tilted></_>
    <_>
      <rects>
        <_>
          10 9 21 12 -1.</_>
        <_>
          17 13 7 4 9.</_></rects>
      <tilted>0</tilted></_>
    <_>
      <rects>
        <_>
          10 17 21 3 -1.</_>
        <_>
          17 18 7 1 9.</_></rects>
      <tilted>0</tilted></_>
    <_>
      <rects>
        <_>
          12 12 9 9 -1.</_>
        <_>
          15 12 3 9 2.</_></rects>
      <tilted>0</tilted></_>
    <_>
      <rects>
        <_>
          14 1 8 29 -1.</_>
        <_>
          18 1 4 29 2.</_></rects>
      <tilted>0</tilted></_>
    <_>
      <rects>
        <_>
          15 9 16 5 -1.</_>
        <_>
          23 9 8 5 2.</_></rects>
      <tilted>0</tilted></_>
    <_>
      <rects>
        <_>
          19 1 4 18 -1.</_>
        <_>
          19 1 2 9 2.</_>
        <_>
          21 10 2 9 2.</_></rects>
      <tilted>0</tilted></_>
    <_>
      <rects>
        <_>
          19 18 10 4 -1.</_>
        <_>
          19 18 5 2 2.</_>
        <_>
          24 20 5 2 2.</_></rects>
      <tilted>0</tilted></_>
    <_>
      <rects>
        <_>
          29 0 3 1 -1.</_>
        <_>
          30 0 1 1 2.</_></rects>
      <tilted>0</tilted></_></features></cascade>
</opencv_storage>
