<?xml version="1.0"?>
<opencv_storage>
<stage1>
  <maxWeakCount>23</maxWeakCount>
  <stageThreshold>-2.0079007148742676e+00</stageThreshold>
  <weakClassifiers>
    <_>
      <internalNodes>
        0 -1 211280 -4.0606096386909485e-02</internalNodes>
      <leafValues>
        4.2234149575233459e-01 -6.8982434272766113e-01</leafValues></_>
    <_>
      <internalNodes>
        0 -1 17900 9.1888010501861572e-03</internalNodes>
      <leafValues>
        -3.4239912033081055e-01 4.9002742767333984e-01</leafValues></_>
    <_>
      <internalNodes>
        0 -1 342 4.0015853941440582e-02</internalNodes>
      <leafValues>
        -2.2919712960720062e-01 4.8497292399406433e-01</leafValues></_>
    <_>
      <internalNodes>
        0 -1 235638 6.9465609267354012e-03</internalNodes>
      <leafValues>
        -2.4253687262535095e-01 5.0538259744644165e-01</leafValues></_>
    <_>
      <internalNodes>
        0 -1 241207 -2.3006787523627281e-02</internalNodes>
      <leafValues>
        5.4693996906280518e-01 -1.3024047017097473e-01</leafValues></_>
    <_>
      <internalNodes>
        0 -1 220819 7.9203154891729355e-03</internalNodes>
      <leafValues>
        -2.3508013784885406e-01 4.1609585285186768e-01</leafValues></_>
    <_>
      <internalNodes>
        0 -1 4357 -1.8127288669347763e-02</internalNodes>
      <leafValues>
        5.2087008953094482e-01 -1.3300317525863647e-01</leafValues></_>
    <_>
      <internalNodes>
        0 -1 654 -5.2251851558685303e-01</internalNodes>
      <leafValues>
        -4.0380683541297913e-01 2.0310364663600922e-01</leafValues></_>
    <_>
      <internalNodes>
        0 -1 192847 9.5204636454582214e-03</internalNodes>
      <leafValues>
        -1.7751868069171906e-01 4.6223619580268860e-01</leafValues></_>
    <_>
      <internalNodes>
        0 -1 240201 -1.8163617700338364e-02</internalNodes>
      <leafValues>
        6.5286064147949219e-01 -1.0227409750223160e-01</leafValues></_>
    <_>
      <internalNodes>
        0 -1 142565 2.5200785603374243e-03</internalNodes>
      <leafValues>
        -1.3483515381813049e-01 4.1063800454139709e-01</leafValues></_>
    <_>
      <internalNodes>
        0 -1 82916 -5.9609506279230118e-03</internalNodes>
      <leafValues>
        5.0797033309936523e-01 -8.0194719135761261e-02</leafValues></_>
    <_>
      <internalNodes>
        0 -1 197003 5.3192038089036942e-02</internalNodes>
      <leafValues>
        1.1298539489507675e-01 -5.1167649030685425e-01</leafValues></_>
    <_>
      <internalNodes>
        0 -1 182594 -1.0271634161472321e-01</internalNodes>
      <leafValues>
        -4.2790108919143677e-01 1.5734902024269104e-01</leafValues></_>
    <_>
      <internalNodes>
        0 -1 44925 6.6174706444144249e-03</internalNodes>
      <leafValues>
        -1.2128086388111115e-01 4.4028651714324951e-01</leafValues></_>
    <_>
      <internalNodes>
        0 -1 34239 -8.2958161830902100e-02</internalNodes>
      <leafValues>
        -7.7850908041000366e-01 5.9681501239538193e-02</leafValues></_>
    <_>
      <internalNodes>
        0 -1 99546 -1.0781072080135345e-02</internalNodes>
      <leafValues>
        5.4739075899124146e-01 -8.9031860232353210e-02</leafValues></_>
    <_>
      <internalNodes>
        0 -1 34121 6.8070366978645325e-03</internalNodes>
      <leafValues>
        6.7409813404083252e-02 -6.3391381502151489e-01</leafValues></_>
    <_>
      <internalNodes>
        0 -1 182276 -1.7419917508959770e-02</internalNodes>
      <leafValues>
        2.5505462288856506e-01 -1.6394491493701935e-01</leafValues></_>
    <_>
      <internalNodes>
        0 -1 80415 -2.8052780777215958e-02</internalNodes>
      <leafValues>
        4.6676933765411377e-01 -8.4412083029747009e-02</leafValues></_>
    <_>
      <internalNodes>
        0 -1 30489 1.4804900856688619e-03</internalNodes>
      <leafValues>
        -1.1912056803703308e-01 3.3350956439971924e-01</leafValues></_>
    <_>
      <internalNodes>
        0 -1 52072 1.5239261090755463e-02</internalNodes>
      <leafValues>
        -1.2516249716281891e-01 3.4048655629158020e-01</leafValues></_>
    <_>
      <internalNodes>
        0 -1 150658 -3.8762077689170837e-02</internalNodes>
      <leafValues>
        -8.3654470741748810e-02 5.6232124567031860e-01</leafValues></_></weakClassifiers></stage1>
</opencv_storage>
